%YAML:1.0
my_svm: !!opencv-ml-svm
   svm_type: C_SVC
   kernel: { type:LINEAR }
   C: 1.
   term_criteria: { epsilon:2.2204460492503131e-16, iterations:100 }
   var_all: 64
   var_count: 64
   class_count: 10
   class_labels: !!opencv-matrix
      rows: 1
      cols: 10
      dt: i
      data: [ 0, 1, 2, 3, 4, 5, 6, 7, 8, 9 ]
   sv_total: 45
   support_vectors:
      - [ 2.27700784e-05, 1.00500947e-05, 5.42776093e-07, 0.,
          -2.90582966e-06, -1.44197584e-05, -1.93500236e-05,
          9.03813998e-06, 2.13400890e-05, 2.52829104e-05,
          -1.47665623e-05, -1.73596964e-05, -2.03248320e-07,
          1.24367543e-05, 1.51719787e-05, 4.16396290e-07, 1.34505526e-05,
          1.04020394e-07, 4.63484594e-06, 2.98969189e-06,
          -9.88421198e-06, -4.04095516e-07, 1.93347405e-05,
          3.23211825e-05, 9.70222391e-06, -2.48495380e-05,
          -1.20566683e-05, -1.44782889e-05, -1.29939035e-05,
          1.43581508e-06, 8.19798788e-06, 1.35586024e-05,
          -1.35014434e-05, 1.00737725e-05, 1.05081028e-06,
          1.51862491e-06, 3.68551014e-06, 3.00663686e-07, 6.76486843e-06,
          6.80647736e-06, 1.59853407e-05, 3.80311963e-06, 1.29599794e-05,
          5.38031372e-06, 5.39458506e-06, -3.67244843e-06,
          1.75088499e-05, -1.13469669e-05, 1.25468932e-05,
          4.52266722e-05, -4.92336903e-06, -9.76425599e-06,
          -1.15755847e-05, 1.23983100e-05, 4.25584631e-06,
          3.96326823e-06, 1.73943063e-05, 4.67650261e-06, 3.33572689e-06,
          2.85095643e-06, -1.96992187e-05, -1.92240823e-05,
          -2.27550609e-05, -1.48374409e-06 ]
      - [ 1.07814767e-05, 1.51948910e-07, -1.23560454e-07,
          -4.08901724e-06, -1.23915452e-05, -8.19196157e-06,
          2.34329627e-06, 8.66573191e-06, 2.55250561e-05, 2.17583943e-06,
          7.43586497e-07, -2.38251982e-06, -2.10112808e-06,
          1.04754588e-06, 1.02023023e-06, -3.84629175e-06,
          2.21880928e-05, 1.49146717e-06, -1.34203788e-06,
          -6.25982537e-08, -3.50798587e-07, 1.87114838e-05,
          2.10001945e-05, 1.60371856e-05, 1.71649262e-05,
          -5.62524974e-06, -8.30429326e-06, -7.86045064e-07,
          3.13023861e-06, 7.90698050e-06, 1.90340270e-05, 1.73997178e-05,
          -4.93723121e-07, 2.51240039e-07, 4.03264067e-07,
          4.09062920e-07, 4.36492201e-06, -1.62584513e-06,
          -5.60925355e-06, 3.08238555e-06, 6.80971652e-06,
          -2.21901769e-06, -1.38044027e-06, -4.69646011e-06,
          -1.00866791e-05, -3.27265070e-06, 8.14113810e-06,
          5.93771392e-06, 1.23783884e-05, -5.94159110e-06,
          -2.14544725e-05, -8.00626094e-06, -5.17422541e-06,
          1.10768951e-06, 3.13230430e-06, 1.42673925e-05, 2.54432562e-05,
          -1.50498472e-05, -1.32467335e-07, 2.68796214e-07,
          -2.08343181e-06, 2.67125614e-07, 1.51984943e-06,
          6.02739692e-06 ]
      - [ 3.18996936e-05, 1.94201421e-05, 1.47780447e-05, 3.87671071e-06,
          -9.79282959e-06, -1.18107628e-05, -1.83849024e-05,
          1.59630272e-05, 2.35071275e-05, 1.28571110e-05, 8.79351683e-06,
          1.76838546e-06, -6.39847303e-06, -1.02314407e-05,
          -5.68792120e-06, 6.20366291e-06, 5.06548076e-06,
          -2.28570425e-05, -7.78694186e-07, 2.08625579e-06,
          -1.89836501e-05, -9.83417976e-06, -3.89767456e-06,
          2.99520780e-05, 3.12176744e-05, -1.82493804e-05,
          -1.80336101e-05, -1.79331091e-05, -3.71463648e-05,
          6.03393619e-06, 1.12318176e-05, 1.08383192e-05,
          -8.62777233e-06, -3.78722652e-05, -3.97741314e-06,
          1.91158006e-06, 1.12233520e-05, 1.24912403e-05, 9.79014203e-06,
          2.62534886e-05, 1.80961633e-05, -4.81226925e-06,
          -1.87579667e-06, -1.51302834e-06, -1.67246128e-06,
          8.69124142e-06, 2.05929427e-05, -1.84166117e-06,
          3.33899661e-05, -2.18297714e-07, -1.70528783e-05,
          -4.62714024e-06, -1.13863480e-05, 4.33328614e-06,
          1.47863568e-06, -4.00011800e-07, 8.92252319e-06,
          -1.86532197e-05, -2.93314997e-06, -5.48354683e-06,
          -4.69563838e-06, -1.09273615e-05, -3.41664418e-05,
          1.39267204e-05 ]
      - [ 2.68469830e-05, 6.96624284e-06, -3.27640782e-06,
          -3.16618411e-06, 3.20569893e-06, -2.23302186e-06,
          -1.87137157e-05, 5.60809349e-05, 3.04020086e-05,
          -5.91829519e-07, 4.70422356e-06, 5.09890788e-06,
          1.77044512e-05, 1.90258452e-05, 1.98934158e-05, 2.81273265e-06,
          1.56863043e-05, -2.50320340e-06, -5.62517289e-06,
          7.70592942e-06, 8.06734988e-06, -1.70919902e-05,
          9.69424309e-06, 8.10167621e-05, -5.20732215e-07,
          -4.51653686e-05, -1.04484143e-05, -6.66740834e-06,
          1.22301140e-06, -1.29362309e-06, -2.47106254e-06,
          1.40645661e-05, -2.74328722e-05, 4.22600642e-05,
          2.33086257e-06, 1.26407213e-06, 6.36217692e-06,
          -4.34743548e-08, -3.99621740e-06, 7.34217110e-06,
          4.16263720e-05, 8.53911843e-06, -2.36780197e-05,
          2.62694971e-06, 5.23617155e-06, -1.59794524e-06,
          3.58794205e-05, -3.39109793e-05, 1.84235478e-06,
          2.60594934e-05, 1.80004815e-06, -1.60571108e-05,
          -1.50092719e-05, 2.17139186e-05, 2.33740229e-06,
          -9.16507452e-06, 2.45738556e-05, -1.54473200e-05,
          2.61053697e-06, 2.33310516e-06, -2.40013674e-06,
          -2.88812352e-08, -4.57545684e-05, 5.44016120e-06 ]
      - [ 3.43163374e-05, 1.84647797e-05, -8.43124417e-06,
          -1.10729106e-05, -2.90156513e-05, -1.60521722e-05,
          -2.40141117e-06, 4.98818099e-06, 1.52032053e-05,
          3.47837085e-05, 3.60220583e-05, -4.43987619e-06,
          -1.55916478e-05, -5.91032494e-06, -9.67446704e-06,
          1.60676864e-05, 1.36938561e-05, -1.54192239e-05,
          -1.99350507e-06, -2.93887319e-06, -1.03229686e-05,
          -3.39060921e-06, -6.23157484e-06, -3.67698453e-06,
          2.45254432e-05, -8.04013598e-06, -4.28287376e-06,
          -6.54743553e-06, -2.92071545e-05, -2.21222090e-05,
          1.22687161e-05, 7.06837181e-06, 1.75308433e-05,
          -4.03217427e-06, -6.41531597e-06, -1.23785430e-05,
          -2.59964168e-06, 8.65848335e-07, -4.57389842e-06,
          1.27981693e-05, 2.30029018e-05, -9.96413746e-07,
          -2.50589392e-06, -7.05269986e-06, -1.63488257e-05,
          -3.95191955e-06, 1.09945786e-05, 8.89405601e-06,
          7.09018195e-06, 1.43240677e-05, -1.46881630e-05,
          -4.12022655e-06, -9.74721843e-06, 1.80421819e-06,
          -8.42338886e-06, 1.09385073e-05, 1.28344200e-05,
          5.10702989e-07, -2.20383140e-06, -8.86848284e-06,
          1.44484773e-06, -2.65169547e-06, -8.98048711e-06,
          8.99377574e-06 ]
      - [ 3.87451109e-05, 1.57972863e-05, 5.36453117e-05, 1.41021646e-05,
          5.07752929e-06, 5.81557106e-06, 1.66816471e-06,
          -4.11654764e-06, 2.21165519e-05, -5.18149825e-08,
          5.12245197e-06, 2.52720311e-05, 2.08962319e-05,
          -2.07147550e-05, -8.68860516e-05, -3.99158296e-07,
          1.65151923e-05, -5.02662406e-05, 1.29886457e-05,
          7.51883704e-07, -2.32961588e-06, -7.92963601e-06,
          -1.14858813e-05, 1.51020868e-05, 2.37731383e-05,
          3.46708612e-06, -2.51055951e-07, 9.94320635e-06,
          -1.61489788e-06, 3.23759195e-05, 1.37060370e-05,
          1.94247696e-05, 3.81017635e-05, -2.46447162e-05,
          -3.23997047e-05, -4.59603689e-05, -2.96019844e-05,
          -5.08645026e-05, -3.29326140e-05, 5.73719008e-05,
          8.02112263e-05, 3.94720882e-06, -7.09878896e-06,
          -2.78528314e-05, -3.03109719e-05, 1.26884725e-05,
          1.39362437e-05, 5.06389224e-05, -4.24370182e-06,
          2.37092336e-05, -1.24869011e-05, -1.36879398e-05,
          2.87348576e-06, 1.26634332e-05, -3.76019198e-05,
          -6.07135771e-05, -2.77547497e-05, 3.55124830e-05,
          -3.12768179e-06, 3.64254356e-06, -9.28272766e-06,
          1.70452004e-05, -1.68761471e-05, -8.25047664e-07 ]
      - [ 1.75701825e-05, 7.65513141e-06, -5.67530287e-06,
          -1.77928978e-05, -9.24299275e-06, -2.49487539e-06,
          2.75075990e-06, 1.10615847e-05, 1.90156989e-05, 5.15132751e-06,
          4.52855966e-06, -8.94523453e-07, -1.37429870e-05,
          1.92433959e-06, 2.17781053e-06, 2.02400088e-06, 8.38391588e-06,
          -2.92791105e-06, -5.57780550e-06, -9.48381421e-06,
          -4.15781733e-06, 5.46427145e-06, 5.60345597e-06,
          8.92766911e-06, 5.33169896e-06, -1.10404853e-05,
          -3.08223953e-08, 3.37818022e-07, 2.37750419e-06,
          3.43566126e-06, 9.42681072e-06, 1.02124532e-05, 6.34733669e-06,
          -1.36921999e-05, -1.15985849e-05, -7.58588442e-07,
          -9.96209201e-06, 8.54782968e-07, 2.95705490e-06,
          6.04690058e-06, 9.65424442e-06, -9.52575647e-06,
          -1.36619997e-06, -2.03745458e-06, -8.87841543e-06,
          3.02400417e-06, 1.49154093e-05, 9.22703384e-06, 2.65359768e-06,
          5.86446777e-06, -4.62345497e-06, -6.25982875e-06,
          -5.25682026e-06, 8.25509460e-07, 1.13908709e-06,
          4.84890779e-06, 1.48794861e-05, 6.28957105e-06, 4.33911100e-06,
          1.82401152e-06, 1.46181742e-06, 0., 2.87759735e-06,
          8.02878458e-06 ]
      - [ 1.63302466e-05, 7.26086046e-06, -4.91699666e-07,
          -4.88283513e-06, -3.82476583e-06, -6.36770892e-06,
          -1.53813708e-05, 9.97377242e-07, 1.23835935e-05,
          4.26809038e-06, 5.54815870e-06, 1.66736572e-06,
          -1.01545602e-05, -1.48806548e-05, -5.28099008e-06,
          2.31710578e-06, 5.07993718e-06, -1.30264552e-05,
          -5.79176140e-06, -5.03150386e-06, -1.09009543e-05,
          -9.12466874e-07, 2.15301975e-06, 1.34768534e-05,
          1.12330172e-05, -1.54063837e-05, -7.47338981e-06,
          -2.44715557e-06, -4.80132849e-06, -1.46329774e-06,
          3.89899924e-06, 5.92258311e-06, 3.70342309e-06,
          -1.38939222e-05, -3.31807814e-06, 8.99985366e-07,
          1.59949525e-06, -4.99471162e-06, -5.58153829e-07,
          7.43875898e-06, 1.30277504e-05, -3.64905782e-06,
          -4.05418177e-06, -1.21430662e-06, -1.60336476e-05,
          -2.28335671e-06, 6.09330482e-06, 5.13918030e-06,
          1.23628279e-05, 1.20386667e-05, -4.31906437e-06,
          2.26292741e-06, -1.25062297e-05, -1.79740928e-05,
          -1.44252590e-05, 4.44951684e-06, 1.32912219e-05,
          3.87699356e-06, -1.65727599e-07, -8.45717750e-07,
          -3.38436985e-06, -1.20248833e-05, -1.53676447e-05,
          6.31787725e-06 ]
      - [ -1.41479713e-05, 9.17673606e-06, 6.77660910e-06,
          3.88457192e-06, -1.10067431e-05, -2.11333986e-06,
          -2.82248875e-05, -8.92673688e-06, 2.10256549e-05,
          9.13767963e-06, 1.30367380e-05, -1.24129849e-06,
          3.12345787e-06, 2.18644277e-06, -1.79174949e-05,
          -1.71909760e-05, 3.86750507e-05, -7.63968819e-06,
          -9.39226902e-06, -1.44528422e-05, -1.76179383e-05,
          -1.50722326e-05, -4.18670516e-06, 3.27515118e-05,
          2.63045931e-05, -8.37048992e-06, -1.74212782e-05,
          -1.22209231e-05, -1.76423328e-05, -2.04433254e-05,
          -1.11174550e-05, 2.70435921e-05, -4.40265376e-06,
          3.05695721e-06, 2.50420430e-06, 2.87894181e-06, 4.80757899e-06,
          4.76321702e-06, -1.61413993e-06, -1.32569994e-07,
          3.59135652e-06, -9.67877986e-06, -4.73634714e-07,
          3.31597448e-06, -1.13147380e-05, 1.56621354e-06,
          2.05991728e-06, 1.20255982e-06, 5.29152840e-06,
          -1.73294120e-06, -1.69407122e-05, -4.16130797e-06,
          -1.49264151e-05, -2.09714563e-05, -2.85793431e-05,
          2.05703655e-05, 4.90466191e-05, -2.94214860e-05,
          -1.85575173e-05, -3.31350134e-06, 4.71565681e-06,
          4.46559352e-06, 5.19708601e-06, 6.59829266e-06 ]
      - [ -3.33039975e-06, -3.82725011e-06, -7.08236439e-06,
          -6.02744603e-06, -7.06138906e-07, 6.54465339e-06,
          8.94525965e-06, 1.36060462e-05, 1.52204584e-05,
          -2.01815487e-06, -3.00326269e-06, 1.27595888e-06,
          -5.18413799e-07, -1.72329169e-06, -4.01375337e-06,
          -4.50784546e-06, -1.20238496e-06, -9.14894372e-07,
          -3.86245938e-06, -8.13128736e-06, -3.83799079e-06,
          2.68469626e-06, 5.15869988e-06, 1.04335313e-05, 1.97478730e-05,
          -2.31339618e-06, -1.25321430e-05, 2.28086401e-06,
          -1.08297138e-06, -1.36369067e-06, -3.04325476e-06,
          -8.47561012e-07, 1.53469828e-05, -4.05675155e-06,
          -5.55413408e-07, -8.15056239e-07, -1.42935357e-06,
          -2.84529597e-06, -1.07864971e-05, -8.70726672e-06,
          -1.42555655e-05, -8.92894968e-06, -6.98359645e-06,
          -1.04226328e-05, -1.77590591e-05, -1.09431230e-05,
          -5.45649846e-06, 1.40209668e-05, 9.25816039e-06,
          -1.47251185e-05, -1.63461391e-05, -8.24109520e-06,
          -9.58805799e-07, -5.69484996e-07, -6.29379997e-07, 0.,
          -2.88229239e-06, -8.27204894e-06, -9.15250712e-06,
          -3.21695120e-06, -1.56489421e-06, 1.24852222e-05,
          1.39248359e-05, 1.40562079e-05 ]
      - [ -7.74876844e-06, -3.66776749e-06, -4.51473284e-07,
          -2.38748498e-07, -6.60628939e-06, 5.67701500e-06,
          7.51266634e-06, 8.08757341e-06, 1.15228959e-05,
          -2.62305930e-05, -1.36665703e-05, 5.32396598e-06,
          5.59301270e-06, 1.47554795e-06, -1.21995311e-06,
          -4.29266674e-06, -2.90772209e-06, -4.20342445e-07,
          -7.06832566e-07, 1.23894802e-06, 3.18793673e-06,
          -4.78107904e-06, -2.91760398e-06, 1.36727276e-05,
          2.02947140e-05, 8.21870344e-06, -8.42327324e-07,
          1.10945496e-06, 3.77100287e-06, -1.62398453e-06,
          -3.07787172e-06, -3.09725556e-06, 3.61673119e-06,
          -2.71256340e-05, -1.51517006e-05, -4.28899102e-06,
          -1.15741705e-06, -6.24265454e-07, -1.01922399e-06,
          -4.68808412e-06, -2.24860996e-05, -7.20962316e-06,
          -4.55887675e-06, -4.13720545e-06, -7.79868242e-06,
          -1.23678665e-05, -7.92645369e-06, 2.32283787e-06,
          1.29439968e-05, -2.92295026e-05, -2.03699765e-05,
          -3.57307840e-06, 8.30957924e-06, -1.58996045e-07,
          -1.17117343e-05, -1.85941226e-05, -3.55968114e-05,
          -1.04762403e-05, -1.71822614e-06, -1.14093723e-06,
          8.90847787e-06, 4.09008209e-07, -4.92097479e-06,
          1.39773610e-05 ]
      - [ -4.59411183e-07, -1.14245822e-05, -1.08398172e-05,
          -6.56103612e-06, 5.22648133e-06, 6.02341561e-06,
          6.20220744e-05, 1.03150578e-05, 1.27399690e-05,
          -4.64647128e-05, -1.48675017e-05, 3.74299780e-05,
          8.73058525e-06, -4.68740424e-08, 3.83750027e-08,
          -7.56468239e-07, 7.78302137e-07, -7.29011674e-07,
          -5.86924671e-07, 4.46404192e-06, 9.89061755e-06,
          -1.36814497e-05, -5.70104276e-05, 1.14387694e-05,
          1.84803121e-05, 2.48555880e-05, 1.32725754e-05, 9.32449166e-06,
          1.00247362e-05, -1.21625808e-05, -5.21549191e-06,
          -1.10811595e-06, -2.02534193e-05, 9.60257967e-06, 0., 0., 0.,
          -1.65505742e-06, -6.34591515e-06, -1.12206499e-05,
          -1.26380783e-05, -2.69671746e-05, -2.75359816e-05,
          -5.94964740e-06, -4.95269205e-07, 6.22299012e-06,
          1.63112873e-05, -1.57117447e-05, -1.36859962e-05,
          -4.92825711e-05, 2.48783203e-06, -4.00738281e-06,
          2.66497391e-05, -4.95747645e-06, -1.18063090e-05,
          -9.64466290e-06, -1.93228589e-05, -1.38809919e-05,
          -1.82103463e-06, 0., 4.71212770e-05, 2.90969529e-05,
          1.22711372e-05, -1.92146945e-05 ]
      - [ -8.14501800e-06, -7.05815137e-06, -1.01035921e-05,
          -8.94108598e-06, 1.04774793e-08, 6.08306345e-06,
          9.27513065e-06, 1.30552762e-05, 8.64631431e-07,
          -2.99820681e-06, -7.08448511e-07, 8.64843787e-06,
          2.07515700e-06, -5.63393883e-07, -5.06408753e-07,
          -1.11403358e-06, -1.01793730e-05, -1.11810714e-05,
          -1.03934053e-05, -1.00776306e-05, 6.20183846e-06,
          -3.02686044e-06, -1.24768203e-05, 1.16695146e-05,
          1.37843281e-05, 1.16475203e-05, 3.11229496e-06,
          -2.05843389e-06, -5.05060461e-06, -7.90198101e-06,
          -1.33403355e-05, -8.01508304e-06, 2.65533617e-05,
          -1.28309766e-05, -1.52859066e-05, -1.38421847e-05,
          -9.17304078e-06, -3.47769401e-06, -1.25409051e-05,
          -3.43991474e-06, -4.70521445e-06, -2.56748945e-06,
          -2.61908531e-06, -1.05212193e-05, -1.32051482e-05,
          -1.69371360e-05, -1.69502087e-07, 2.27947239e-05,
          1.25005545e-05, -8.52581161e-06, -1.20527975e-05,
          -4.46551621e-06, -1.71298723e-06, -1.11954660e-06,
          -1.82627937e-05, -9.11667576e-06, -1.05680028e-05,
          -9.39458641e-06, -7.13121153e-06, -2.57459033e-06,
          6.12598612e-08, 6.38736992e-06, 1.43723782e-05, 1.98021608e-05 ]
      - [ -7.67383608e-06, -1.40848724e-05, -2.10753637e-08, 0.,
          -8.81731353e-07, -1.76831315e-06, 1.06811967e-05,
          1.26137793e-05, 6.99070506e-06, -6.23354663e-06,
          -1.26203633e-06, 7.05646607e-06, 1.60575973e-06,
          -1.89925538e-06, -5.22849086e-06, -3.39822532e-06,
          -9.51956918e-06, -4.89637705e-06, -3.37032361e-07,
          -7.55157430e-07, 4.47868115e-06, -1.84761905e-06,
          -3.16838100e-06, 7.01929321e-06, 1.50760161e-05,
          1.20372297e-05, 5.36735752e-06, 4.46159765e-06, 4.11880421e-07,
          -8.00697705e-07, -6.36389723e-06, -6.48608830e-06,
          1.55384732e-05, 2.16456692e-06, -2.80148129e-07,
          -2.25403582e-07, -3.16262003e-06, -8.45937120e-06,
          -1.07760916e-05, -7.10865424e-06, -8.28468728e-06,
          -9.17239674e-07, -7.22160280e-07, -2.93375138e-06,
          -1.71797874e-05, -6.81575784e-07, -3.64993866e-06,
          1.43205589e-05, 1.13885117e-05, -4.77734147e-06,
          -1.25727920e-05, 2.64789196e-06, 5.21686070e-06,
          -2.01356315e-07, -2.39555129e-06, -1.28667207e-05,
          -1.42599883e-05, -8.48516902e-06, -1.36162771e-06,
          -1.13410692e-06, 6.73925979e-06, 1.12813323e-05,
          1.08125778e-05, 1.10744813e-05 ]
      - [ -9.32169200e-07, -1.48315326e-06, -1.22277042e-05,
          -2.11584520e-05, -4.45219212e-06, 1.19024025e-05,
          1.14875720e-05, 1.45655431e-05, 1.29966338e-05,
          -6.25242683e-06, -1.32989635e-06, 7.50888194e-06,
          -5.35711433e-06, 2.40708964e-08, -3.57333825e-08, 0.,
          -1.17037848e-06, -5.80166625e-06, -9.03026466e-06,
          -1.28259708e-05, 1.16390845e-06, 4.51347205e-06,
          -2.28069575e-06, 2.43361865e-06, 7.33079241e-06,
          -3.51290487e-06, 1.29644995e-05, 6.84184079e-06,
          2.01426792e-06, 0., 0., 0., 2.00179184e-05, -1.43077586e-05,
          -1.33682379e-05, -5.96766768e-06, -1.64729499e-05,
          -4.47669026e-06, -3.94492554e-06, -3.72219301e-06,
          -2.87419311e-06, -1.09560779e-05, -4.50242987e-06,
          -6.35948709e-06, -1.16207966e-05, -1.87649198e-06,
          6.84697625e-06, 1.69564701e-05, -2.28960607e-06,
          -6.11416272e-06, -1.17168174e-05, -6.18451895e-06,
          7.63711967e-07, -1.11845702e-06, -1.04185165e-06,
          -4.51063715e-06, -2.76353012e-06, -4.38453117e-06, 0., 0.,
          8.55742110e-06, 1.33123576e-05, 1.81924042e-05, 5.67139205e-06 ]
      - [ -2.57813872e-06, -4.90636239e-06, -4.23334950e-06,
          -4.05578930e-06, 3.95877487e-06, 8.31205944e-06,
          -5.79492371e-06, 1.11005538e-05, 1.08014901e-05,
          -4.62134767e-06, -2.00083423e-06, 9.74124941e-06,
          -9.70940346e-06, -1.41439914e-05, -8.12531562e-06,
          -2.81109533e-06, -8.48782474e-06, -1.26244358e-05,
          -9.83455175e-06, -9.17819125e-06, -6.12279223e-07,
          -1.23181928e-06, -9.53567178e-06, 6.44126385e-06,
          1.39680897e-05, -2.58936393e-06, 2.43149680e-06,
          6.97621272e-06, -7.87641795e-07, -7.87068893e-06,
          -1.12035959e-05, -1.05136460e-05, 1.48724830e-05,
          -1.33956401e-05, -5.73016132e-06, -1.53813616e-07,
          -4.00448016e-06, -8.34374441e-06, -9.21102946e-06,
          -3.78773211e-06, -6.62577622e-06, -9.98847645e-06,
          -4.34665117e-06, -9.90291301e-06, -2.00365066e-05,
          -4.73174987e-06, 1.88828938e-06, 1.62784672e-05,
          1.20674677e-05, -6.87483225e-06, -7.14736188e-06,
          2.19825188e-06, -6.76521177e-06, -1.70719049e-05,
          -1.75925579e-05, -1.14997283e-05, -4.05778610e-06,
          -8.18185435e-06, -6.39963355e-06, -2.13135513e-06,
          7.81080143e-06, 1.08165477e-06, -4.75666042e-07,
          1.23338687e-05 ]
      - [ -1.27993571e-05, -7.80492519e-06, -3.08902781e-06,
          -1.86647378e-06, -1.02822526e-06, 4.81713050e-06,
          6.90880597e-06, 5.06979268e-06, 2.53280973e-06,
          -9.16818681e-06, -2.17844422e-06, 2.34734352e-06,
          2.54693236e-06, -4.80056087e-07, -6.60544856e-06,
          -1.21384410e-05, -2.31498711e-06, -1.59891829e-06,
          -1.34242862e-06, -3.09418783e-06, -2.92087776e-07,
          -9.62758440e-06, -4.05952369e-06, 6.05502828e-06,
          1.08514823e-05, 5.95543133e-06, 4.00116596e-06, 1.87620356e-06,
          -5.34293258e-06, -1.21379835e-05, -8.29212240e-06,
          -1.96148721e-06, 7.87282443e-06, 2.92701912e-07,
          -4.56852796e-08, -3.32301795e-08, -2.12968393e-06,
          -1.88113165e-06, -1.17563959e-05, -8.36808340e-06,
          -1.29926893e-05, -7.08855214e-06, -1.06535595e-06,
          -5.06640163e-07, -6.54582027e-06, -4.76870764e-06,
          -4.85633336e-06, 4.64444838e-06, 4.52345466e-06,
          -1.56367714e-05, -1.06368379e-05, -2.75961588e-06,
          1.05591744e-06, -3.98891052e-06, -7.24542406e-06,
          -4.60527644e-06, -6.75323463e-06, -1.19814285e-05,
          -7.63386379e-06, -4.68392454e-06, 5.54281360e-06,
          8.91863419e-06, 9.54595907e-06, 6.01523107e-06 ]
      - [ 1.64431958e-06, 8.07960350e-06, 1.13396018e-05, 1.39291651e-05,
          -7.98713700e-06, 1.38143250e-05, 2.40016743e-06,
          -1.03427765e-05, -3.98503507e-05, 1.63631321e-05,
          7.12762767e-06, 7.70357656e-06, 1.67641392e-05,
          -3.02442345e-06, 7.88287593e-07, 1.48688778e-05,
          -1.49597963e-05, -9.13261010e-06, 1.69811301e-05,
          7.77474179e-06, 4.79880055e-06, -5.66713024e-05,
          -2.27250348e-05, -4.31900958e-07, -1.55006310e-05,
          1.39749854e-05, 2.85934966e-05, -2.62601570e-05,
          -3.22595806e-05, -1.48073941e-05, -2.42931637e-05,
          -2.30686746e-05, 6.35699689e-06, -1.20910681e-05,
          -1.68989991e-05, -2.80626182e-06, 1.47446747e-06,
          2.85011865e-05, 4.09963941e-05, 1.31527904e-05,
          -1.79729632e-05, -4.00605086e-06, -1.08317965e-06,
          1.20084269e-05, 6.38387792e-06, 6.75057390e-06,
          -7.03009437e-06, 1.88713220e-05, 8.50910692e-06,
          -1.01885998e-05, 2.07323246e-05, 3.19133505e-05,
          2.18089099e-05, -2.95998518e-07, -3.09586285e-05,
          -2.35036096e-05, -3.20958898e-05, 4.25498765e-05,
          2.44363546e-05, 1.12692360e-05, 2.96622839e-05,
          -2.68267449e-05, -3.67169014e-05, 2.64149008e-07 ]
      - [ 1.17164946e-05, 1.03828779e-05, 2.65106291e-06, 4.48965966e-06,
          8.43855287e-06, 6.35840433e-06, 5.96178143e-06,
          -1.11404233e-07, 6.34281207e-07, -5.44510067e-06,
          4.58758132e-06, 1.36800300e-05, 1.28119427e-05, 1.92026368e-06,
          5.14006797e-06, 1.07220812e-05, -1.98310818e-06,
          -4.32386469e-06, 7.97086670e-07, -2.46902061e-07,
          -4.53033635e-06, -7.88596481e-06, -6.75676893e-06,
          -1.42416764e-06, -3.38434432e-07, -3.00763099e-06,
          4.76297964e-06, -3.83922043e-06, -8.32838759e-06,
          -1.32750529e-05, -5.70808743e-06, -1.81667701e-06,
          -1.76284739e-05, 4.59361490e-06, 1.76663164e-07,
          -3.46319581e-07, -6.21101947e-07, 1.22767267e-06,
          1.30768758e-05, 5.99643681e-06, 1.16953261e-05,
          -7.87863792e-06, -1.37316147e-05, 1.07132018e-05,
          2.32103448e-05, 2.28203680e-05, 7.92660740e-06,
          -1.66368955e-05, -9.52430310e-06, 1.22972897e-05,
          2.81411703e-05, 1.77456350e-05, 9.42168572e-06,
          -3.26908980e-06, -1.42732060e-05, -1.05519630e-05,
          -7.34164450e-06, 3.33823618e-06, 9.17099260e-06,
          4.44668467e-06, 1.05736281e-05, -5.06437982e-06,
          -2.30026781e-05, -1.37478237e-05 ]
      - [ 2.46300147e-06, 1.58297291e-06, -3.04669697e-06,
          -1.35788491e-06, -7.74780801e-06, -1.10322139e-06,
          -5.65106347e-06, -8.95160156e-06, -2.27154924e-05,
          1.13733404e-05, 1.28094271e-05, 1.65270230e-05, 1.85740942e-06,
          2.53298936e-06, 4.37677318e-06, 9.99951862e-06,
          -1.28728152e-05, -1.48372937e-05, -2.50800827e-06,
          1.17751313e-06, 8.25344159e-06, -1.71876927e-05,
          -2.69901975e-05, -3.14310500e-06, -1.32240496e-06,
          3.39176331e-05, 2.72761354e-05, -4.04450184e-05,
          -3.18845960e-05, -5.56814439e-06, -1.43356356e-05,
          -1.10711771e-05, 8.15240583e-06, -9.37064669e-06,
          -1.36864755e-05, -6.77013122e-06, -6.97626729e-06,
          3.24790835e-06, -8.03719468e-06, 1.43234529e-05,
          1.66653008e-05, 6.67857694e-06, 1.67515809e-05, 1.49657026e-05,
          6.80129324e-06, -3.72357545e-06, -1.31404777e-05,
          6.85821817e-07, -1.49365942e-05, 1.00590059e-05,
          3.90285240e-05, 6.63339006e-06, 1.73170883e-05,
          -6.06432877e-07, -3.23953391e-05, -3.22081032e-05,
          -3.19632381e-05, 2.56582516e-05, 1.08666814e-06,
          -5.23043991e-06, 2.54765946e-05, -1.70164060e-06,
          -5.59254386e-06, -1.24212311e-05 ]
      - [ 5.77457104e-06, -5.45634066e-07, 1.13782171e-05,
          8.97889822e-06, -1.81951873e-06, -1.23822447e-05,
          9.83626796e-06, 4.95515451e-06, -7.12119481e-06,
          1.99542228e-07, -1.25763370e-06, 5.81373706e-06,
          4.57122133e-06, -4.37772496e-06, -5.94485027e-06,
          4.02135538e-06, -1.59778210e-05, -1.44097276e-05,
          5.99725217e-06, 9.85017869e-06, 7.09832102e-06,
          -1.02061231e-05, -1.81825708e-05, -1.05257823e-05,
          -5.29012596e-07, 2.54785173e-05, 1.66630234e-05,
          -1.35211863e-07, -2.86942286e-05, -2.05712013e-06,
          -1.17891750e-05, -1.72566324e-05, -5.33077218e-06,
          1.81088524e-06, -4.71585372e-06, -5.85084217e-06,
          -1.63126697e-06, -7.34001605e-06, 3.75605941e-06,
          5.82394841e-06, 1.32645819e-05, 9.58528472e-06, 1.30925275e-06,
          2.77308322e-06, -9.17258239e-06, 5.34047967e-06,
          -1.81080522e-05, 9.84096187e-06, -4.91610763e-06,
          2.14835618e-05, 2.13798940e-05, 1.50208498e-05, 1.26204986e-05,
          -1.09244718e-06, -1.22633619e-05, -4.62012176e-05,
          -3.47237619e-05, 2.19830345e-05, 4.62347862e-06,
          1.02254933e-06, 3.86598867e-06, 2.48989327e-08,
          -1.61343742e-05, -1.32297182e-05 ]
      - [ 1.12020434e-05, 1.73086355e-05, 6.50226912e-06,
          -3.90157402e-06, 2.08010920e-06, 1.61073858e-05,
          1.45803333e-05, -9.07979427e-07, -2.11732986e-05,
          -1.30993767e-05, 1.65056481e-05, 6.06760568e-06,
          -1.59782630e-05, 3.77652259e-06, 4.93125435e-06,
          7.00160308e-06, -7.69505618e-07, -1.23851996e-05,
          -4.69290135e-05, -2.26858774e-05, 3.37924803e-06,
          1.22716501e-05, -2.33118426e-05, -8.78108676e-06,
          -9.14562133e-06, -1.29982964e-05, 4.62079115e-05,
          9.55122323e-06, -1.08279221e-06, 0., 0., 0., 1.76925823e-05,
          -2.97039514e-05, -2.97969818e-05, -1.23564132e-05,
          -2.56231287e-05, 7.62341551e-06, 1.80322786e-05,
          1.23729324e-05, 2.17845445e-05, 6.40409235e-06, 1.69648010e-05,
          2.48980523e-05, -2.48891683e-06, -2.34175013e-06,
          1.47246483e-05, 2.20417132e-05, -9.17851685e-06,
          1.25332408e-05, 1.36007011e-05, -3.69130817e-06,
          2.48014403e-05, 1.03958700e-05, -5.83474684e-06,
          -1.78013815e-05, -9.88212832e-06, 2.01783369e-05,
          -5.30799161e-06, 5.29319209e-07, 2.44048238e-06,
          1.94541894e-06, -7.42751283e-08, -3.37970641e-06 ]
      - [ 3.37101801e-06, 1.92920265e-06, 5.38932909e-06, 2.94597703e-06,
          8.11070458e-06, 7.73775537e-06, -2.70516357e-05,
          -1.40288257e-05, -2.61573268e-06, -1.36384151e-05,
          1.56720176e-07, 8.00927046e-06, -2.99677890e-06,
          -2.20803649e-05, -9.01282965e-06, 8.72669943e-07,
          -2.04482803e-05, -2.56033545e-05, -7.60607600e-06,
          -6.92130243e-07, 4.25951748e-06, -7.36146740e-06,
          -2.24622327e-05, -8.84684027e-07, -3.74151614e-06,
          -2.56535895e-06, 1.09339117e-05, 7.45869647e-06,
          -1.54635090e-05, -4.22814765e-06, -1.60881591e-05,
          -7.71925261e-06, -1.56075743e-07, -1.36256713e-05,
          -4.59340299e-06, -2.62082267e-06, -9.45548982e-06,
          -4.77723461e-06, -4.78770653e-06, 8.51984169e-06,
          1.64748380e-05, 1.01248379e-05, 1.78793084e-06, 6.54201626e-09,
          2.98124064e-06, 8.50587912e-06, 7.46548312e-06,
          -8.73076033e-07, -3.13555717e-07, 1.33968861e-05,
          2.50554440e-05, 1.11617874e-05, 8.83409120e-06,
          -2.50445846e-05, -2.06095465e-05, -1.04329929e-05,
          -1.14203658e-05, 2.39885480e-06, 4.14069928e-06,
          -5.81330642e-06, 8.32204933e-06, -1.83987231e-05,
          -2.67967553e-05, -4.72556803e-06 ]
      - [ -2.15929540e-05, -7.22827338e-07, 2.82927522e-06,
          4.70308942e-06, 1.45486929e-05, 1.16551410e-05,
          -1.99624155e-05, -1.17789505e-05, -1.63001187e-05,
          -5.84586566e-08, -4.42736609e-06, -3.06575799e-07,
          -2.90585535e-06, -2.58952344e-08, -2.09692425e-05,
          -1.38976948e-05, -7.57727230e-06, -6.40437020e-06,
          -8.48642594e-06, -7.24646316e-06, -1.06047537e-05,
          -4.20008437e-05, -3.21231164e-05, -4.17727779e-06,
          1.47001094e-06, 1.03786233e-05, 9.78315165e-06,
          -6.61838203e-06, -2.04219268e-05, -3.58603793e-05,
          -2.54966544e-05, -6.68024177e-06, -4.80968947e-06,
          1.33659532e-05, 4.21804043e-06, 1.83761387e-07,
          -3.17829722e-06, -2.38776011e-06, 2.33076548e-06,
          6.66205324e-07, -5.81659879e-06, -4.10523262e-06,
          5.11193048e-06, 1.05930349e-05, 1.23720347e-05,
          -1.48898800e-06, -9.15776582e-06, -4.47664206e-06,
          -7.48290540e-06, -6.50116590e-07, 1.14992190e-05,
          8.80797324e-06, 1.52300836e-05, -7.48049888e-06,
          -2.83205882e-05, -1.37981442e-05, -7.55006386e-06,
          4.44016678e-06, -4.25393728e-06, 1.05890704e-05,
          1.20327932e-05, 4.31848639e-06, 2.18173386e-06,
          -4.05003948e-06 ]
      - [ 1.90989449e-05, 1.29759374e-05, -7.23486664e-06,
          9.72202361e-06, 2.74749545e-05, 6.86337762e-06, 3.38976024e-05,
          1.21314124e-05, 1.89843777e-05, 1.37760810e-06, 1.93341730e-05,
          1.47437613e-05, 1.42897852e-05, 9.35322350e-06, 1.37710913e-05,
          1.93637406e-05, 1.04809324e-05, -2.35507787e-06,
          -1.14062068e-05, -4.16793500e-06, -1.94451877e-05,
          1.14607392e-05, 1.58961902e-05, 9.49829700e-06,
          -3.54722192e-06, -1.12679963e-05, -3.16926844e-06,
          1.61164940e-06, 1.14488266e-05, 7.58267470e-06, 8.30733279e-06,
          1.22349211e-05, -1.87794849e-05, 5.79216940e-05,
          1.53213841e-05, -1.64535678e-07, 6.48140769e-07,
          7.01967519e-06, -1.52787889e-05, 1.06194248e-05,
          4.74150038e-05, -1.12611197e-05, -1.70359217e-05,
          1.02184304e-05, 2.38403372e-05, 3.23561908e-05, 2.59001190e-05,
          -2.56430303e-05, -2.50425310e-05, 1.92272164e-05,
          3.08359595e-05, -6.66981776e-08, 1.95424172e-06,
          9.18241676e-06, 7.50820664e-06, 3.04136192e-05, 1.64735957e-05,
          -2.87161856e-06, 4.78439233e-06, 1.02011672e-05,
          2.00124177e-05, 1.02642516e-05, -1.34873846e-06,
          -2.02986048e-05 ]
      - [ 2.87970892e-07, 3.42750832e-06, -3.54521653e-05,
          -4.15220857e-05, -3.52407988e-05, -1.15898983e-05,
          -3.82089456e-05, -3.58249927e-05, -2.62344856e-05,
          3.60096383e-05, 4.54497058e-05, 5.39836549e-07,
          -3.43757238e-05, -1.13106407e-05, -8.84493420e-06,
          -4.48002857e-06, 1.36101426e-06, -3.22919659e-05,
          -1.11879863e-05, -1.33003903e-06, 2.23759416e-05,
          2.39189685e-05, -1.34263082e-05, -3.28908354e-05,
          -1.34181473e-05, 4.19671960e-05, 1.07760879e-05,
          -4.22008270e-05, -1.81343094e-05, -1.40710481e-05,
          2.03285144e-05, 4.60900128e-06, 2.49545501e-05, 5.21682086e-05,
          1.99133337e-05, -3.04863825e-05, -1.71421998e-05,
          -7.38859569e-07, -4.86758981e-05, 2.75227449e-05,
          3.47654241e-05, 3.63272011e-05, 1.48955041e-05,
          -2.75505790e-05, -1.26521973e-05, -2.29991401e-05,
          -2.34022755e-05, 2.26822485e-05, -3.71348215e-05,
          1.82740278e-05, 2.31752601e-05, -2.01832518e-05,
          -1.09286166e-05, 3.02429021e-06, -1.86001380e-05,
          -1.09249668e-05, -2.27214878e-06, 2.13974890e-05,
          -1.63635232e-05, -9.03164437e-06, 9.04461922e-06,
          4.86604149e-05, 4.91855753e-05, -2.38189805e-05 ]
      - [ -1.35288064e-05, -1.78967912e-05, 1.65968595e-05,
          1.28709053e-05, 1.33851827e-05, -1.96165038e-05,
          2.00382619e-05, 1.66702193e-05, -9.55661017e-06,
          -2.08633810e-05, -1.31493207e-05, 4.60647107e-06,
          4.45629939e-06, -5.51872745e-06, -1.26190353e-05,
          -1.22569736e-05, -2.37760960e-05, -2.69716793e-06,
          1.04504161e-05, 1.63837558e-05, 2.70110868e-05, 2.18163441e-05,
          -4.11413367e-07, -1.26147670e-05, -5.69918757e-06,
          4.09903550e-05, 1.93366996e-05, 1.94313543e-05, 7.14644011e-06,
          1.37323441e-05, 5.39930988e-06, -2.75609045e-06,
          9.47182252e-06, 3.12608026e-05, 1.40628372e-05,
          -6.18587637e-06, -9.84873896e-06, -3.13699311e-05,
          -2.45372412e-05, 6.80807580e-06, 2.39641195e-05,
          2.62147532e-05, 1.45299036e-05, 1.58139335e-06,
          -2.96690669e-05, -1.52730190e-05, -2.48982014e-05,
          2.40989957e-05, -1.07742080e-05, 1.22166502e-05,
          -1.04239516e-05, 4.56929274e-06, 1.97148001e-05,
          1.01550322e-05, 4.35991797e-06, -3.67460889e-05,
          -6.11875703e-06, -4.62132220e-06, 5.88068531e-07,
          6.19146340e-06, 6.81602103e-07, 3.20507352e-05, 2.04563530e-05,
          -1.09237353e-05 ]
      - [ 8.98879716e-06, 1.23371628e-05, -7.92188803e-06,
          -1.44759542e-05, 1.07637895e-07, 5.08437597e-06,
          7.90219019e-06, 2.32061552e-06, 9.13795975e-06,
          -4.00322187e-06, -1.77056575e-06, -7.30858892e-06,
          -2.43320192e-05, 8.63779121e-07, 2.69147858e-06,
          5.27536713e-06, -6.48816240e-07, -2.92086952e-06,
          -2.07628582e-05, -2.28629433e-05, -9.11571442e-06,
          1.46351986e-05, -6.05777132e-06, -9.25122913e-06,
          -7.76996785e-06, -1.44998767e-05, 1.99041715e-05,
          1.21784251e-05, 1.27215126e-05, 7.98323890e-06, 1.10569181e-05,
          9.53681229e-06, 5.51994799e-06, -1.28926213e-05,
          -1.06970983e-05, -8.57963096e-06, -1.83516586e-05,
          -2.84630050e-06, 6.32011779e-06, 8.41583642e-06,
          1.69022169e-05, -5.19688456e-06, 2.70765099e-06,
          -4.97562405e-06, -9.78249409e-06, 1.53027704e-05,
          2.00885825e-05, 5.12947918e-06, -1.34407410e-05,
          6.49810409e-06, 9.66304924e-06, -7.29351495e-06,
          1.34116794e-06, -2.18280411e-06, 1.17591453e-05,
          2.93885842e-06, 1.91634972e-05, 1.20114100e-05, 6.99814427e-06,
          8.51230288e-06, 9.79561719e-06, 2.19836747e-05, 2.51603069e-05,
          -3.57295630e-06 ]
      - [ 5.55113456e-06, 2.21775354e-05, 2.15924911e-06, 2.06111145e-06,
          3.28362657e-05, 6.69494011e-06, -4.36634073e-05,
          -1.79971175e-05, -5.56983014e-06, -8.54709833e-06,
          -2.93018479e-06, 9.92669447e-06, -2.18072182e-05,
          -4.74388944e-05, -2.43805825e-05, -6.05716696e-06,
          -1.21282128e-05, -3.49358816e-05, -2.61129462e-05,
          -1.02779104e-05, -2.38531047e-05, -7.28969871e-06,
          -1.36069921e-05, -4.35628272e-06, -7.46465776e-06,
          -2.45354368e-05, -3.81084578e-06, 1.91635700e-05,
          8.69867745e-06, -7.66288395e-06, -1.08985353e-06,
          -7.46776868e-06, 1.05303006e-05, 1.87861122e-06,
          2.30784985e-06, -1.37975019e-06, -8.92318167e-06,
          -2.23134266e-05, -7.06311221e-06, 1.13559136e-05,
          2.33038427e-05, 2.99418889e-06, 9.93300637e-06,
          -2.04863227e-06, -1.88711274e-05, -8.26734868e-06,
          -5.23447034e-06, -1.20517761e-05, -4.48774063e-06,
          2.18694868e-06, 1.66768241e-05, 1.06132811e-05,
          -1.80184798e-05, -3.73626099e-05, 1.23213385e-06,
          4.23824940e-06, 2.22702365e-05, 7.43733017e-06,
          -3.96613359e-06, -1.64601786e-07, -1.82173494e-06,
          -3.97820531e-06, 1.01595496e-08, 6.55913709e-06 ]
      - [ -5.39340435e-05, -2.67115174e-05, -2.81201210e-06,
          6.45374485e-06, 1.45559934e-05, 1.33322264e-05,
          -2.06485074e-05, -1.00093357e-05, -7.50345316e-06,
          -1.93381511e-05, -1.38626019e-05, -6.68977373e-06,
          -1.79322808e-06, 1.12188116e-06, -1.97269492e-05,
          -4.39568721e-05, 1.15193734e-05, -2.47348999e-06,
          -9.45467855e-06, 3.50841833e-06, -5.25072983e-06,
          -2.19063240e-05, -5.54320513e-06, 2.46276909e-06,
          -6.11792120e-06, 3.66510079e-07, 9.22134950e-06,
          6.38886922e-06, -5.93539744e-06, -3.39192993e-05,
          -4.44012267e-06, 8.22344009e-06, 2.68803348e-07,
          3.29280629e-05, 1.27573421e-05, -1.43428713e-06,
          -9.60576290e-06, -9.00165105e-06, -2.29815996e-05,
          -8.21603635e-07, -1.89684954e-06, -3.91203866e-06,
          8.22717902e-06, 7.65240839e-06, -7.77539117e-06,
          -3.42434987e-06, -1.33010972e-05, 1.84585338e-06,
          -8.28416341e-06, -2.49555160e-05, -7.76585694e-06,
          1.87966657e-06, 3.15868510e-06, -4.99053749e-06,
          -1.42751951e-05, 9.22854611e-07, 8.82767927e-06,
          -2.19631747e-05, -1.04137980e-05, -2.59475428e-06,
          3.65954793e-06, 2.00000977e-05, 3.37389392e-05,
          -7.24292568e-06 ]
      - [ -1.03340280e-05, -7.52917049e-06, -6.28216776e-06,
          -9.27217752e-06, -1.71794636e-05, -1.00688394e-05,
          -1.06657099e-05, -5.80765709e-06, -1.18100879e-05,
          1.40658904e-05, 3.22783853e-06, -1.19138804e-05,
          -1.70813128e-05, -8.00091675e-06, -6.78198739e-06,
          -6.42738451e-06, -8.67381732e-06, -4.31292892e-06,
          -3.87084640e-07, 5.23429298e-06, 6.27037889e-06,
          -3.42570252e-06, -6.85865143e-06, -4.30475620e-06,
          5.50660616e-06, 1.01255382e-05, 8.58396561e-06,
          -9.27036217e-06, -1.17924201e-05, 1.82743997e-06,
          -3.64002108e-06, -2.69271004e-06, 3.21248845e-05,
          -4.67008203e-06, -7.24208348e-06, -1.10604688e-05,
          -1.11621694e-06, -3.03532630e-07, -1.37058860e-05,
          7.25379368e-06, -1.24924145e-05, 1.50310079e-05,
          1.66175014e-05, -1.35079435e-05, -1.97307691e-05,
          -2.97391198e-05, -7.55730207e-06, 2.51181173e-05,
          7.01302088e-06, -4.74044145e-06, -1.25055758e-05,
          -8.72381861e-06, -1.67763199e-06, -1.06481757e-07,
          -1.04434648e-05, -3.76667344e-06, 7.11430701e-08,
          4.70954137e-06, -8.08888399e-06, -1.02480035e-05,
          3.60378408e-06, 4.45754586e-06, 1.05454974e-05, 9.87653493e-06 ]
      - [ -1.25544793e-05, -1.29154569e-05, 2.60024626e-06,
          3.31837123e-06, -6.89710487e-06, -1.13085971e-05,
          1.89704883e-06, 4.90526963e-06, -1.30404987e-05,
          1.25178545e-07, -4.46760077e-06, -5.04484069e-06,
          -4.94737924e-06, -3.89744491e-06, -5.45001512e-06,
          -1.03168368e-05, -1.33664425e-05, -2.28438194e-06,
          4.32218440e-06, 6.53782490e-06, 7.54243274e-06,
          -1.35228049e-06, -5.56529858e-06, -7.78894810e-06,
          3.30080252e-06, 1.33936901e-05, 9.66754851e-06, 3.94140943e-06,
          -9.03491036e-06, 2.17984780e-06, -4.32292381e-06,
          -2.51614597e-06, 2.26202228e-05, 3.28310580e-06,
          -3.12754241e-06, 2.71479939e-06, -4.57078841e-07,
          -1.02401918e-05, -1.57188060e-05, 9.19454308e-08,
          -1.42603994e-06, 1.64121975e-05, 1.64465782e-05,
          -4.57092483e-06, -2.52904301e-05, -1.71315151e-05,
          -1.58476814e-05, 2.27996097e-05, 9.95234768e-06,
          -2.49179061e-06, -2.00021077e-05, -1.44769888e-06,
          3.67420694e-06, -3.62426732e-07, 1.70570763e-06,
          -1.36671488e-05, -1.80564177e-06, 6.72178999e-07,
          -1.23308212e-06, -1.24685016e-06, -2.05537845e-06,
          1.79181461e-06, 1.49226153e-05, 1.01803953e-05 ]
      - [ -1.84030603e-06, -5.41200450e-07, -5.67638790e-06,
          -2.09509017e-05, -1.20161021e-05, -2.19628123e-06,
          -6.79610309e-07, 3.66157042e-06, -1.29876173e-06,
          9.90173885e-06, 6.43221392e-06, -6.77633898e-06,
          -1.86970028e-05, -6.80594326e-07, -6.62586572e-08, 0.,
          -1.32747582e-08, -8.36981883e-07, -1.09877419e-05,
          -9.74938030e-06, 1.28748127e-06, 2.31564627e-06,
          -1.16502201e-06, 5.78096660e-07, -1.14943241e-05,
          -6.39122663e-06, 1.01476053e-05, 4.54468818e-06,
          4.05589708e-06, 3.01376872e-06, 2.89595641e-06, 4.42945429e-06,
          2.33713108e-05, -2.39612982e-05, -1.68647985e-05,
          -7.87096178e-06, -1.28124766e-05, -9.02741817e-07,
          2.27918417e-06, 3.95216773e-07, 5.59852651e-06,
          -3.15466480e-07, 6.64917934e-06, -3.93697246e-06,
          -1.80913230e-05, -4.24318569e-06, 9.35602748e-06,
          1.97507379e-05, -8.25372899e-06, -6.66632047e-07,
          -7.76749766e-06, -8.04237698e-06, -7.26057033e-06,
          -2.14251918e-06, 6.05408286e-06, 5.33833099e-06,
          1.44895439e-05, 7.15450597e-06, 5.44848444e-06, 0.,
          2.29621946e-06, 2.92826348e-06, 1.75163223e-05, 1.73773478e-05 ]
      - [ -6.01300371e-06, -7.61075444e-06, -1.92098491e-06,
          -2.38953447e-07, 4.25350265e-07, -1.35633161e-06,
          -2.66483494e-05, -5.71295595e-06, -1.42820709e-05,
          9.88886950e-06, -3.40906752e-07, -4.43969429e-06,
          -2.25181102e-05, -1.85057070e-05, -1.15779003e-05,
          -5.01449358e-06, -8.71106749e-06, -1.42495683e-05,
          -1.14571194e-05, -3.31718843e-06, 1.46067430e-06,
          -4.55557620e-06, -8.03342027e-06, -6.97542134e-07,
          -3.98480006e-06, -2.52696577e-06, -1.56714202e-06,
          7.69929011e-06, 1.37918960e-06, -3.88982016e-06,
          -1.10576793e-05, -8.04470892e-06, 1.59390001e-05,
          -1.87828482e-05, -4.32287698e-06, -3.95804420e-07,
          -6.76250056e-06, -1.03404354e-05, -6.73169461e-06,
          3.17351464e-06, 8.88174796e-08, 3.65421101e-06, 8.72035798e-06,
          -1.04826404e-05, -2.43966042e-05, -1.37984216e-05,
          -5.03855199e-06, 1.80770894e-05, 7.83096311e-06,
          1.46873265e-06, -2.22501467e-06, -3.56523606e-06,
          -1.37114239e-05, -1.80179213e-05, -8.68268035e-06,
          -4.67671362e-06, 8.87020269e-06, -1.89229624e-07,
          -7.04699778e-06, -3.57082513e-06, -3.97052901e-07,
          -1.00055749e-05, 1.23367226e-06, 1.21945586e-05 ]
      - [ -2.70266410e-05, -1.18769149e-05, -1.77498706e-07,
          3.10501548e-07, -3.37990332e-06, -6.39390009e-07,
          -1.49056968e-05, -4.98338522e-06, -5.69925669e-06,
          -3.08111566e-06, -6.46678609e-06, -8.36730396e-06,
          -5.52549591e-06, -7.05304956e-07, -1.04069122e-05,
          -1.62676606e-05, -1.23048960e-06, 2.00885324e-06,
          -8.40281359e-07, 1.86264458e-06, 2.94603001e-06,
          -1.52066141e-05, -8.37903008e-06, 8.28285920e-07,
          -1.00872660e-06, 1.14168697e-05, 8.28105021e-06,
          8.16655927e-07, -4.17341789e-06, -1.27878566e-05,
          -1.14457425e-05, -3.16707542e-06, 1.41133605e-05,
          -5.59125056e-07, -3.91408207e-07, -7.08057712e-07,
          -4.41558450e-06, -3.07222933e-07, -1.29444506e-05,
          -7.09996220e-06, -1.35328428e-05, 6.12940539e-06,
          1.32615560e-05, 8.90394801e-07, -5.10441532e-06,
          -1.83781431e-05, -1.61052722e-05, 9.25945460e-06,
          2.67507244e-06, -1.52045986e-05, -1.05967865e-05,
          -7.51949165e-06, 4.87819716e-06, -2.63460811e-06,
          -2.42702436e-06, -3.82913777e-06, 8.37717039e-07,
          -8.27219719e-06, -9.14531392e-06, -5.55048973e-06,
          3.47616106e-06, 4.50645484e-06, 1.80200750e-05, 3.62784635e-06 ]
      - [ 5.03446608e-06, -3.01596065e-05, 4.27472150e-05,
          4.45351470e-05, 4.27981468e-05, -9.10075596e-06,
          3.57622521e-05, 4.12314221e-05, 9.06161767e-06,
          -4.56450398e-05, -2.57981574e-05, -3.15524744e-06,
          2.82981528e-05, 1.59855415e-06, -3.56175701e-06,
          -2.32020238e-06, -1.65835845e-05, 1.19022764e-06,
          1.34699158e-05, 2.82575256e-05, 2.52302925e-05, 1.65323690e-05,
          6.83097505e-06, -1.31644574e-05, -9.07315371e-06,
          3.12757256e-05, 2.22878189e-05, 3.83994375e-05, 2.81388634e-06,
          2.05410015e-05, -4.29646434e-06, -8.05343370e-06,
          -3.32073396e-05, -9.31750765e-06, 1.40315651e-05,
          2.12824070e-05, 8.47955835e-06, -2.81891025e-05,
          2.81159860e-08, 6.72034821e-06, 2.41817747e-06,
          -5.02386172e-07, 2.83071699e-06, 3.86658758e-06,
          -2.66375846e-05, -8.28211705e-06, -1.10488145e-05,
          1.68389270e-05, 1.73488515e-05, -5.70380644e-06,
          -2.86179802e-05, 2.27855908e-05, 2.57221291e-05,
          2.95546442e-06, 1.34967049e-05, -3.68311412e-05,
          -9.59137469e-06, 5.02868124e-06, 4.86703402e-06,
          2.20244619e-05, 8.28675013e-07, 1.99874603e-06,
          -7.11137500e-06, -1.65431720e-05 ]
      - [ 8.69182441e-06, 9.60102443e-06, 5.79376433e-07,
          -1.21477560e-05, -3.58865486e-06, 7.99345571e-07,
          1.52906432e-05, 1.94793047e-05, 1.26579043e-05,
          -5.64039510e-06, -1.07311971e-05, -1.10461235e-06,
          -1.04941764e-05, 7.78273716e-06, 5.09778693e-06,
          3.87762429e-06, 9.77527725e-06, -9.40890914e-07,
          -2.01391304e-05, -3.01508953e-05, -9.26476150e-06,
          1.18288726e-05, 3.57635258e-06, 2.32666139e-06,
          -9.69724988e-06, -2.22554390e-05, 1.31479101e-05,
          2.82309793e-05, 1.77662278e-05, 1.63935147e-05, 2.82232486e-05,
          1.52660268e-05, -4.17773208e-06, -2.23599745e-05,
          -4.46499416e-06, -1.55539141e-07, -1.80031566e-05,
          1.02411150e-06, 6.64955269e-06, -2.10735038e-06,
          -2.19458798e-06, -1.48567733e-05, -6.83409007e-06,
          6.29016540e-06, -9.08438324e-06, 2.69815209e-05,
          1.33815556e-05, -2.62417620e-06, -1.07708665e-05,
          8.01974579e-07, -9.73827446e-06, -1.51768882e-05,
          -2.54000224e-06, 5.77113360e-06, 2.03276177e-05,
          1.82873446e-05, 2.90966545e-05, 8.44288752e-06, 1.38154689e-06,
          8.70318127e-06, 2.20047150e-05, 9.58297187e-06, 2.10914750e-05,
          1.09752918e-05 ]
      - [ 8.00616999e-06, 8.20443893e-06, 5.13135046e-06, 9.10863764e-06,
          1.30689596e-05, -4.99891712e-06, -3.67023240e-05,
          2.12214854e-06, 1.45004751e-05, -1.59930059e-05,
          -4.84464908e-06, 1.85617446e-05, -1.29567188e-05,
          -4.16489784e-05, -4.83511712e-06, 3.48916524e-06,
          -7.17941703e-06, -1.22332976e-05, -1.00530387e-05,
          -2.20476932e-06, -1.83880366e-05, -5.82700750e-06,
          8.90676347e-06, 1.53703204e-05, -2.70219675e-06,
          -3.52344214e-05, -1.14186478e-05, 1.18332891e-05,
          1.66032823e-05, 2.45196384e-06, -8.49943490e-07,
          -1.49135813e-05, -1.28071360e-05, -1.76567828e-05,
          1.94650347e-05, 2.57709362e-05, 6.71181533e-06,
          -2.56934472e-05, -4.72103056e-06, 4.99368070e-06,
          3.84712763e-07, -1.37206061e-05, 5.51461255e-07,
          5.47637183e-06, -1.01776286e-05, 8.66589289e-06,
          -1.85073714e-05, -1.02749091e-05, 1.21292624e-05,
          2.76315154e-06, 8.28815428e-06, 1.17909694e-05,
          -2.72547786e-05, -5.02023759e-05, -1.36550034e-05,
          5.48637308e-06, 1.99469778e-05, 5.84311101e-06,
          -4.23960319e-06, -7.81996903e-07, 2.22171070e-06,
          -1.16298679e-05, -1.65906513e-05, 1.55941689e-05 ]
      - [ -4.37748204e-05, -1.67064645e-05, 1.44204014e-05,
          5.13168334e-06, 2.06846235e-05, 1.36381250e-05, 5.41230111e-06,
          3.37581264e-06, -1.15906653e-06, -4.25756625e-05,
          -3.54023250e-05, -5.62003424e-06, -1.88165336e-06,
          1.38916375e-05, -5.62125615e-06, -4.06604704e-05,
          1.13848691e-05, 1.27124704e-05, -6.10990173e-06,
          -7.25983909e-06, -7.36888933e-06, -2.33821702e-05,
          -2.42371584e-06, 2.27826840e-05, -5.68134556e-06,
          -7.26322241e-07, -3.71130386e-06, 2.73107412e-06,
          1.65422589e-05, -2.44044677e-05, -6.99078964e-06,
          4.95454287e-06, -1.03929779e-05, 6.22733023e-06,
          9.18258593e-06, 8.04417505e-06, 1.03699876e-05, 5.58273177e-06,
          2.65352310e-06, -3.74722526e-06, -2.44370822e-05,
          -2.40261106e-05, 3.37560050e-06, 1.84439723e-05,
          5.73393618e-06, 2.82106316e-06, 5.87815839e-06,
          -6.91619471e-06, 2.98417467e-06, -2.09883401e-05,
          -5.33732236e-06, -7.46348547e-08, -1.09077091e-05,
          -6.67439735e-06, -2.31652393e-05, 1.48645267e-05,
          1.30753187e-05, -1.45940430e-05, -4.73070395e-06,
          5.20981894e-06, 7.62328864e-06, 2.39061774e-06, 1.24290036e-05,
          7.81837934e-06 ]
      - [ 5.11616236e-06, 1.39703307e-05, -5.95588199e-06,
          -1.57448430e-05, -7.46261003e-06, 7.87436602e-06,
          -2.31223635e-06, -2.78017933e-06, 1.13040878e-05,
          5.74117576e-06, 1.91415711e-06, -3.80625579e-06,
          -1.73587578e-05, 2.67416226e-06, 5.44236900e-06,
          3.05266531e-06, 8.91919717e-06, -3.41198749e-08,
          -1.59040428e-05, -1.59096617e-05, -1.30726403e-05,
          4.76131163e-06, 5.01013972e-07, 8.97624068e-06,
          -1.13140177e-05, -1.97596055e-05, 9.16187616e-07,
          1.53000246e-06, 1.11898980e-05, 2.01324542e-06, 9.29449561e-06,
          9.22765321e-06, 1.84319958e-06, -1.39269523e-05,
          -8.69351334e-06, -2.84852945e-06, -7.98087331e-06,
          1.23139753e-05, 1.16489182e-05, 5.40270321e-06, 3.03337788e-06,
          -6.63281071e-06, -2.99309863e-06, -1.70042631e-06,
          -4.38937968e-06, 9.43055238e-06, 1.54135723e-05,
          -1.46273032e-06, -5.60294075e-06, -1.96279234e-06,
          -1.24822805e-06, -1.23639584e-05, -6.13562361e-06,
          -4.35691663e-06, 1.94901418e-06, 1.49904572e-05,
          1.76400608e-05, 1.06662137e-05, 2.90735989e-06, 1.13266640e-06,
          3.23648487e-06, 7.04068498e-07, 6.47040133e-06, 2.42053011e-06 ]
      - [ 1.74226352e-06, 1.64548728e-05, -2.48693595e-06,
          -7.39751795e-06, 7.90689541e-08, -2.27901387e-06,
          -3.19588362e-05, -1.44888536e-05, 3.39082044e-06,
          6.60223031e-06, 1.00901661e-05, 3.12424913e-06,
          -1.47413502e-05, -1.80863772e-05, -4.13613770e-06,
          1.98562105e-07, 8.70134045e-06, -1.17355667e-05,
          -7.94623247e-06, -1.15740631e-05, -2.02077608e-05,
          5.00354304e-07, 9.79854121e-07, 1.19429269e-05,
          -6.42548275e-06, -2.69469765e-05, -1.11515219e-05,
          -4.57722172e-06, 3.30347871e-06, -5.42039425e-06,
          -1.07910205e-06, -2.43748104e-06, -4.21994173e-06,
          -1.12022144e-05, 2.77161871e-06, -8.58759336e-07,
          3.02388912e-06, 7.07361642e-06, 6.84295946e-06, 3.08348467e-06,
          2.54179577e-06, -3.84941131e-06, -1.41416206e-06,
          -6.80222001e-07, -6.03493845e-07, 3.93222581e-06,
          1.70311239e-06, -6.02646560e-06, 2.32805723e-06,
          6.56872589e-06, 1.23399623e-05, -9.71896839e-07,
          -2.45571337e-05, -2.95507871e-05, -9.19867216e-06,
          1.45537115e-05, 2.07564917e-05, 5.06128390e-06,
          -4.56819089e-06, -2.16030639e-06, -3.67195241e-07,
          -1.58984421e-05, -1.13978558e-05, -2.63011515e-07 ]
      - [ -1.76706471e-05, 6.85620262e-06, -2.77933577e-06,
          -6.69444535e-06, -4.70771738e-07, 9.68839868e-06,
          -2.87038583e-05, -1.88017111e-05, 2.46880654e-06,
          4.31017861e-06, 2.68234226e-06, -9.15523015e-06,
          2.81481880e-06, 9.33402771e-06, -2.04277217e-06,
          -1.28080301e-05, 1.33412332e-05, 1.00924353e-05,
          -8.55208964e-06, -1.68817169e-05, -2.10423023e-05,
          -1.95068787e-05, -2.97080391e-07, 1.83513384e-05,
          -1.66735902e-06, -1.51860286e-05, -8.10912843e-06,
          -1.06566122e-05, -1.48822110e-05, -2.97108782e-05,
          -1.49416055e-05, 1.71814900e-05, 5.91929620e-07,
          1.45568756e-05, 1.00396646e-05, 6.57126611e-06, 9.79965534e-07,
          1.06496282e-05, 7.93092840e-06, -1.19251672e-05,
          -2.70648561e-05, -1.19463493e-05, 5.80891674e-06,
          1.29842711e-05, 1.24981871e-05, 3.32381978e-06,
          -5.44012482e-06, -1.09299099e-05, -5.07048298e-06,
          -1.98669841e-05, -5.70449083e-06, 2.37352697e-08,
          -1.00335619e-05, -1.85318877e-05, -7.60246348e-06,
          1.47102937e-05, 3.09362549e-05, -2.31323338e-05,
          -1.15379344e-05, -6.86375233e-06, 5.22841447e-06,
          -1.93008276e-07, 1.50576552e-05, 4.55967893e-06 ]
      - [ -3.36295670e-06, -6.57417968e-06, 6.21621302e-06,
          1.14806835e-05, 1.66817008e-05, -3.83585893e-06,
          -2.56987350e-05, -8.15326257e-06, -5.21032780e-06,
          5.29212457e-07, -5.61287652e-06, 5.82974690e-06,
          3.75327591e-06, -1.99856404e-05, -9.66139487e-06,
          -3.28627266e-06, -6.89471744e-06, -8.61852186e-06,
          4.82933137e-06, 1.24587141e-05, 1.35559318e-07,
          -1.63750792e-05, 2.11499332e-06, 6.11882740e-07,
          5.06451715e-06, 1.82641634e-06, -1.65435558e-05,
          -3.94967037e-06, -1.11234485e-05, -1.28276370e-05,
          -1.72813961e-05, -8.37086191e-06, -3.18106618e-06,
          3.39217854e-06, 7.26110466e-06, 3.12267957e-06, 1.12457237e-05,
          -7.13605277e-06, -7.70691986e-06, -7.19759237e-06,
          -1.33702144e-06, 3.04948969e-07, -2.24304949e-06,
          -3.02004150e-06, 5.45821194e-06, -3.85595149e-06,
          -1.38344103e-05, -6.50299171e-06, 4.10437542e-06,
          4.83120084e-06, 1.47539922e-05, 1.61114422e-05,
          -1.55941198e-05, -2.23820753e-05, -1.53689434e-05,
          -3.47317155e-06, -6.34607250e-06, -9.13711392e-06,
          -1.15919311e-05, -9.09982919e-06, -1.10064138e-05,
          -2.19122940e-05, -2.87078456e-05, -4.88491605e-06 ]
      - [ -1.68348834e-05, -1.11688441e-05, 2.79055735e-06,
          4.78986203e-06, 7.62049194e-06, 1.34041716e-06,
          -5.47503714e-06, -4.83056419e-06, -3.09476036e-06,
          -7.27711995e-06, -3.49537981e-06, -1.18421508e-06,
          1.11140034e-05, -5.57241094e-07, -9.45048669e-06,
          -1.08198128e-05, -3.03845468e-06, 1.18542869e-06,
          9.07303729e-06, 9.11922325e-06, 2.49683154e-07,
          -1.38964415e-05, -4.48275068e-06, 1.73158548e-06,
          3.98294515e-06, 8.92658227e-06, -4.77037429e-06,
          -6.16987472e-06, -1.02270687e-05, -1.64587182e-05,
          -1.02086087e-05, -3.94868357e-06, -3.85221824e-07,
          1.40718021e-05, 8.14799478e-06, 5.05393291e-06, 9.29320413e-06,
          -4.15342492e-06, -1.11438812e-05, -9.74430986e-06,
          -1.30728058e-05, -1.26550128e-06, 1.58017895e-06,
          2.13162389e-06, 1.22298607e-05, -6.83879671e-06,
          -1.41478531e-05, -4.25018379e-06, 1.63711923e-06,
          -9.29410544e-06, -1.69167754e-06, 4.25422149e-06,
          1.56204590e-06, -2.40401641e-06, -7.68096743e-06,
          -2.23527354e-06, -3.48010462e-06, -1.27449985e-05,
          -8.32465412e-06, -5.43060742e-06, -2.22847825e-06, 0.,
          -5.28270220e-07, 1.09448467e-06 ]
      - [ -2.32912371e-05, -6.99093380e-06, 3.96211908e-06,
          2.19853132e-06, -2.65936683e-06, 6.83311600e-06,
          1.35468763e-05, 2.21493178e-06, 7.13601412e-06,
          -9.91130946e-07, -5.88193916e-06, -7.20048865e-06,
          9.82035726e-06, 2.03412292e-05, 1.80196378e-06,
          -1.79212602e-05, 1.76318417e-06, 1.87646529e-05,
          8.75562546e-06, 4.22170433e-06, 1.00942373e-06,
          -9.14427619e-06, -5.91985781e-06, -2.65017036e-07,
          7.16321847e-06, 1.84788078e-05, 1.06862481e-05,
          -3.99710916e-06, 1.84066482e-06, -1.54695408e-05,
          -7.79108268e-06, 2.14586080e-07, 2.87182411e-06,
          2.68220356e-05, 9.47006811e-06, -1.01958506e-06,
          -2.40005102e-06, 7.23946550e-06, -5.03382989e-06,
          -1.47655701e-05, -1.61468233e-05, -5.87117802e-06,
          1.04056680e-05, 1.31883935e-05, 1.58374969e-05,
          -7.89806677e-07, -1.05903873e-05, -4.69513634e-06,
          3.32352130e-07, -2.21353330e-05, -1.12012194e-05,
          -2.77675122e-06, 1.07621618e-05, 1.51678951e-05,
          1.72553064e-06, -8.96117058e-07, -4.62385685e-07,
          -1.84165783e-05, -2.18915375e-06, 3.77153555e-07,
          1.73531737e-06, 2.17539618e-05, 2.32520651e-05, 4.87013949e-07 ]
   decision_functions:
      -
         sv_count: 1
         rho: 1.0179646490288401e+00
         alpha: [ 1. ]
         index: [ 0 ]
      -
         sv_count: 1
         rho: 7.3173049716540928e-01
         alpha: [ 1. ]
         index: [ 1 ]
      -
         sv_count: 1
         rho: 1.1692813584127077e+00
         alpha: [ 1. ]
         index: [ 2 ]
      -
         sv_count: 1
         rho: 1.0991894256390007e+00
         alpha: [ 1. ]
         index: [ 3 ]
      -
         sv_count: 1
         rho: 1.1620664363278164e+00
         alpha: [ 1. ]
         index: [ 4 ]
      -
         sv_count: 1
         rho: 1.2873950543947275e+00
         alpha: [ 1. ]
         index: [ 5 ]
      -
         sv_count: 1
         rho: 5.3380472501953236e-01
         alpha: [ 1. ]
         index: [ 6 ]
      -
         sv_count: 1
         rho: 1.6655455901054120e-01
         alpha: [ 1. ]
         index: [ 7 ]
      -
         sv_count: 1
         rho: -4.0903254310207847e-03
         alpha: [ 1. ]
         index: [ 8 ]
      -
         sv_count: 1
         rho: 5.1631082218801978e-02
         alpha: [ 1. ]
         index: [ 9 ]
      -
         sv_count: 1
         rho: -3.1851798162542716e-01
         alpha: [ 1. ]
         index: [ 10 ]
      -
         sv_count: 1
         rho: -1.6693937327258732e-01
         alpha: [ 1. ]
         index: [ 11 ]
      -
         sv_count: 1
         rho: 3.4738103251456898e-01
         alpha: [ 1. ]
         index: [ 12 ]
      -
         sv_count: 1
         rho: 3.1120889052227674e-01
         alpha: [ 1. ]
         index: [ 13 ]
      -
         sv_count: 1
         rho: 1.7104517773311509e-01
         alpha: [ 1. ]
         index: [ 14 ]
      -
         sv_count: 1
         rho: -1.4695012417711104e-01
         alpha: [ 1. ]
         index: [ 15 ]
      -
         sv_count: 1
         rho: -4.3709439376784498e-01
         alpha: [ 1. ]
         index: [ 16 ]
      -
         sv_count: 1
         rho: 7.2330553422666322e-01
         alpha: [ 1. ]
         index: [ 17 ]
      -
         sv_count: 1
         rho: 3.2879252545155652e-01
         alpha: [ 1. ]
         index: [ 18 ]
      -
         sv_count: 1
         rho: 2.9058016071217202e-01
         alpha: [ 1. ]
         index: [ 19 ]
      -
         sv_count: 1
         rho: 3.2684674898298287e-02
         alpha: [ 1. ]
         index: [ 20 ]
      -
         sv_count: 1
         rho: 1.4541844446114521e-01
         alpha: [ 1. ]
         index: [ 21 ]
      -
         sv_count: 1
         rho: -2.9828273509167297e-01
         alpha: [ 1. ]
         index: [ 22 ]
      -
         sv_count: 1
         rho: -1.2088807048213885e+00
         alpha: [ 1. ]
         index: [ 23 ]
      -
         sv_count: 1
         rho: 1.1615309156568261e+00
         alpha: [ 1. ]
         index: [ 24 ]
      -
         sv_count: 1
         rho: -5.5501945120859475e-01
         alpha: [ 1. ]
         index: [ 25 ]
      -
         sv_count: 1
         rho: -5.0452259652448161e-01
         alpha: [ 1. ]
         index: [ 26 ]
      -
         sv_count: 1
         rho: -1.4526525755490990e-01
         alpha: [ 1. ]
         index: [ 27 ]
      -
         sv_count: 1
         rho: -1.5234396396856409e+00
         alpha: [ 1. ]
         index: [ 28 ]
      -
         sv_count: 1
         rho: -2.3470236703120526e+00
         alpha: [ 1. ]
         index: [ 29 ]
      -
         sv_count: 1
         rho: -1.3373309882688597e-01
         alpha: [ 1. ]
         index: [ 30 ]
      -
         sv_count: 1
         rho: -2.1375378640693410e-01
         alpha: [ 1. ]
         index: [ 31 ]
      -
         sv_count: 1
         rho: -1.2825194994311725e-01
         alpha: [ 1. ]
         index: [ 32 ]
      -
         sv_count: 1
         rho: -7.4804493102751268e-01
         alpha: [ 1. ]
         index: [ 33 ]
      -
         sv_count: 1
         rho: -1.0101548845128567e+00
         alpha: [ 1. ]
         index: [ 34 ]
      -
         sv_count: 1
         rho: -4.0722395266011502e-01
         alpha: [ 1. ]
         index: [ 35 ]
      -
         sv_count: 1
         rho: -2.7113913695827008e-01
         alpha: [ 1. ]
         index: [ 36 ]
      -
         sv_count: 1
         rho: -1.3590473936970442e+00
         alpha: [ 1. ]
         index: [ 37 ]
      -
         sv_count: 1
         rho: -1.5567717580658411e+00
         alpha: [ 1. ]
         index: [ 38 ]
      -
         sv_count: 1
         rho: -4.3603048784581933e-02
         alpha: [ 1. ]
         index: [ 39 ]
      -
         sv_count: 1
         rho: -4.2610158182497510e-01
         alpha: [ 1. ]
         index: [ 40 ]
      -
         sv_count: 1
         rho: -1.0738315518886614e+00
         alpha: [ 1. ]
         index: [ 41 ]
      -
         sv_count: 1
         rho: -5.6335378696289873e-01
         alpha: [ 1. ]
         index: [ 42 ]
      -
         sv_count: 1
         rho: -6.1789848964057292e-01
         alpha: [ 1. ]
         index: [ 43 ]
      -
         sv_count: 1
         rho: -1.9979094998918825e-01
         alpha: [ 1. ]
         index: [ 44 ]
