%YAML:1.0
my_svm: !!opencv-ml-svm
   svm_type: C_SVC
   kernel: { type:LINEAR }
   C: 2.6699999999999999e+000
   term_criteria: { epsilon:1.1920928955078125e-007, iterations:1000 }
   var_all: 64
   var_count: 64
   class_count: 11
   class_labels: !!opencv-matrix
      rows: 1
      cols: 11
      dt: i
      data: [ 0, 1, 2, 3, 5, 6, 7, 8, 9, 10, 11 ]
   sv_total: 55
   support_vectors:
      - [ 8.73775061e-005, 2.39332348e-005, 2.12064424e-005,
          3.02938929e-006, -1.39855756e-005, -4.55498739e-005,
          -2.39340006e-005, -4.07049884e-005, -1.87147616e-005,
          1.07805508e-005, 4.30850159e-005, 1.98792604e-005,
          -1.58368875e-005, -3.04370724e-006, 4.82680343e-006,
          3.58513971e-005, 3.79314733e-005, 5.95835263e-006,
          2.26867382e-006, -2.08424922e-006, -2.23953521e-006,
          5.38105633e-005, 2.75141865e-005, -9.15755209e-006,
          -5.58405627e-005, -3.83395964e-005, -4.79708251e-005,
          -1.68159859e-005, 7.38278868e-006, 2.10500020e-005,
          1.34773582e-005, 6.10818970e-005, -3.87088330e-005,
          -4.28305566e-006, -3.54228769e-006, -4.04003413e-006,
          8.75212208e-006, 1.15974262e-005, 2.50448938e-005,
          6.73189788e-005, 4.83791991e-005, 5.00936676e-006,
          4.13802627e-006, 6.91346577e-006, 7.10735958e-006,
          1.65051333e-005, 1.53885794e-005, -1.48452073e-005,
          -1.64197772e-005, 2.94188812e-005, 4.60301817e-005,
          -1.69389605e-005, -8.43581802e-006, 2.61329274e-006,
          9.23053358e-006, 3.49472866e-005, 4.99590424e-005,
          3.50679147e-005, 2.11683073e-005, 1.44415799e-005,
          -2.88989304e-005, -3.12955672e-005, -3.61037928e-005,
          -4.08709384e-005 ]
      - [ 1.57183473e-004, -6.09948620e-006, 3.44258224e-005,
          -5.95686924e-006, -2.65408471e-005, -6.88788714e-005,
          -1.48493264e-005, 2.14606862e-005, -3.68099827e-005,
          -7.01995486e-006, 2.70883083e-005, 4.20582110e-005,
          1.39714039e-005, -1.52105740e-005, -3.25724181e-006,
          6.41367660e-005, 9.00250307e-005, 4.01399802e-006,
          -3.61193133e-006, -2.52345144e-005, 2.60535962e-005,
          1.33755573e-004, 4.94830783e-005, 3.38455975e-005,
          -2.76342398e-005, -8.52608937e-005, -6.87772044e-005,
          -1.45590793e-005, 2.21910868e-005, 4.32927955e-005,
          3.73323455e-005, 1.72598084e-004, -2.97698225e-005,
          -1.85588597e-005, -1.80053339e-005, 7.49934816e-006,
          2.03984400e-005, 9.07383196e-007, 1.43436300e-005,
          7.31081127e-006, 7.71071936e-005, -1.88390204e-005,
          -1.84405180e-005, -1.65952006e-005, 1.55474675e-006,
          -3.50056362e-005, -4.04104685e-005, 4.78686306e-005,
          -1.08732365e-005, -7.45744692e-005, 3.26618283e-005,
          -2.25229778e-005, 2.47722323e-006, 5.39386235e-007,
          1.05381887e-005, 7.23309640e-005, 6.85198975e-005,
          2.83491572e-005, 3.88549488e-005, 3.18312550e-006,
          -2.12675241e-005, -1.14394852e-005, -5.80154529e-006,
          4.22139692e-006 ]
      - [ 1.07868080e-004, 2.74090053e-005, 1.48548534e-005,
          -1.51294371e-005, -3.05638459e-005, -2.61535261e-005,
          -1.86406196e-005, -1.42073877e-005, -9.20677758e-006,
          1.17314121e-005, 4.40484073e-005, 2.80861514e-005,
          -2.54787807e-007, -8.83823850e-006, 3.33115645e-006,
          4.04355160e-005, 4.97589426e-005, 2.78422317e-006,
          -8.08568711e-006, -1.18346634e-005, -2.85376336e-005,
          3.83635233e-005, 1.96033961e-005, 4.18118361e-005,
          -4.31496483e-006, -1.82010535e-005, -3.77267606e-005,
          -3.14725730e-005, -3.59840305e-005, -3.83544029e-005,
          5.58649663e-006, 7.51965417e-005, -5.24347779e-005,
          -5.92873766e-005, -3.16929945e-005, -6.62751381e-006,
          7.93225536e-006, 1.50405376e-005, 2.03014133e-005,
          4.66959355e-005, 3.01880937e-005, -4.27625600e-005,
          -4.13915877e-005, -2.15302625e-005, -1.34848551e-005,
          5.11032886e-006, 2.70140845e-005, -1.71728516e-005,
          1.15245557e-005, 2.45709434e-005, 6.52786684e-006,
          -4.66797319e-005, -3.00316497e-005, -4.94098385e-005,
          -4.15485629e-005, -1.88295271e-005, 9.48690740e-006,
          1.50457599e-005, 6.08103937e-006, 9.16930367e-006,
          -2.55032228e-005, -5.17150074e-005, -7.44914869e-005,
          -5.14587555e-005 ]
      - [ 1.67499835e-004, 2.29777816e-005, 4.11557412e-005,
          -2.59299304e-005, -1.87136429e-005, -4.77399226e-005,
          -8.00687776e-005, -5.34844694e-005, -2.75952098e-005,
          4.27513187e-005, 1.47825383e-004, 7.47612430e-005,
          -1.30371063e-006, 3.41770738e-006, 5.53219797e-006,
          4.90760067e-005, 8.53203674e-005, -9.56382155e-006,
          -7.21406695e-006, -2.39512974e-005, 1.24700446e-005,
          9.50124086e-005, 6.69656074e-005, 7.16268987e-005,
          -3.08336712e-005, -4.36948394e-005, -3.67581015e-005,
          -3.09702082e-005, 1.26778423e-006, -8.17912405e-006,
          -3.30598850e-005, 1.52773238e-004, 1.89995917e-005,
          -2.57341180e-005, -3.75809141e-005, -3.52248389e-005,
          1.84881555e-005, -2.06249592e-006, 2.84435760e-006,
          6.27548870e-005, 6.97548967e-005, -6.12395706e-006,
          3.02610238e-006, -2.60161360e-005, -3.79611120e-005,
          -5.97717280e-006, -1.19016540e-005, 2.71213557e-005,
          2.30736987e-005, -1.12490725e-005, 5.66357448e-005,
          -1.72412656e-005, -1.48753570e-005, -2.09865739e-005,
          -1.24951266e-005, 3.55916018e-005, 2.17764009e-005,
          -4.66764250e-005, 9.81222365e-006, 3.19543301e-006,
          -7.70317056e-005, -2.59448752e-005, -9.99269741e-006,
          -8.11553218e-006 ]
      - [ 9.20054881e-005, 1.86987272e-005, 3.90149071e-005,
          4.78001994e-007, 3.54279064e-006, 1.93330288e-006,
          9.08310085e-006, 3.75903001e-005, -2.46414238e-005,
          -8.24889139e-005, -8.70547301e-005, -9.97875759e-006,
          -3.89744891e-005, -2.35523639e-005, -4.69727893e-005,
          2.12037503e-005, -7.28235100e-005, -9.49884998e-005,
          -6.14772653e-005, -4.80586059e-005, -8.05965556e-006,
          2.98969699e-005, -6.57915189e-006, -2.86308496e-005,
          -7.48942193e-006, 1.95425059e-006, -2.45778915e-006,
          -2.56726793e-007, 1.32465948e-005, -8.36859363e-006,
          2.40743448e-005, 1.15055715e-004, 3.84002215e-006,
          -3.47543137e-005, -3.58826437e-005, -3.52029310e-005,
          -3.60329250e-005, 6.99548627e-006, 5.36618536e-005,
          1.53338275e-004, 1.39682059e-004, 6.32140745e-006,
          -4.95767699e-006, -3.83429397e-005, -2.40421614e-005,
          2.12132109e-005, 2.19308713e-005, 8.08436889e-005,
          1.41473529e-005, 6.55424228e-005, -1.10696083e-005,
          -4.60886031e-006, -1.74642173e-005, -5.37072629e-005,
          -3.73212642e-005, -4.88296573e-005, 1.52639604e-005,
          3.50729606e-005, -1.37096176e-005, 1.04890532e-005,
          -3.74744632e-005, -6.81816091e-005, -8.56204133e-005,
          -5.18537236e-005 ]
      - [ 6.12964432e-005, 1.64929024e-005, 5.92988681e-006,
          -6.70970476e-005, -4.62076387e-005, -2.21613718e-005,
          -7.91474758e-006, 8.51115055e-006, 1.55959287e-006,
          4.67551757e-007, 1.11580475e-005, 1.84070213e-005,
          -2.38087614e-005, -3.18548450e-006, 5.16770478e-006,
          2.12243431e-005, 3.17961567e-005, -4.37422329e-007,
          -1.06433963e-005, -2.46882337e-005, 4.55765576e-006,
          4.11961591e-005, 2.07415324e-005, 2.42185979e-005,
          -3.76851494e-005, -5.63263602e-005, -1.44699425e-005,
          -1.27214125e-005, -3.95315692e-006, 1.20205787e-005,
          1.31630277e-005, 5.52467718e-005, -8.67845938e-006,
          -1.58756102e-005, -3.14703102e-005, -2.70625369e-005,
          -1.57679860e-005, -9.62105696e-006, 1.16120345e-005,
          5.85529160e-005, 3.33890493e-005, 3.59634055e-006,
          2.62116282e-006, -3.28063857e-006, -2.50774228e-005,
          1.05871486e-005, 3.31952579e-005, 3.42960993e-005,
          -3.24230714e-005, 2.37276672e-005, 5.07676741e-005,
          2.31976210e-005, 1.32952318e-005, 1.94651079e-006,
          6.32925457e-006, 4.21742734e-005, 4.22314806e-005,
          2.54515817e-005, 1.49775506e-005, 6.47474144e-006,
          -1.64416804e-006, -1.53281417e-006, -6.03522221e-006,
          -2.25710119e-005 ]
      - [ 1.04502920e-004, 2.27532782e-005, 2.97111656e-005,
          1.20342220e-005, 2.07287121e-006, -6.20607307e-006,
          -2.06341301e-005, -5.22227347e-005, -4.10936127e-006,
          2.85098304e-005, 2.55711639e-005, 2.13169096e-005,
          -5.48008138e-005, -4.71159292e-005, -9.26926259e-006,
          3.63925501e-005, 3.03610050e-005, -1.00993966e-005,
          -2.17256729e-005, -3.63048493e-005, -2.95908794e-005,
          4.88442674e-005, 3.70049747e-005, 3.53015857e-005,
          -1.18579419e-005, -2.20515994e-005, -2.01644434e-005,
          1.47105231e-006, 1.48750305e-005, 1.53934052e-005,
          4.65195581e-006, 6.14166056e-005, -4.05385720e-007,
          -1.22165557e-005, -4.84847806e-006, -6.15538340e-007,
          8.12004055e-006, 7.18187403e-006, 1.21683988e-005,
          7.08747466e-005, 5.36069892e-005, -5.55458382e-006,
          -8.12678718e-006, -5.03336778e-005, -3.64930274e-005,
          3.53860673e-006, -4.31212266e-006, 5.19237574e-006,
          3.10621945e-005, 1.89498387e-005, 3.72746654e-005,
          1.83600005e-005, -7.24830097e-005, -7.13893241e-005,
          -1.09219482e-005, 3.25023721e-005, 4.57277674e-005,
          2.79658161e-005, 7.30142165e-006, 1.14075101e-005,
          -2.91871606e-006, -2.61648916e-006, -4.93816951e-005,
          -3.69780937e-005 ]
      - [ 2.89964264e-005, -7.28239547e-006, 8.30668432e-006,
          2.14185638e-005, -1.23962136e-005, -3.55319826e-005,
          -7.33754205e-005, -8.52244120e-005, -3.43839056e-005,
          -2.83737118e-005, 1.94267659e-006, -2.13996900e-005,
          -3.40951192e-005, -3.25983201e-005, -2.76459104e-005,
          -2.78300231e-005, 1.21657489e-004, -1.16911860e-005,
          -5.37057094e-005, -1.22275364e-004, -1.31505876e-005,
          -3.01186192e-005, 4.68659055e-005, 1.16349242e-004,
          -1.16807678e-005, -6.30639770e-005, -7.96831446e-005,
          -6.27181507e-005, -6.50506190e-005, -1.25603547e-005,
          4.33461128e-006, 1.87520694e-004, 1.11337804e-005,
          1.10053679e-006, 7.14586690e-007, -4.28346084e-006,
          9.90294575e-006, -7.47890863e-006, -1.82344411e-005,
          8.29958808e-005, 9.47220087e-006, -1.32136716e-004,
          -8.50434371e-005, -7.07179206e-005, -5.72804238e-005,
          4.82075984e-006, -7.86510209e-005, -2.35140051e-005,
          -1.29291811e-005, -9.83028440e-005, -6.06022586e-005,
          -3.74724368e-005, -3.83712722e-005, -4.84585944e-005,
          -8.92459066e-005, -5.71162354e-006, 7.44561839e-005,
          7.58089254e-006, 4.42418695e-006, 1.35334185e-005,
          7.18984097e-007, 3.72113345e-006, -8.93283072e-007,
          -2.08802867e-005 ]
      - [ 1.37000621e-004, 4.65662051e-005, 3.75777090e-005,
          1.72605614e-005, 1.06376410e-005, 2.59373314e-006,
          1.13142123e-005, 4.32195350e-007, -3.71955757e-005,
          -9.21372759e-007, 5.19270106e-005, 3.54268304e-005,
          1.44689566e-005, 3.77180481e-006, 7.26571398e-006,
          4.68712788e-005, 4.36922746e-005, 6.33864465e-006,
          4.76989271e-006, -3.15912786e-007, 1.73908466e-005,
          6.65096668e-005, 8.06701564e-007, 6.99976681e-007,
          -1.34275506e-005, -2.17126808e-006, -1.94203977e-007,
          2.43843624e-006, 2.41617381e-005, 2.71974877e-005,
          2.06821642e-005, 9.17823709e-005, -1.02004151e-005,
          -7.68254552e-007, -2.47692753e-007, 4.70665964e-006,
          1.88087361e-005, 1.89014045e-005, 3.49713846e-005,
          8.65324182e-005, 8.70332806e-005, 3.71408510e-006,
          3.81459517e-006, -1.49977802e-006, 2.01611329e-005,
          4.63311808e-005, -8.90647584e-007, -9.57825932e-007,
          9.77012974e-007, -1.61598800e-005, 8.84517649e-005,
          2.47025419e-005, 1.36411527e-005, 2.94588199e-006,
          1.48566878e-005, 5.69107724e-005, 8.33889062e-005,
          4.24643367e-005, 2.57516986e-005, 2.12272171e-005,
          -1.26636019e-006, -1.35087726e-006, -6.37768835e-006,
          -1.03504381e-005 ]
      - [ 9.76966039e-005, 3.89993947e-005, 3.26910958e-005,
          1.45739368e-005, 8.73498175e-006, 2.19672756e-006,
          1.11372829e-005, 1.51232543e-005, -3.06122020e-005,
          3.99796591e-005, 7.46345540e-005, 1.06732332e-005,
          -8.06495791e-006, -7.08532843e-006, -1.50520705e-007,
          3.62462160e-005, 1.64269441e-005, -2.22533686e-006,
          -8.42342615e-006, -1.06815287e-005, -1.77822994e-006,
          7.55427754e-005, 3.78428049e-005, 2.32471921e-005,
          -3.79452431e-005, 0., 4.06301780e-007, 3.67588700e-006,
          2.14383563e-005, 2.39261881e-005, 1.80764200e-005,
          7.94617299e-005, -2.15911386e-005, 7.58218505e-007,
          9.68804784e-007, 3.85968633e-006, 1.57632621e-005,
          1.66551945e-005, 2.97068091e-005, 6.85601335e-005,
          6.63625688e-005, -8.97876362e-006, -1.92662847e-005,
          -1.50685819e-005, -1.00916232e-005, 6.69412839e-005,
          5.11378494e-005, 7.51576636e-006, 3.23312702e-006,
          3.13761848e-005, 8.54368191e-005, -6.62988032e-006,
          -1.59139327e-005, -3.50718869e-006, 8.43792895e-006,
          4.31687149e-005, 7.05096536e-005, 3.81474201e-005,
          2.31941485e-005, 1.84812361e-005, 3.55383281e-006,
          1.74387947e-006, 1.46109369e-006, 2.38533153e-006 ]
      - [ -4.07550287e-005, -7.32616973e-005, -3.14898025e-005,
          -1.96962956e-005, 1.72727050e-005, 9.83072532e-005,
          8.98207654e-005, 1.12856978e-004, 3.28228307e-005,
          -1.18384312e-004, -8.02465365e-006, 1.37669831e-005,
          3.36567973e-005, -1.61131557e-005, -1.68934166e-005,
          -6.98905978e-006, -1.28090751e-005, -1.50107799e-005,
          -2.46750151e-005, -5.02040930e-005, -2.28435947e-005,
          2.06063905e-005, -6.17362384e-005, 9.39594065e-006,
          7.35690410e-005, 2.82135898e-005, -2.49786171e-005,
          -6.24902395e-006, -3.20368526e-005, -5.45701778e-006,
          -1.24394057e-006, -1.18423816e-006, 1.02254657e-004,
          -3.14540193e-005, -1.25446013e-005, 2.08431120e-005,
          4.91699268e-007, -2.52677692e-005, -2.16085100e-005,
          -8.73451136e-005, -1.04089871e-004, -5.63090362e-005,
          -4.45172554e-005, -3.91027861e-005, -7.65329096e-005,
          -4.16551447e-005, -6.53444440e-005, 7.44036079e-005,
          -2.61612968e-006, -1.37291543e-004, -8.60250075e-005,
          4.11909969e-005, 1.87493265e-006, -1.23284581e-005,
          -7.24670508e-006, -1.30489661e-005, -2.57831434e-005,
          -1.42378703e-005, -1.95315465e-006, -3.51204726e-005,
          2.56389576e-005, 6.89830194e-005, 6.74957118e-005,
          7.06870778e-005 ]
      - [ -5.28289547e-006, -4.33579044e-006, -1.89466282e-005,
          -1.84328655e-005, 1.32566329e-005, 1.04973042e-004,
          4.71656458e-005, 2.76362389e-005, 4.80848212e-005,
          -4.44483521e-005, -3.22162559e-005, 6.90411071e-006,
          2.80416261e-005, -1.29856417e-005, -5.16242335e-006,
          -9.96853714e-007, -5.54753797e-006, -4.51969254e-006,
          -1.49929219e-005, -1.41218125e-005, -6.72075694e-005,
          -5.41468689e-005, -2.51026304e-005, 5.36579682e-005,
          1.13705129e-004, 3.71857459e-005, 4.99904818e-005,
          1.09714747e-005, -5.69561671e-005, -7.52360575e-005,
          -1.00551397e-005, -7.57485941e-006, 2.99309122e-005,
          -8.07890610e-005, -6.69622677e-005, 1.11024920e-005,
          4.89879403e-006, -5.32012928e-006, -5.93037339e-006,
          -2.16521221e-005, -5.52243509e-005, -5.53988648e-005,
          -6.36859404e-005, -6.66415945e-005, -2.33786541e-005,
          -3.82436592e-005, 1.20853510e-005, 1.33324611e-005,
          6.24849272e-005, -8.37478456e-006, -8.75933038e-005,
          -4.95449967e-005, -1.23817626e-005, -6.53601601e-005,
          -5.82927496e-005, -8.71027878e-005, -8.58272979e-005,
          -3.44609107e-005, -1.87921742e-005, 7.88002581e-006,
          1.01622963e-005, -5.11353664e-006, -4.07234329e-005,
          -1.81539199e-005 ]
      - [ -6.08853879e-005, -4.75242996e-005, -2.33066221e-005,
          -2.46305026e-005, 4.74980588e-005, 1.04602586e-004,
          2.16925969e-006, 3.01352411e-005, 3.21852240e-005,
          -6.30290697e-006, -2.11578317e-005, -5.99680925e-006,
          -4.12113950e-005, 3.25318206e-006, -1.06446614e-005,
          -2.40610370e-005, -3.44507898e-005, -3.77572142e-005,
          -3.81280552e-005, -1.40612983e-005, -9.86572013e-006,
          -2.29741818e-005, 1.61572098e-005, 5.63166905e-005,
          1.21336408e-004, 9.39487145e-005, 1.24756902e-004,
          3.17561826e-005, -1.95714201e-005, -3.75368945e-005,
          -5.40707842e-005, -3.14148128e-005, 1.09346496e-004,
          -1.85258905e-005, -4.24589925e-005, -4.66076344e-005,
          9.16483532e-006, -1.47685969e-005, -2.90800108e-005,
          -5.47009658e-005, -5.23048075e-005, -7.58589294e-006,
          -7.12200881e-006, -3.06099246e-005, -8.85964764e-005,
          -2.62663725e-005, -2.07722242e-005, 7.13321933e-005,
          6.65585467e-005, -7.38406161e-005, -1.82096428e-005,
          7.07136787e-005, 2.78935277e-005, -3.35134755e-005,
          -3.35982986e-005, -4.15842987e-005, -1.06586471e-004,
          -7.91232087e-005, -4.64726581e-005, -3.39378198e-006,
          6.03057151e-006, 4.84146840e-005, 5.60852495e-005,
          1.10954170e-004 ]
      - [ -3.89433408e-005, -1.48937679e-005, -1.44866299e-005,
          -1.33025628e-006, 2.13333278e-005, 6.57891069e-005,
          4.15772156e-005, 5.65754672e-005, -8.23001210e-006,
          -6.09523377e-005, -5.92616307e-005, -2.27468263e-005,
          -2.52778563e-007, -8.67202198e-006, -2.68251515e-005,
          -3.08280687e-005, -6.93647380e-005, -4.83173935e-005,
          -3.46570050e-005, -1.49433208e-005, -1.47820783e-005,
          -3.31694646e-005, -2.87605289e-005, -9.34354466e-006,
          4.26665392e-005, 4.33663809e-005, 5.62105815e-005,
          1.35483178e-005, -1.03863556e-006, -1.44997020e-005,
          -1.98181424e-005, -3.36296107e-005, 5.97159415e-005,
          -1.27029434e-005, -9.74207069e-006, -7.13534155e-006,
          -1.86845700e-005, -1.34612765e-005, -4.71607473e-006,
          -2.47942580e-006, -2.98112082e-006, -3.34955485e-006,
          -5.11931694e-006, -3.01103755e-005, -2.57081101e-005,
          -1.32978321e-005, -6.34754633e-006, 5.43261049e-005,
          2.05070992e-005, -1.20806162e-005, -5.59265864e-005,
          2.42863844e-005, 1.29329874e-005, -2.46143027e-005,
          -1.94707427e-005, -4.91954597e-005, -7.67468300e-005,
          -2.81185676e-005, -2.77152121e-005, -6.29473925e-006,
          2.22141116e-005, 2.13293060e-005, -2.92592472e-006,
          1.48570471e-005 ]
      - [ -1.02770728e-005, -3.18225898e-006, -3.33042626e-005,
          -1.44657955e-004, -5.82499488e-005, 4.65648045e-005,
          3.63387953e-005, 5.84065274e-005, 1.79706658e-005,
          -3.09555471e-005, -3.40141996e-005, 2.78202242e-005,
          -4.90445964e-005, -5.63499088e-006, -3.23884615e-006,
          -5.67159213e-006, -6.51395840e-006, -2.17354773e-006,
          -4.14295027e-005, -5.98211482e-005, 2.02962747e-005,
          8.24224298e-006, 5.21332504e-006, -5.61315483e-006,
          -2.52757891e-005, -2.36341657e-005, 5.78051404e-005,
          -1.31843708e-005, -1.54433164e-005, -1.25435145e-005,
          -6.58861154e-006, -5.95295887e-006, 7.41437179e-005,
          -3.19806059e-005, -7.26509679e-005, -4.85605997e-005,
          -3.72107243e-005, -5.51318408e-005, -1.37927291e-005,
          -9.54293341e-007, -3.12899238e-006, -5.91603884e-006,
          -5.23087692e-006, -2.09642621e-005, -6.05560781e-005,
          -1.45985277e-005, 1.60636901e-005, 8.72796008e-005,
          -1.02109123e-004, -2.45176361e-005, 2.94728961e-005,
          7.25079444e-005, 3.57058270e-005, 1.23995250e-007,
          -1.83360527e-007, -1.84429666e-007, -7.61847502e-007,
          -1.49354059e-006, -1.60935622e-006, -1.49913501e-006,
          5.07771620e-005, 6.71850503e-005, 4.63122778e-005,
          3.81805294e-005 ]
      - [ -5.22747769e-006, -1.32616628e-006, 7.81445760e-006,
          7.17889179e-006, 3.56289238e-005, 1.00209691e-004,
          2.02410592e-005, -1.04307464e-005, 2.46527852e-005,
          1.13208916e-005, -2.07337453e-005, -1.58540354e-006,
          -7.30349711e-005, -7.91199782e-005, -2.22596827e-005,
          -1.34359771e-005, -2.05080978e-005, -2.54328424e-005,
          -5.56877967e-005, -7.61523770e-005, -6.78184879e-005,
          -2.25058920e-005, 6.94297296e-006, 7.54549401e-005,
          9.47381777e-005, 6.46936533e-005, 7.54870780e-005,
          2.27411529e-005, 1.22502170e-005, -2.49068798e-005,
          -2.59216667e-005, -2.12308260e-005, 7.34235146e-005,
          3.67440680e-006, 9.27215206e-006, 1.32804962e-005,
          2.28792283e-006, -2.05265096e-005, -1.53077144e-005,
          -1.37288589e-005, -1.13230672e-005, -1.88523736e-005,
          -3.28558017e-005, -7.17304065e-005, -6.41521838e-005,
          -2.58391628e-005, -3.88348381e-005, 5.35325344e-005,
          6.56047050e-005, 2.87381977e-006, 7.58537908e-006,
          1.92825173e-005, -8.49951757e-005, -1.32117289e-004,
          -5.02259609e-005, -2.78273528e-005, -1.87416281e-005,
          -2.79390661e-005, -1.14566219e-005, -2.53549115e-006,
          5.52469755e-005, 6.61720260e-005, -2.06557906e-005,
          4.24364443e-005 ]
      - [ -7.62156051e-005, -2.94511447e-005, -2.26776701e-005,
          1.76721494e-006, 1.54747668e-005, 4.80859817e-005,
          -2.78808716e-006, 2.17762372e-005, 6.99666134e-006,
          -2.06988334e-005, -3.03841225e-005, -2.01771763e-005,
          5.76044113e-006, -1.19431143e-005, -1.17641639e-005,
          -4.32250745e-005, -4.95793665e-006, -6.65269636e-006,
          -1.50942133e-005, -3.91366484e-005, -1.00733314e-005,
          -5.55296683e-005, -1.91597501e-005, 4.77054600e-005,
          5.66537237e-005, 2.54625302e-005, 2.56401800e-005,
          -6.20232368e-006, -2.71535664e-005, -3.04079076e-005,
          -1.41164955e-005, -6.51939717e-006, 4.09488057e-005,
          6.63907576e-006, 6.60888782e-006, 7.90132526e-006,
          -3.86535839e-006, -1.29271475e-005, -3.72513532e-005,
          -3.59204241e-005, -7.18828669e-005, -4.82373507e-005,
          -2.91248307e-005, -2.65555591e-005, -2.58113487e-005,
          -1.08910663e-005, -4.68915969e-005, 1.24439657e-005,
          1.24576318e-005, -5.22674636e-005, -7.71770865e-005,
          1.40959392e-005, 2.34048571e-006, -2.23825846e-005,
          -4.05632018e-005, -4.56845046e-005, -2.18382011e-005,
          -4.04659149e-005, -1.53958990e-005, -5.43736587e-006,
          3.24652319e-005, 3.82077887e-005, 3.84717860e-005,
          3.16437108e-005 ]
      - [ 8.37826610e-006, 5.75881631e-006, 2.96577873e-005,
          3.03798588e-005, 5.57753265e-005, 1.18585835e-004,
          1.08517313e-004, 1.18174779e-004, -1.62905562e-005,
          -6.89126027e-005, -1.24041035e-005, -2.00814757e-005,
          8.17791515e-005, 2.14042720e-005, 8.33891590e-006,
          -5.21737832e-007, -3.23213362e-006, -1.67603764e-006,
          -3.26116128e-006, 6.21184927e-006, 2.49401037e-005,
          -3.03498255e-005, -1.02152131e-004, 3.03159704e-005,
          1.08419896e-004, 1.24751547e-004, 1.34718663e-004,
          5.87435898e-005, 2.77210274e-005, -1.45954675e-006,
          -3.50170603e-006, -7.58905003e-007, 8.99118750e-005,
          1.72305336e-005, 1.53339333e-005, 1.26853229e-005,
          2.86703244e-006, 4.26317001e-007, -6.50982145e-007,
          -3.82673392e-007, -4.21882669e-006, -3.69007762e-006,
          -4.93357493e-006, -2.00422128e-005, -3.95146890e-005,
          1.56873739e-005, -6.14603778e-005, 6.97285359e-005,
          -8.02295835e-006, -8.49384887e-005, 3.01378859e-005,
          7.33203196e-005, 4.63971901e-006, -3.27451585e-006,
          -7.34857963e-007, -8.47787192e-007, -2.39449537e-006,
          -2.68668418e-006, -5.99346436e-007, 7.84178337e-006,
          9.93827489e-005, 9.31286049e-005, 1.11431626e-004,
          5.66432391e-005 ]
      - [ -1.40770480e-005, 5.65505297e-006, 2.17976067e-005,
          2.44335606e-005, 5.14173735e-005, 1.29141685e-004,
          1.14615243e-004, 1.59054762e-004, -3.62763276e-005,
          1.85529516e-005, 7.55820201e-006, -4.15246650e-005,
          9.66853349e-007, 6.28936323e-006, -1.56118335e-006,
          -2.42891883e-006, -1.47920618e-005, -4.42980127e-006,
          -1.13843907e-005, -1.99060050e-005, -1.52698067e-005,
          1.40988986e-005, 3.55805537e-006, 1.08919194e-005,
          6.67107597e-005, 1.19773940e-004, 1.38862189e-004,
          4.76430432e-005, 3.26792433e-005, 2.11863892e-007,
          2.96863107e-007, 1.09240389e-007, 9.07537469e-005,
          3.33185963e-005, 1.25164752e-005, 1.11178615e-005,
          7.67245183e-006, 1.54367058e-007, -1.46661080e-007,
          -3.46360167e-007, -1.66406298e-005, -1.83707361e-005,
          -3.81904465e-005, -9.02644824e-005, -1.46262209e-005,
          5.94576850e-005, 4.95957793e-005, 5.50055993e-005,
          -2.24820833e-005, 6.73011300e-006, 3.70454436e-005,
          4.59671319e-005, -4.88326850e-006, -8.28970678e-006,
          -7.30038028e-006, -1.88518225e-005, -1.95377961e-005,
          3.35042159e-007, 7.07728191e-007, 9.64682749e-006,
          9.14207776e-005, 8.70863951e-005, 1.02905688e-004,
          1.05571598e-004 ]
      - [ 1.89425100e-005, 5.69403092e-005, 3.92489565e-005,
          1.23428172e-005, -4.52668201e-006, 1.11640875e-005,
          -1.67811595e-005, -6.81418242e-005, -2.48959768e-005,
          9.60942562e-005, -2.69717202e-005, -5.25248197e-006,
          -6.21355866e-005, -1.51211525e-005, 8.32605201e-006,
          1.16753181e-005, -9.04261742e-006, 8.58987391e-007,
          5.58225429e-006, 6.89258450e-005, -1.79505878e-005,
          -7.74802102e-005, 3.13046917e-006, 3.64940170e-005,
          2.57865468e-005, 3.10116375e-005, 1.07290412e-004,
          3.86054307e-006, -2.68283657e-005, -8.30756835e-005,
          -1.16910805e-005, -7.96681798e-006, -8.41899382e-005,
          -5.27630691e-005, -2.61999267e-005, -2.88163719e-005,
          2.09539558e-005, 5.17045919e-005, 5.73601101e-005,
          5.09385536e-005, 8.44576243e-006, 1.65206893e-005,
          -7.12504188e-005, -3.77577599e-005, -4.99976813e-005,
          5.24191819e-005, 3.96546784e-005, -9.53644412e-005,
          8.63846162e-006, 7.38332601e-005, 3.95377392e-005,
          -6.89326916e-005, -2.91885917e-005, -6.27946647e-005,
          -9.69601388e-005, -1.21362056e-004, -8.24340241e-005,
          -1.58381627e-005, -2.23504321e-005, 1.15596646e-004,
          2.35042735e-005, -5.77577266e-005, -1.33195514e-004,
          -8.00983107e-005 ]
      - [ -7.59744653e-005, 1.29032080e-004, 4.53326102e-005,
          -7.22227924e-005, 1.33319973e-005, 3.75100608e-005,
          -1.53246132e-004, -1.94789973e-004, 3.46473621e-006,
          1.40837088e-004, 1.85789424e-004, 1.47735889e-004,
          -6.56224802e-005, 5.08911944e-005, -8.82066797e-006,
          -4.86769641e-005, -3.30269686e-005, -1.25681081e-005,
          -1.23475011e-005, 4.68833387e-005, 1.16744668e-005,
          -1.39555486e-004, 4.86657664e-005, 8.42849840e-005,
          -2.40098343e-005, 1.10538960e-004, 2.04034746e-004,
          -2.24684936e-005, -3.40738407e-005, -1.10316432e-004,
          -1.56140639e-004, -1.11240734e-004, 6.50045913e-005,
          -3.78069626e-006, 2.37299209e-005, -1.00918805e-004,
          1.11037498e-005, 4.39663654e-006, -3.71317969e-006,
          8.98953585e-005, -2.23618226e-005, 1.03763276e-004,
          7.21343386e-005, -4.55790951e-006, -5.11443286e-005,
          9.29671878e-005, 1.53706169e-005, -7.32229091e-005,
          2.12852010e-005, 1.11125199e-004, 7.94635562e-005,
          -5.06853530e-006, 8.77354159e-006, -4.74284861e-005,
          -2.98445011e-005, -9.56961012e-005, -1.18977543e-004,
          -2.02128969e-004, -8.08368641e-005, -1.36595156e-006,
          -6.93936672e-005, -1.07444648e-005, -3.01805485e-005,
          5.25432870e-006 ]
      - [ -6.29557253e-005, 1.50613023e-005, 6.79023606e-006,
          1.72015334e-005, 2.07957000e-005, 3.37021374e-005,
          1.54820918e-005, 8.31639045e-006, -5.40882320e-006,
          -1.20762361e-005, -9.82415513e-005, -3.97359436e-005,
          -4.26968763e-005, -9.77185300e-006, -4.32906600e-005,
          -6.43919848e-005, -1.33991038e-004, -8.77973362e-005,
          -3.79414159e-005, 2.91754841e-005, -2.95639052e-006,
          -9.65555664e-005, -2.14650190e-005, -2.40940863e-005,
          2.11199276e-005, 5.15644970e-005, 7.67230740e-005,
          2.53670114e-005, -1.60067236e-006, -2.86405811e-005,
          -3.36368248e-005, -7.20613170e-005, 2.66538282e-005,
          7.66151516e-006, -6.93428001e-006, -2.99001240e-005,
          -4.34918911e-005, 6.19749244e-006, 1.73338558e-005,
          5.53491664e-005, 4.20062679e-005, 3.38178506e-005,
          1.68246447e-006, -5.69660187e-006, -3.17453996e-005,
          -6.53820464e-009, 6.58436838e-005, 4.40340264e-005,
          2.09153168e-005, 8.41782239e-005, -4.49634135e-005,
          1.14996546e-005, 1.64824232e-005, -3.72207724e-005,
          -3.52104908e-005, -1.00914811e-004, -8.31490324e-005,
          -3.31100200e-005, -4.97077890e-005, 1.51888271e-005,
          5.76606362e-006, -1.70318308e-005, -5.40950168e-005,
          -3.19046849e-005 ]
      - [ 1.46790044e-005, 5.00533752e-005, 1.22281454e-005,
          -1.24327227e-004, -9.08279108e-005, -2.56475905e-005,
          -9.50527010e-006, -1.19251317e-005, 2.54891293e-005,
          3.79443991e-005, -3.41381019e-005, 1.96522615e-005,
          -7.19769523e-005, 2.94339516e-005, 2.71774388e-006,
          -3.06042375e-006, 8.48996297e-006, 1.13217857e-005,
          -6.70187637e-006, -1.10630035e-005, 2.06939385e-005,
          -1.13411570e-005, 3.56637393e-005, 3.56678138e-005,
          -8.39431668e-005, -6.01672073e-005, 6.01238789e-005,
          1.04968412e-005, -9.14550867e-007, -2.54648398e-006,
          -5.50313462e-006, -4.40829626e-006, 6.03824901e-007,
          -1.76456815e-005, -5.26751901e-005, -6.49184731e-005,
          -4.32010420e-005, -2.71167155e-005, 2.32115985e-006,
          4.07111038e-005, 6.37886114e-005, 1.66514001e-005,
          7.52618735e-006, 1.65710317e-005, -3.71421629e-005,
          3.35222758e-005, 7.58278256e-005, 4.64415753e-005,
          -1.48138124e-005, 6.28839116e-005, 9.97261523e-005,
          7.63856297e-005, 4.69694678e-005, 5.88419971e-006,
          4.11645215e-006, 6.32440424e-006, 2.37996373e-005,
          3.58843936e-005, 4.25590497e-006, 1.06908437e-005,
          1.01490550e-005, 2.63106431e-005, -4.52691529e-006,
          -5.45760668e-005 ]
      - [ 1.89263574e-005, 5.58520187e-005, 3.76929747e-005,
          2.34672298e-005, 1.89243328e-005, 2.43930645e-005,
          -4.89185477e-005, -1.05233077e-004, -1.73141871e-005,
          1.23833888e-004, -4.85499504e-006, 6.71645284e-006,
          -9.23991538e-005, -7.82006973e-005, -6.69609699e-006,
          -5.98201859e-006, -1.72815126e-005, -2.27442597e-005,
          -3.44980363e-005, -2.27711134e-005, -5.47200325e-005,
          -5.22082082e-005, 3.21279076e-005, 4.11827568e-005,
          -5.35861182e-006, 2.69610227e-005, 6.12545045e-005,
          3.60716913e-005, 1.73774715e-005, -1.22914962e-005,
          -4.00086174e-005, -2.87153725e-005, 1.34399197e-005,
          1.47243045e-005, 1.42659173e-005, 8.80335733e-007,
          -1.16989868e-005, 2.77638406e-007, -1.30114504e-005,
          4.51653832e-005, 3.91272697e-005, 2.35848875e-005,
          -9.88580541e-006, -7.88727557e-005, -2.86640989e-005,
          5.39001940e-006, -3.12963539e-006, 1.81339765e-005,
          6.75679985e-005, 1.12604946e-004, 5.98210281e-005,
          3.97709628e-005, -8.31229045e-005, -1.62480501e-004,
          -3.45067019e-005, -9.64477113e-006, 1.09267776e-005,
          -1.24840008e-005, -1.29252794e-005, 1.42418758e-005,
          2.85140577e-005, 3.23943968e-005, -8.37099069e-005,
          -5.72091849e-005 ]
      - [ -1.49832660e-004, -1.97529448e-006, -1.80392126e-005,
          3.99782366e-005, 2.26766369e-005, 4.92429426e-005,
          -6.57887140e-005, -9.75871881e-005, -1.53990986e-005,
          2.63426427e-005, -2.91486886e-005, -2.64659848e-005,
          -3.82399485e-005, -1.33938811e-005, -2.30498699e-005,
          -1.10919558e-004, -7.31969976e-006, -9.10431936e-006,
          -2.71258687e-005, -6.68321954e-005, 8.30232420e-006,
          -1.57031551e-004, -4.90616658e-005, 5.21311849e-005,
          2.51294114e-005, 1.03098064e-004, 5.37448723e-005,
          -3.67464309e-005, -8.81396918e-005, -7.65303121e-005,
          -3.87883993e-005, -2.00876748e-005, 4.81982715e-005,
          3.44319997e-005, 4.05571554e-005, 4.37944891e-006,
          -1.41360124e-005, 5.68471751e-006, -3.94257004e-005,
          2.73795849e-005, -5.91971038e-005, -8.50985380e-005,
          -4.64372315e-005, -8.49471508e-006, -3.49244401e-005,
          8.58742351e-006, -2.17301003e-005, -6.52215604e-005,
          1.20696041e-006, 3.46704073e-005, -2.61418245e-005,
          2.50131361e-005, -9.01221938e-006, -5.50221630e-005,
          -9.96896706e-005, -1.21886857e-004, 1.92492439e-006,
          -1.55535199e-005, -3.44648506e-005, 2.98163141e-005,
          5.77276805e-005, 4.91256542e-005, 1.60047148e-005,
          -2.36843407e-005 ]
      - [ 7.94605730e-005, 1.17127522e-004, 3.98651573e-005,
          3.75291274e-005, 3.15931939e-005, 8.39111744e-005,
          2.78887674e-005, -1.46139018e-005, -2.43808245e-006,
          2.88626237e-004, 4.78219918e-005, 3.82836006e-005,
          7.98694600e-005, 7.85948723e-005, 5.88973089e-005,
          2.63644179e-005, 1.17205518e-005, 4.53743341e-005,
          4.45783262e-005, 2.17564040e-004, 1.12371410e-004,
          -4.34990652e-005, -1.61118296e-004, 1.52100663e-004,
          4.00814788e-005, 9.00918531e-005, 8.35180690e-005,
          1.62902779e-005, 4.41462726e-006, 3.33799471e-006,
          -3.09620691e-006, 2.37903396e-006, 4.85874916e-005,
          6.23248852e-005, 2.75044658e-005, 1.24615804e-006,
          4.54715200e-006, 3.21644329e-005, 3.94782364e-005,
          1.86514881e-004, 1.41390716e-004, 1.26963481e-004,
          9.66196676e-005, 1.23282691e-004, -1.34615175e-005,
          1.18139265e-004, 7.33203051e-005, -1.40319360e-004,
          6.41145307e-005, 2.11555060e-004, 9.35515272e-005,
          2.07284393e-005, 1.02417653e-004, 4.27953164e-005,
          5.09638921e-005, 4.92227991e-005, 1.85214027e-004,
          2.78020798e-005, -2.36429855e-006, 7.94982316e-006,
          1.04129631e-005, 9.01103431e-006, -5.87056866e-006,
          5.35419895e-006 ]
      - [ 2.22589952e-005, 6.20503415e-005, 2.45367319e-005,
          2.53144663e-005, 2.84711805e-005, 4.70385639e-005,
          2.13618023e-005, -2.85890183e-005, -1.87059377e-005,
          1.80969379e-004, 5.71575620e-005, 2.69527318e-005,
          3.37112506e-005, 2.29433658e-006, -3.52058947e-007,
          1.17186778e-006, -1.24385761e-005, 4.69900760e-006,
          -1.58033690e-005, 7.40188261e-005, 3.13064038e-006,
          1.31430406e-005, 5.74292171e-005, 8.71431330e-005,
          -2.62550820e-005, 5.41999907e-005, 6.81799356e-005,
          2.37061613e-005, 1.78719001e-005, 1.02641843e-006,
          1.09278426e-006, 1.89480647e-006, -2.56731200e-005,
          1.51880904e-005, 1.12442340e-005, 2.30401497e-006,
          5.07940922e-006, 1.87834685e-005, 1.77406509e-005,
          9.61892511e-005, 4.68690414e-005, 5.00978422e-005,
          2.88904685e-005, -3.40788233e-006, 7.68579775e-006,
          1.56289796e-004, 1.58823445e-004, -6.42927553e-005,
          6.09801646e-005, 2.81605055e-004, 1.09967499e-004,
          1.41783121e-005, -1.24136841e-005, 4.05092379e-007,
          1.22927941e-005, 1.91424551e-005, 6.61540689e-005,
          1.62594933e-005, 2.32407089e-007, 1.56814731e-005,
          2.83071222e-005, 1.53775763e-005, 7.88346733e-006,
          7.67434722e-006 ]
      - [ -5.64197762e-005, -7.76653760e-005, -4.03929989e-005,
          -1.84551045e-005, -1.40892671e-005, -6.17123223e-005,
          -7.11238899e-005, -6.71299058e-005, -1.42959325e-005,
          6.04308480e-005, 4.58521208e-006, -8.93489141e-006,
          -6.74526891e-005, 2.39012479e-005, -1.52592165e-005,
          -3.56320452e-005, -2.73805508e-005, -1.80454754e-005,
          1.44624209e-006, -3.20296422e-005, 6.39850332e-005,
          5.40059700e-005, 6.62260718e-005, -3.51902349e-006,
          -1.33841195e-006, 3.40410807e-005, 7.48611492e-005,
          4.39717478e-005, 6.57664787e-005, 3.21855878e-005,
          -6.93826805e-005, -1.21084186e-005, 1.69822146e-004,
          9.04936242e-005, -2.64710343e-005, -5.31797305e-005,
          1.03625207e-005, -1.23367281e-005, -2.12088235e-005,
          -1.12020716e-005, 1.18651617e-004, 1.20129873e-004,
          1.38045652e-004, 6.99633392e-006, -5.12370752e-005,
          -8.60872242e-005, -9.14936493e-007, 1.31970141e-004,
          -5.26175563e-006, -2.48576689e-005, -1.54295340e-005,
          1.19053468e-004, 8.42438531e-005, 7.25241262e-005,
          4.58355498e-005, 3.32650343e-005, -6.09387389e-005,
          -4.72403626e-005, -5.19556852e-005, -1.89008551e-005,
          2.48653123e-006, 1.09718363e-004, 1.13377471e-004,
          5.45272014e-005 ]
      - [ -7.07307699e-005, -2.72872385e-005, -1.33321691e-005,
          1.42393837e-005, 4.20911383e-005, 3.41564410e-005,
          2.47411717e-005, 4.39395226e-005, -9.70654855e-006,
          -6.65619154e-005, -7.95458909e-005, -3.19210194e-005,
          -1.61965727e-005, -1.52907705e-005, -4.41588563e-005,
          -3.47877467e-005, -1.01391794e-004, -4.53069733e-005,
          -4.83233162e-005, -2.53254530e-005, 2.76092942e-005,
          -1.10526582e-006, -1.76219110e-005, -5.55314837e-005,
          2.56354951e-006, 2.68913900e-005, 6.02064174e-005,
          3.77877877e-005, 4.38910392e-005, 4.01648140e-005,
          -1.92755851e-005, -5.48128482e-005, 7.89958722e-005,
          5.92917677e-005, 3.82749058e-005, -6.57212058e-006,
          -4.20149372e-005, -2.04654607e-005, -5.57452586e-006,
          1.39627573e-005, 5.72253994e-005, 5.86454044e-005,
          4.25524522e-005, -3.37760412e-006, -4.05973624e-005,
          -5.95655933e-007, -4.57828810e-006, 7.43542478e-005,
          -2.89380205e-005, -3.34475844e-005, -1.70839812e-005,
          8.04170922e-005, 3.96756186e-005, 9.63239472e-006,
          2.98189352e-005, -5.34719584e-005, -2.39949441e-005,
          -1.79260660e-005, -2.85952356e-005, -5.54992175e-006,
          3.74490410e-005, 5.18305606e-005, 1.21455232e-005,
          1.36037061e-005 ]
      - [ -4.21024060e-006, 1.92132802e-006, -9.12400901e-006,
          -6.70951631e-005, -4.56115304e-005, -8.38164760e-006,
          -4.47298999e-006, 2.35211191e-005, 1.04044921e-005,
          -6.96522557e-006, -6.30028535e-006, 1.10128549e-005,
          -3.51898343e-005, 7.35814820e-006, 3.11489430e-006,
          -8.29159319e-007, 6.80277253e-007, 1.28139391e-006,
          1.25204622e-006, -3.26021072e-005, 4.64464756e-005,
          3.90203859e-005, 3.45702028e-006, -1.19425049e-005,
          -6.68730718e-005, -4.12855225e-005, 1.72939017e-005,
          1.20825771e-005, 2.78888510e-005, 4.58954673e-005,
          4.47919956e-006, 3.52867301e-006, 4.25555409e-005,
          4.49773552e-006, -2.02934862e-005, -1.90543560e-005,
          -1.91091458e-005, -3.21594089e-005, -8.15568001e-006,
          7.48018692e-006, 3.91230024e-005, 3.54986041e-005,
          3.22231717e-005, 1.45732174e-005, -1.89090042e-005,
          7.23435733e-006, 1.49386806e-005, 5.41284062e-005,
          -3.40332990e-005, -4.15921886e-006, 7.37392184e-005,
          7.95684609e-005, 2.82962974e-005, 4.14389688e-005,
          3.65813430e-005, 4.23695965e-005, 4.30410364e-005,
          1.98770485e-005, 9.69233588e-006, -4.28745807e-007,
          2.04840635e-005, 4.33320129e-005, 3.32557902e-005,
          -9.97297684e-006 ]
      - [ -8.46420426e-006, -5.57038311e-006, 2.63910861e-005,
          4.69150764e-005, 3.59803780e-005, 3.10210926e-005,
          -1.54511090e-005, -5.72646859e-005, 1.70275434e-005,
          1.62838421e-006, -1.74932320e-005, -2.50311477e-005,
          -6.80507728e-005, -9.04504705e-005, -1.80075749e-005,
          -1.44486603e-005, -1.25797978e-005, -1.68747010e-005,
          -2.30958231e-005, -6.91604946e-005, -2.81155062e-005,
          2.16631670e-005, 4.87777652e-005, -1.68102706e-005,
          -5.13727173e-006, 8.20914192e-006, 2.44419734e-005,
          4.40808435e-005, 9.82962301e-005, 6.72408351e-005,
          -1.90397095e-005, -1.64652520e-005, 1.05657535e-004,
          7.27754305e-005, 8.31480720e-005, 1.34707107e-005,
          2.72132183e-006, -1.04828814e-005, -1.07103624e-005,
          2.16005446e-005, 5.18911038e-005, 6.10389761e-005,
          9.15984565e-005, -1.13468441e-005, -3.94980780e-005,
          -2.34010440e-006, -1.70010408e-005, 1.21567655e-005,
          -4.98072905e-006, 3.83006263e-005, 5.77673090e-005,
          1.23938153e-004, -3.90122077e-005, -6.50810980e-005,
          6.53960815e-005, 9.71360350e-005, 5.69603289e-005,
          2.85500828e-005, 1.44203195e-005, 8.93776431e-008,
          7.61932388e-005, 8.84213296e-005, -9.35016033e-006,
          1.28405427e-005 ]
      - [ -1.19779914e-004, -5.65753799e-005, -2.01614403e-005,
          4.30205546e-005, 4.03918239e-005, 2.78712178e-005,
          -4.66982819e-005, -1.07673268e-005, -1.20762907e-005,
          -4.30008731e-005, -5.85956259e-005, -3.06175061e-005,
          -5.26129043e-006, 7.78173444e-007, -2.36423766e-005,
          -7.16013528e-005, 3.47593277e-006, -3.25487281e-006,
          -1.06124162e-006, -6.69643778e-005, 4.25844846e-005,
          -3.51175840e-005, -1.25152583e-005, 3.97307787e-007,
          6.38282756e-007, 9.15330133e-007, 2.06641180e-005,
          3.81684513e-005, 2.95708451e-005, 4.59531038e-005,
          3.45788999e-006, -6.67687573e-006, 7.85881784e-005,
          9.07350404e-005, 6.83124817e-005, 2.02295159e-005,
          -1.94933227e-006, -2.02583742e-005, -8.10988859e-005,
          -1.56775041e-005, -6.92051835e-005, 1.98347207e-005,
          4.41946468e-005, 2.42022179e-005, -3.45875060e-006,
          -3.48733629e-005, -8.30621648e-005, -4.27143959e-006,
          -3.59197802e-005, -3.28728056e-005, -3.80539204e-005,
          3.61455714e-005, 1.35782520e-005, 3.33791286e-005,
          4.82978758e-005, -1.64340679e-006, 2.86223858e-005,
          -2.00422328e-005, 9.39856454e-006, -5.74887281e-006,
          3.85597268e-005, 1.02178827e-004, 1.21223726e-004,
          3.28992683e-005 ]
      - [ 3.67300208e-006, 3.09628081e-006, 2.35264906e-005,
          2.39392757e-005, 3.63546715e-005, 3.36275843e-005,
          3.81665923e-005, 1.95827251e-005, -3.94763856e-006,
          -1.51285803e-005, 2.33086030e-005, -3.25182259e-006,
          9.22971049e-006, 1.81736705e-005, 4.56915041e-006,
          -3.52223225e-007, 3.35648315e-006, 5.34180163e-006,
          1.17595791e-005, -1.67082169e-006, 7.12859837e-005,
          4.65948506e-005, -1.88064987e-005, -2.75286020e-005,
          -7.05444154e-006, 2.61133519e-005, 3.50176088e-005,
          3.06100483e-005, 5.52137062e-005, 5.74422265e-005,
          1.14539671e-005, 3.95638654e-006, 6.93849579e-005,
          6.53638854e-005, 5.00459755e-005, 7.39466350e-006,
          3.62988567e-006, 4.21448385e-006, 1.12294283e-005,
          2.66121842e-005, 4.69695624e-005, 4.77394678e-005,
          4.33785572e-005, 2.30880869e-005, 3.11382064e-006,
          3.36307785e-005, -1.33831290e-005, 3.19728497e-005,
          -5.59923774e-006, 2.29595594e-006, 5.41674162e-005,
          7.61819465e-005, 4.31021908e-005, 4.55726222e-005,
          4.93609950e-005, 7.77724490e-005, 6.43880994e-005,
          2.92181430e-005, 1.55203852e-005, 1.76766014e-006,
          3.42452586e-005, 5.48605421e-005, 8.54237951e-005,
          4.26313927e-005 ]
      - [ -4.99046655e-006, 3.39180860e-006, 1.78338978e-005,
          2.44612129e-005, 3.67378525e-005, 2.88156607e-005,
          3.20132967e-005, 3.01557920e-005, -3.95592251e-005,
          2.83533464e-005, 3.60047488e-005, -2.90236658e-005,
          -1.12512816e-005, 5.53595612e-007, 1.17195725e-006,
          -3.02270223e-006, -7.30192232e-006, 6.92388198e-007,
          5.71607279e-006, -3.51024914e-006, 1.11279287e-005,
          6.92464018e-005, 1.06837415e-005, -1.18221724e-005,
          -1.09521488e-005, 3.00743395e-005, 4.56598282e-005,
          3.83268562e-005, 5.31958431e-005, 5.01640679e-005,
          9.62497688e-006, 4.66120628e-006, 4.33924652e-005,
          6.77479911e-005, 6.09447161e-005, 1.53634428e-005,
          6.82116979e-006, 4.27026407e-006, 7.72155636e-006,
          1.89069979e-005, 3.32530508e-005, 3.51441740e-005,
          3.65389315e-005, 1.08431304e-005, 1.39054862e-006,
          7.68806858e-005, 2.31284466e-005, 1.50640190e-005,
          -1.11168456e-005, 1.33661651e-005, 7.74231885e-005,
          5.21488801e-005, 4.47554339e-005, 4.15794384e-005,
          4.33172536e-005, 6.43170788e-005, 5.53571590e-005,
          2.59234621e-005, 1.44520200e-005, 3.13421015e-006,
          5.21926231e-005, 6.60178630e-005, 7.91712810e-005,
          6.24835011e-005 ]
      - [ -5.20644389e-005, 9.69003395e-007, 3.40153638e-005,
          3.61867205e-005, 4.33257701e-005, 7.75980370e-005,
          1.12703412e-004, 1.17299540e-004, -8.52173071e-006,
          -1.08780041e-004, -1.50329724e-004, -4.01183715e-005,
          3.81631653e-005, -3.75650234e-005, -5.77012506e-005,
          -4.37048802e-005, -1.01496196e-004, -5.87643772e-005,
          -6.13878437e-005, -2.15323435e-005, -3.85473795e-005,
          -6.67447239e-005, -6.07487164e-005, -8.22528164e-005,
          5.43682017e-006, 3.57997233e-005, 3.26724512e-005,
          3.92387738e-005, 2.47491298e-005, 2.08839410e-005,
          4.18937743e-005, -7.17115399e-005, 3.88180160e-006,
          1.17509662e-005, 6.02113359e-005, 4.49178115e-005,
          -5.33761231e-005, -1.40004477e-005, 9.09485061e-006,
          3.86545798e-005, 2.65263880e-005, -4.60636187e-007,
          -5.46356387e-006, -2.36443702e-005, 2.99504045e-005,
          -4.05613173e-005, -3.73218882e-006, 2.02343781e-005,
          -6.47073393e-005, -1.81327432e-005, -8.16583852e-005,
          -4.91542551e-006, 1.07987512e-006, -4.11561596e-005,
          -9.98477276e-007, -5.18364395e-005, -5.69947497e-006,
          -1.29385421e-006, -3.50716182e-005, 6.45356249e-006,
          7.74164073e-005, -3.85995372e-006, -4.20049546e-005,
          -6.84213446e-005 ]
      - [ 3.00074116e-005, 2.37512340e-005, 5.17328044e-006,
          -9.59530080e-005, -7.35961585e-005, -7.61200317e-006,
          3.47300484e-005, 3.79088597e-005, 4.28527019e-005,
          -7.56796953e-006, -3.56074634e-005, 1.93834803e-005,
          -1.08386375e-005, 7.39306643e-007, 1.68540140e-007,
          5.69989743e-006, 3.90396963e-005, 2.62097692e-005,
          -9.84293092e-006, -3.91347858e-005, 3.07254013e-005,
          2.30607839e-005, -1.25173719e-005, 8.47906449e-006,
          -1.13087059e-004, -1.18951815e-004, -2.53836297e-005,
          -1.66180944e-005, 1.88740651e-005, 2.57117936e-005,
          2.66516363e-005, 1.95868870e-005, 4.49353502e-006,
          -2.78650350e-005, -3.36621488e-005, 1.63870445e-005,
          -4.25652179e-005, -4.28470921e-005, -1.83607008e-005,
          8.51173081e-006, 3.13367855e-005, -9.31925661e-006,
          -7.08541074e-006, -2.05165670e-005, -1.86234447e-005,
          3.02076569e-006, 4.43122080e-005, 3.60797167e-005,
          -1.10884444e-004, 1.13810147e-005, 5.54837497e-005,
          5.85476737e-005, 2.88473784e-005, 2.28661193e-005,
          2.39602177e-005, 4.24925420e-005, 7.73482752e-005,
          5.60819281e-005, 2.76426490e-005, 1.12967355e-005,
          6.66311025e-005, 5.40744040e-005, 1.97017926e-005,
          -5.65331684e-005 ]
      - [ 7.09944434e-005, 5.27197517e-005, 5.77251267e-005,
          7.32701665e-005, 4.91469909e-005, 5.33992461e-005,
          4.60164520e-005, -7.95831656e-005, 3.03770375e-005,
          2.16416847e-005, -4.19057105e-005, 2.29382240e-005,
          -3.85103303e-005, -1.07215958e-004, -2.06447312e-005,
          2.94103356e-005, 3.17471131e-006, 2.19723188e-006,
          -5.75182967e-005, -7.44569406e-005, -5.34092542e-005,
          -3.33210410e-005, -1.13344395e-005, -1.36821620e-006,
          -3.95691786e-005, -2.75864913e-005, -4.28783787e-005,
          4.43083118e-005, 4.90899874e-005, 2.91408978e-005,
          5.14414533e-005, -5.31023034e-006, -3.04159221e-006,
          1.74106299e-005, 8.75789992e-005, 1.04957180e-004,
          -6.65100697e-006, 7.08923517e-006, -2.33954438e-006,
          3.84687010e-005, 1.41873079e-005, -1.65238089e-005,
          -1.41269438e-005, -9.18065634e-005, 9.28151167e-006,
          -2.00612772e-006, -6.58516437e-005, -3.01347791e-005,
          8.74741204e-007, 2.39706042e-005, 6.83287581e-005,
          2.30079786e-006, -1.90285762e-004, -1.75550464e-004,
          -1.21235898e-005, 1.72246891e-005, 1.07113934e-004,
          6.64970794e-005, 3.20836843e-005, -1.44773551e-007,
          1.05622035e-004, 8.08313125e-005, -1.04394065e-004,
          -6.79059376e-005 ]
      - [ -1.41113487e-004, -3.55970733e-005, -3.75102900e-005,
          4.62803982e-005, 1.65942693e-005, 4.78858346e-005,
          -2.94595588e-006, -4.24735663e-006, 1.98505859e-005,
          -6.73779869e-005, -1.49353626e-004, -8.01140777e-005,
          -2.82050314e-005, -5.37912456e-005, -2.83347545e-005,
          -7.76433299e-005, 7.65039749e-006, -2.41616726e-006,
          -2.98984487e-005, -8.11408827e-005, 3.48133181e-005,
          -1.18432377e-004, -5.70629600e-005, -1.01904707e-005,
          1.79532071e-005, 3.32917864e-007, -2.67855321e-005,
          -1.81062860e-005, -4.98483496e-005, -7.05691491e-006,
          8.99945226e-005, 2.32907732e-005, -1.92635907e-005,
          3.30972834e-005, 6.33998570e-005, 4.77588001e-005,
          -1.78404716e-005, 1.90297851e-005, -5.84445770e-005,
          -3.90782952e-005, -8.61665394e-005, -9.18382211e-005,
          -7.75767476e-005, -2.92653713e-005, -1.32592395e-005,
          2.79847518e-005, -7.88971811e-005, -7.34132482e-005,
          -2.41405141e-005, -2.94008314e-005, -8.93528268e-005,
          -6.10627558e-006, -9.94940251e-007, -2.03364234e-005,
          -6.92760368e-005, -1.54064601e-005, 1.33079448e-004,
          7.14671623e-005, -9.18092883e-006, -1.08618497e-005,
          5.89541160e-005, 4.12472764e-005, 2.78159569e-005,
          -1.59625852e-005 ]
      - [ 1.07227293e-004, 6.42943414e-005, 3.62766878e-005,
          8.26658143e-005, 3.93575283e-005, 5.81075765e-005,
          1.35197231e-004, 4.00946919e-005, 4.78822813e-006,
          -9.37632649e-005, 4.66355505e-006, 2.46053969e-005,
          1.51517845e-004, 6.86975045e-006, 1.93458727e-005,
          3.53388277e-005, 2.73467667e-005, 4.11309084e-005,
          4.26902916e-005, -9.37713867e-006, 2.37498643e-005,
          2.21374085e-005, -9.04639601e-005, -2.97907736e-005,
          2.80669356e-005, 5.97594517e-005, 4.74211665e-005,
          5.03379306e-005, 3.91135181e-005, 4.01972757e-005,
          7.33832712e-005, 5.10705504e-005, 2.09179634e-005,
          3.87659638e-005, 5.38107124e-005, 9.49070090e-005,
          1.03965122e-005, 2.89349646e-005, 4.97037581e-005,
          8.70928998e-005, 1.23060192e-004, 9.34056970e-006,
          7.64657614e-007, 1.18794133e-005, 1.06955777e-004,
          3.37008205e-005, 1.28112697e-005, -2.33963351e-006,
          2.95175814e-005, 5.36300686e-005, 1.55652469e-005,
          -3.91793001e-005, -3.25082001e-005, 1.56744318e-005,
          2.03110449e-005, 4.78145957e-005, 1.43149213e-004,
          1.37681578e-004, 5.06985052e-005, 3.23027234e-005,
          1.32520625e-004, 7.50406543e-005, 2.60338820e-005,
          -4.14579699e-005 ]
      - [ 8.54218160e-005, 6.88626315e-005, 3.73944677e-005,
          8.25319876e-005, 2.64044374e-005, 5.04612981e-005,
          1.33652386e-004, 8.50657598e-005, -4.99901143e-005,
          2.68823751e-005, 4.30330692e-005, 7.56139707e-006,
          1.13508679e-004, -2.94010351e-005, -3.92744232e-006,
          2.23661355e-005, 4.29696274e-006, 1.56155202e-005,
          1.14130717e-005, -5.84610243e-005, -9.74408340e-006,
          5.94812918e-005, -1.87834121e-005, -5.40495566e-005,
          -3.13333876e-005, 4.91252431e-005, 4.33421701e-005,
          4.51104752e-005, 2.91595406e-005, 3.20060099e-005,
          6.98974764e-005, 4.90507482e-005, 2.77030563e-006,
          5.34150859e-005, 5.48995667e-005, 9.35672942e-005,
          1.37035013e-005, 2.13152889e-005, 3.74602023e-005,
          5.19762725e-005, 6.72196329e-005, -6.37218727e-006,
          -1.87936021e-005, -3.94268573e-005, 6.18036502e-005,
          8.77042039e-005, 9.38021549e-005, 1.36436447e-005,
          -4.74216686e-005, 1.07251406e-004, 7.00200399e-005,
          -7.62923228e-005, -9.52814808e-005, 8.79799791e-006,
          1.39532276e-005, 2.77292584e-005, 9.19740924e-005,
          1.12719114e-004, 3.05166996e-005, 1.66312366e-005,
          1.41442433e-004, 1.04715982e-004, 5.61415400e-005,
          -4.37791687e-006 ]
      - [ 2.79048745e-005, 1.21718149e-005, -1.00450752e-005,
          -7.69802791e-005, -5.19356909e-005, -3.76841672e-005,
          -1.96948549e-005, -7.48421144e-006, 2.73768055e-005,
          3.19123028e-005, 2.68133208e-005, 1.38244541e-005,
          -2.65273757e-005, 6.28559383e-006, 2.55286959e-005,
          2.40662248e-005, 5.07820478e-005, 3.39825601e-005,
          1.41950059e-005, -1.96985693e-005, 2.34032268e-005,
          3.85374988e-005, 2.18359546e-005, 3.17330232e-005,
          -6.38042111e-005, -7.13200716e-005, -1.81618889e-005,
          -1.42529489e-005, -6.20775336e-006, 1.25967954e-005,
          1.05102445e-005, 2.90743174e-005, -7.48268849e-006,
          -1.13570413e-005, -3.16263904e-005, -2.50315406e-005,
          -8.80476080e-007, -1.68822589e-005, -4.75982370e-006,
          1.55307112e-006, -3.96625722e-007, 1.02301283e-006,
          1.98384100e-006, 1.37731640e-005, -1.75462446e-005,
          2.25005133e-005, 2.12929717e-005, 9.68611585e-006,
          -3.88387380e-005, 1.06212947e-005, 7.01459503e-005,
          4.77717222e-005, 1.77751117e-005, 2.54634251e-005,
          2.00244212e-005, 6.02946457e-005, 5.59680338e-005,
          2.72269408e-005, 2.38351367e-005, 4.38819643e-006,
          7.11063058e-006, 1.72101700e-005, 2.31396862e-005,
          -1.80673414e-005 ]
      - [ 7.26817234e-005, 3.00219017e-005, 1.59500141e-005,
          2.26508164e-005, -1.78615448e-006, -8.99479073e-006,
          -4.65762714e-005, -8.86075941e-005, -4.42569262e-006,
          6.45867622e-005, 9.01029925e-005, 4.04353741e-005,
          -3.86950487e-005, -4.94218402e-005, 3.77455908e-005,
          1.55139151e-005, 8.37837651e-005, 4.18836680e-005,
          2.25969980e-005, -3.48402068e-006, -4.63202996e-005,
          3.24334833e-005, 2.92035038e-005, 8.65016991e-005,
          4.83348595e-006, -4.23946840e-005, -4.12107620e-005,
          -1.07701112e-006, 1.73886110e-005, 2.23153565e-005,
          -2.67064888e-006, 5.25679643e-005, 4.07462858e-006,
          6.35130618e-006, 2.41793205e-005, 2.18797340e-005,
          3.34007964e-005, 2.27255623e-005, -1.42482631e-005,
          -7.87807767e-006, -9.01524800e-006, -3.34429615e-006,
          -1.09958537e-005, -9.33280626e-006, -1.29686327e-006,
          1.60471409e-005, -2.25966378e-005, -3.50795308e-005,
          4.64403929e-005, 3.58020043e-005, 8.70777585e-005,
          2.31384547e-005, -7.46491860e-005, -9.21084356e-005,
          1.45789363e-005, 1.09428358e-004, 7.99765403e-005,
          3.04117766e-005, 3.89618726e-005, 8.11064001e-006,
          2.15377404e-005, 1.79567451e-005, -7.63330900e-006,
          1.28644360e-005 ]
      - [ -6.84727274e-005, -1.66269201e-005, -2.51142083e-005,
          9.17296347e-006, -8.81592041e-006, -1.24269673e-005,
          -6.53196912e-005, -8.56079350e-005, 3.94020281e-005,
          5.47278432e-005, 2.37159202e-005, 3.85541989e-006,
          9.62625199e-006, 1.10355522e-005, 2.65858034e-005,
          -2.87181447e-005, 9.81946941e-005, 5.50898185e-005,
          2.11494989e-005, -4.60689116e-005, 3.60856466e-005,
          -4.47548955e-005, 5.58512238e-006, 7.64648648e-005,
          2.00910708e-005, -2.91307406e-005, -3.82429207e-005,
          -4.70468040e-005, -5.32854065e-005, -9.33553474e-006,
          7.72080966e-006, 5.54803046e-005, -6.12020722e-006,
          2.56189160e-005, 3.42651365e-005, 2.59046901e-005,
          2.74453159e-005, -5.40035126e-006, -4.73130021e-005,
          -4.44539583e-005, -9.36259676e-005, -8.12023791e-005,
          -4.96072971e-005, 1.86079869e-005, 4.02399528e-005,
          1.95955295e-006, -6.55861149e-005, -5.25061259e-005,
          -1.86383977e-006, -5.27658340e-005, -3.39672806e-006,
          -3.82446160e-005, -1.46267921e-005, 1.92324005e-005,
          -1.94207169e-005, 6.24271561e-005, 4.60189294e-005,
          -9.80222694e-007, 1.78364207e-005, -7.97339817e-006,
          2.29111502e-005, 5.07782825e-005, 7.58062670e-005,
          5.30331563e-005 ]
      - [ 5.41289446e-005, 2.48070191e-005, 1.96103247e-005,
          7.50284607e-006, 2.08440838e-006, 1.02471219e-007,
          -2.70265718e-006, -1.19907072e-005, 4.36257369e-006,
          6.57698838e-005, 9.36141951e-005, 3.34979377e-005,
          3.89908273e-005, 1.96536948e-005, 4.33739915e-005,
          6.53772076e-005, 1.00855912e-004, 8.14699742e-005,
          3.94362287e-005, 1.48330173e-005, 2.64416540e-005,
          7.16643626e-005, 1.43583748e-005, 1.84721212e-005,
          3.53119276e-006, -1.27609349e-006, 1.54513964e-006,
          7.03800242e-006, 1.00391471e-005, 2.11097067e-005,
          2.31352824e-005, 4.68597427e-005, 2.72905322e-006,
          2.10176840e-005, 2.44196872e-005, 2.81643806e-005,
          3.83459264e-005, 1.34542361e-005, 6.43857857e-006,
          4.64931736e-006, 4.74978924e-006, 4.14390979e-006,
          6.72941042e-006, 2.11301140e-005, 3.05331523e-005,
          5.23720228e-005, -3.61703424e-005, -3.58899779e-005,
          -1.83741849e-005, -2.42033602e-005, 9.11486641e-005,
          -6.76671789e-006, 2.63321340e-006, 3.31569972e-005,
          3.33886564e-005, 6.14073069e-005, 1.01882273e-004,
          3.98338489e-005, 3.86163410e-005, 8.87909300e-006,
          1.69982995e-005, 3.89112829e-005, 2.84573653e-005,
          2.79419673e-005 ]
      - [ 3.41307459e-005, 2.26480734e-005, 2.01981366e-005,
          9.78451135e-006, 3.75612944e-006, 3.59065382e-007,
          2.90139610e-007, -3.67573534e-006, -1.24310918e-005,
          9.13298354e-005, 1.06593907e-004, -2.07491280e-006,
          -1.20101877e-005, 7.60240391e-006, 2.91028664e-005,
          4.57044371e-005, 7.10664826e-005, 5.71015771e-005,
          2.98637897e-005, -7.84672011e-006, -1.31314564e-005,
          7.75345979e-005, 4.43389545e-005, 1.92594616e-005,
          -1.62091455e-005, 1.10087080e-006, 2.65153994e-006,
          8.71281281e-006, 1.22543652e-005, 2.19060003e-005,
          2.05512788e-005, 4.39560354e-005, -1.80048319e-005,
          2.32789389e-005, 2.23757415e-005, 2.38432640e-005,
          3.53701689e-005, 1.40861666e-005, 6.45076807e-006,
          3.31738420e-006, -3.58602483e-006, -1.41157216e-006,
          2.24610289e-006, 1.51220329e-005, 2.49870682e-005,
          5.66619601e-005, 2.07522753e-005, -1.83879401e-005,
          -3.19897117e-006, 2.50427693e-005, 1.07249063e-004,
          3.97090525e-006, -1.72135078e-005, 2.75763177e-005,
          2.45276224e-005, 5.83941437e-005, 7.95178639e-005,
          3.77321194e-005, 3.48719368e-005, 9.06558489e-006,
          1.80926709e-005, 3.30499752e-005, 3.83989318e-005,
          2.50553421e-005 ]
      - [ 4.29463944e-006, -3.88658782e-006, 1.88189460e-005,
          1.15832481e-004, 5.92113174e-005, 3.41987761e-005,
          -8.76657850e-006, -4.70160703e-005, -3.09323659e-005,
          3.36487610e-005, 1.06020534e-005, -2.80556878e-006,
          1.65812289e-005, -4.19727367e-005, -1.52829325e-005,
          -8.11789960e-007, -1.29537457e-005, -1.48558138e-005,
          -5.65535493e-006, -3.68653173e-006, -4.98774243e-005,
          -3.04249224e-005, 6.18860759e-006, 9.31478644e-006,
          5.61402667e-005, 6.65808184e-005, 9.14528573e-006,
          1.70698804e-005, 1.40791390e-005, -5.35912613e-006,
          -1.39368385e-005, -1.33114818e-005, -3.63270169e-006,
          2.95252339e-005, 5.28580822e-005, 3.70897360e-005,
          2.58740001e-005, 2.07701432e-005, 5.17452918e-006,
          -7.43869077e-006, -4.96245411e-006, -9.88608917e-007,
          -7.13858162e-006, -2.65778635e-005, 1.66106547e-005,
          -9.21576702e-006, -6.29580099e-005, -2.56510484e-005,
          7.12473993e-005, -1.72607395e-006, -3.07824630e-005,
          -4.15166505e-005, -8.39189524e-005, -8.94598779e-005,
          -2.31953873e-005, -6.34097614e-006, -1.07355545e-005,
          -1.87135684e-005, -7.83512496e-006, -2.85072974e-006,
          1.83671852e-006, -1.00214129e-006, -4.01521793e-005,
          2.46965392e-005 ]
      - [ -5.53582322e-005, -1.81668165e-005, -5.83643532e-006,
          6.80732119e-005, 4.22956946e-005, 1.78590071e-005,
          -1.02470840e-005, -2.39394558e-005, -4.55999680e-006,
          4.73926235e-007, -1.11041027e-005, -1.31370225e-005,
          3.08360759e-005, -5.41040845e-006, -7.41754047e-006,
          -3.36034136e-005, -1.31810214e-006, -1.68738416e-006,
          -5.71913779e-006, -5.70315751e-006, -1.26293990e-005,
          -4.32357338e-005, -1.70478688e-005, 3.50886148e-006,
          4.88884252e-005, 4.51708693e-005, -4.00441832e-006,
          -9.41691815e-006, -2.02339015e-005, -1.89851835e-005,
          -9.92650439e-006, -2.76813603e-006, 8.59166721e-006,
          2.24569812e-005, 3.96483083e-005, 2.89847339e-005,
          1.55408543e-005, 9.63013372e-006, -1.78156333e-005,
          -2.19962876e-005, -3.83130791e-005, -4.36180235e-005,
          -1.82413569e-005, -1.15468265e-006, 2.48877659e-005,
          -2.29515681e-005, -4.38439092e-005, -3.96108262e-005,
          3.00324409e-005, -4.04486163e-005, -7.61691408e-005,
          -4.60392803e-005, -2.09786704e-005, -1.51415197e-005,
          -2.84741527e-005, -3.49069305e-005, -2.14089960e-005,
          -2.72947618e-005, -1.48111822e-005, -4.59075181e-006,
          1.93094547e-006, 2.85670603e-006, 6.71167209e-006,
          3.56999917e-005 ]
      - [ 7.12295787e-006, 4.86053477e-006, 7.46376418e-006,
          1.33709909e-004, 1.06352389e-004, 3.39083999e-005,
          1.88692520e-005, -9.24193955e-006, -2.20589063e-005,
          8.33752154e-007, 2.95844929e-005, -1.66000373e-005,
          6.84731785e-005, 5.54049984e-006, 2.11827933e-006,
          6.98487884e-006, -3.92715748e-007, 5.53942982e-006,
          1.89601269e-005, 3.04639980e-005, -5.60666012e-006,
          4.46218246e-006, -3.62048595e-005, -4.33692294e-005,
          6.71450034e-005, 9.17968064e-005, 2.73906044e-005,
          1.85062181e-005, 2.36352917e-005, 2.80939594e-006,
          3.65018900e-006, 5.00997203e-006, 1.77463335e-005,
          2.93501216e-005, 5.87127033e-005, 3.83430452e-005,
          4.51907654e-005, 4.29639695e-005, 8.34216280e-006,
          1.69419764e-007, 1.74298305e-006, 4.36917162e-006,
          1.73324702e-006, 6.52259268e-006, 6.88457221e-005,
          2.30382648e-005, -4.43669196e-005, -3.07374612e-005,
          6.39375212e-005, -1.93933356e-005, -1.22586007e-005,
          -5.01591931e-005, -1.91471645e-005, -3.43585157e-006,
          -2.46335645e-007, -3.04262215e-007, -1.35452566e-007,
          1.13221324e-006, 1.35142017e-007, 4.30867345e-007,
          2.69677139e-006, 2.57840543e-006, 7.45462421e-006,
          2.17092238e-005 ]
      - [ -1.24316514e-007, 5.54134795e-006, 2.19342837e-005,
          1.26246581e-004, 1.12781388e-004, 4.73416258e-005,
          2.22496110e-005, 1.76584417e-005, -4.60718366e-005,
          1.54388563e-005, 3.90361529e-005, 1.49967639e-006,
          5.73216894e-005, 5.23292783e-006, -3.45422336e-006,
          -1.34386994e-006, -7.13578629e-006, 3.32122750e-006,
          2.44370131e-005, 3.16105725e-005, -3.84023078e-005,
          1.17505397e-005, 9.41539474e-006, -2.89949203e-005,
          4.20050383e-005, 1.02125996e-004, 3.38798236e-005,
          2.18250516e-005, 2.68525473e-005, 5.19916011e-006,
          6.14430974e-006, 4.96590337e-006, 5.13117766e-006,
          2.77462877e-005, 6.29370261e-005, 5.26757321e-005,
          5.30961988e-005, 4.39068936e-005, 3.92734592e-006,
          6.90556931e-007, -2.48753531e-006, -2.27922078e-006,
          -6.69944393e-006, -1.36992376e-005, 5.62577843e-005,
          4.20209508e-005, -8.89839521e-006, -3.51926319e-005,
          6.25302782e-005, 1.50321212e-005, -6.28339785e-006,
          -6.54164978e-005, -3.78141085e-005, -3.08326298e-006,
          -1.57983061e-006, -5.54036887e-006, -6.76871150e-006,
          1.54526856e-006, 1.01906960e-006, 2.05628680e-006,
          9.23109565e-006, 8.49206117e-006, 1.30710605e-005,
          3.97657095e-005 ]
      - [ -1.38040559e-004, -3.49094007e-005, -4.49794861e-005,
          2.51494498e-006, 1.16295553e-006, 2.43516547e-006,
          -2.47498465e-005, 2.66308689e-005, -1.55835187e-006,
          -4.57916503e-005, -3.74344163e-005, 2.76716742e-006,
          5.39506145e-005, 5.22216542e-005, -3.94614608e-006,
          -6.05953173e-005, 4.84611792e-006, 9.47895728e-007,
          1.05270938e-005, 5.16729142e-006, 2.94007368e-005,
          -8.75880505e-005, -1.87658552e-005, 5.14135354e-006,
          6.97618634e-006, 5.06084370e-006, -2.09590635e-005,
          -3.17011327e-005, -4.16713810e-005, -3.59713849e-005,
          -5.14454086e-006, 5.97658664e-006, -2.99332442e-007,
          1.58100447e-005, 4.55466670e-006, 1.07900939e-006,
          3.84942814e-006, -9.50631511e-006, -4.69848019e-005,
          -4.18981508e-005, -8.70712247e-005, -4.80754534e-005,
          -4.68771359e-005, 5.19130408e-005, 2.65723029e-005,
          -1.20199666e-005, -3.98758530e-005, 1.17896243e-005,
          -1.92528332e-005, -6.08601913e-005, -1.12888614e-004,
          -3.03162578e-005, 8.36421168e-005, 6.51946539e-005,
          -3.58685902e-005, -4.60799711e-005, -1.06130365e-005,
          -3.41373598e-005, -1.17318314e-005, -8.25890675e-006,
          -2.13394401e-006, 6.99870225e-006, 7.73502106e-005,
          1.18469789e-005 ]
      - [ 1.04652654e-005, 1.28747006e-005, 9.17155739e-006,
          1.21415778e-005, 1.12022371e-005, 1.63847271e-005,
          8.26969190e-005, 7.87213139e-005, 4.60188176e-006,
          -7.05566345e-005, 5.42437301e-005, 5.05173994e-005,
          1.27399398e-004, 1.12744783e-004, 2.29481211e-005,
          1.03047423e-005, 1.12882826e-005, 1.97039808e-005,
          6.52230519e-005, 7.99651098e-005, 7.72868734e-005,
          3.51445779e-005, -5.74962469e-005, -3.50957016e-005,
          2.10124563e-005, 3.36216835e-005, 1.76080684e-005,
          2.31827426e-006, 1.36074323e-005, 1.70717340e-005,
          2.71462068e-005, 2.39799338e-005, 1.23248146e-005,
          2.55971609e-005, 1.33026906e-005, 2.78400898e-006,
          3.21611951e-005, 1.74906363e-005, 2.61355290e-005,
          9.91944216e-006, 9.99034273e-006, 2.23564293e-005,
          3.56393612e-005, 1.05233732e-004, 4.26459192e-005,
          4.19072312e-005, 5.15857100e-005, -1.54253012e-005,
          -1.79891831e-005, -4.99457783e-005, 6.65908692e-006,
          7.71674695e-006, 1.03067963e-004, 1.43251702e-004,
          3.96940413e-005, 2.54780261e-005, 1.61253265e-005,
          2.93469111e-005, 1.62217748e-005, 1.18548032e-005,
          3.47325067e-006, 5.65581740e-006, 8.08769546e-005,
          5.82037792e-005 ]
      - [ -8.08809818e-006, 1.46082421e-005, 6.04633397e-006,
          1.40439424e-005, 2.24880023e-005, 3.03589659e-005,
          1.07126070e-004, 1.66754617e-004, -9.31220056e-005,
          -5.71576174e-006, 6.59165962e-005, 2.55817631e-005,
          5.54828948e-005, 1.09123015e-004, 7.71369469e-006,
          2.07097164e-005, -7.50731897e-006, 7.14142971e-006,
          7.53581335e-005, 1.33641570e-005, 1.90112332e-005,
          1.11001718e-004, 1.19975302e-005, -6.05301975e-005,
          2.77200488e-005, 5.73291909e-005, 3.23507084e-005,
          9.04055287e-006, 1.95695266e-005, 3.40701918e-005,
          3.63024337e-005, 3.74718911e-005, 8.27682072e-007,
          4.21641016e-005, 1.35163373e-005, 2.07312155e-006,
          2.87610692e-005, 2.10576509e-005, 1.86070865e-005,
          2.66522748e-005, 2.37742847e-006, 2.12086234e-005,
          4.13240923e-005, -1.07801961e-005, 1.58621406e-005,
          1.25912513e-004, 1.21253186e-004, -3.25494148e-006,
          -4.78345719e-005, -1.11388717e-005, 6.59495854e-005,
          2.52495338e-005, 3.85507446e-005, 1.60325129e-004,
          4.07772459e-005, 4.10110442e-005, 1.78899681e-005,
          3.75787895e-005, 2.55888735e-005, 1.92068146e-005,
          2.14053471e-005, 2.49657514e-005, 1.17296724e-004,
          1.26763611e-004 ]
      - [ 1.28422413e-004, 3.56532073e-005, 4.00435856e-005,
          6.87536703e-006, 1.21863141e-005, 6.14261262e-006,
          3.93975824e-005, 2.68778931e-005, 5.71816599e-006,
          -9.44372914e-006, 4.85796409e-005, 2.86269587e-005,
          3.59037840e-005, 1.83239117e-005, 1.41385553e-005,
          4.12988302e-005, 3.40405268e-006, 1.27361491e-005,
          2.38282155e-005, 4.49340223e-005, 3.24603097e-005,
          7.89229234e-005, -1.94424247e-005, -4.74228218e-005,
          -2.67731639e-006, 1.80623356e-005, 3.74445808e-005,
          3.58901816e-005, 4.69500919e-005, 3.72906579e-005,
          1.82230615e-005, 8.13954011e-006, 3.36020275e-006,
          -6.28203978e-008, 8.40901805e-007, 3.08322160e-006,
          1.15126859e-005, 1.89071125e-005, 3.98004340e-005,
          4.28973835e-005, 5.69503391e-005, 6.38726488e-005,
          3.85540989e-005, 2.40946993e-005, 3.36068842e-005,
          2.19033282e-005, 2.54477345e-005, -7.99822556e-006,
          1.70976109e-005, 4.23547499e-005, 8.91749951e-005,
          2.93220874e-005, 1.48636227e-005, 2.12389696e-005,
          5.37956803e-005, 4.27744890e-005, 2.53320031e-005,
          4.78147231e-005, 2.43212653e-005, 1.00209591e-005,
          -1.43539660e-006, -2.57978741e-006, -4.47081220e-006,
          -5.39744906e-006 ]
      - [ 9.16050703e-005, 3.39191683e-005, 3.70019479e-005,
          8.62841443e-006, 1.25622155e-005, 7.34713012e-006,
          3.68642068e-005, 4.41784541e-005, 2.19607136e-006,
          3.51257077e-005, 5.75600316e-005, -1.70252713e-006,
          8.26500855e-006, 7.36731454e-006, 5.49025390e-006,
          2.78823245e-005, -2.68877120e-005, -2.68645088e-008,
          5.01610748e-006, 2.57501615e-005, 1.09923521e-005,
          8.41034635e-005, 1.89073235e-005, -1.31856723e-005,
          -3.37350466e-005, 1.74617489e-005, 3.73098519e-005,
          3.45268963e-005, 4.51775049e-005, 3.47224268e-005,
          1.58990097e-005, 7.48822686e-006, -1.57387167e-005,
          7.07264633e-007, 8.97053326e-007, 1.28313422e-006,
          1.02168042e-005, 1.55962098e-005, 3.77313881e-005,
          3.65627166e-005, 4.55556947e-005, 4.32262786e-005,
          4.03784543e-006, 6.93917718e-006, 1.96992696e-005,
          4.59536423e-005, 8.25484531e-005, 5.35793697e-006,
          1.31790575e-005, 7.27524530e-005, 1.01664562e-004,
          1.97522127e-006, -8.26835458e-006, 1.17115287e-005,
          4.30124273e-005, 3.76115531e-005, 2.20308757e-005,
          4.53639950e-005, 1.98930811e-005, 8.08511231e-006,
          3.31943443e-006, 0., 1.08139534e-006, 9.00298892e-006 ]
      - [ -6.96520583e-005, 2.74502031e-006, 0., 8.35100400e-006,
          1.22265974e-005, 5.47047239e-006, 3.03348243e-005,
          6.71904636e-005, -6.70413065e-005, 3.54738848e-004,
          7.43998316e-005, 1.17937352e-005, -1.72189568e-004,
          -9.46518994e-005, -8.13967126e-005, -2.12628256e-005,
          -5.52110469e-005, -6.21042855e-005, -9.80567202e-005,
          9.04497119e-006, -1.60899654e-004, 9.91025372e-005,
          4.23329824e-004, -1.11670393e-004, -7.95828528e-005,
          3.80362435e-005, 2.46145828e-005, 2.46433810e-005,
          2.46497329e-005, 1.95058401e-005, 1.96693290e-005,
          4.95981658e-006, 1.13472033e-005, 2.71884473e-005,
          4.94934329e-006, 1.01777505e-005, 1.97397912e-005,
          3.75804188e-006, 9.83967129e-006, 1.27876740e-006,
          -9.03271357e-005, -8.18840126e-005, -5.62384957e-005,
          -8.70663716e-005, -9.43162522e-005, 2.16069835e-004,
          2.72371748e-004, -4.96899202e-006, -7.88507532e-005,
          2.14315703e-004, 2.68624455e-004, -5.02118637e-005,
          -1.96281107e-004, 1.05742829e-005, 1.12556472e-005,
          1.28633292e-005, -1.16234914e-005, 1.06675016e-005,
          1.12570415e-005, 8.97820792e-006, 3.94436065e-005,
          1.32191390e-005, 4.14606584e-005, 2.04846059e-004 ]
   decision_functions:
      -
         sv_count: 1
         rho: 4.0674731735418396e-001
         alpha: [ 1. ]
         index: [ 0 ]
      -
         sv_count: 1
         rho: 1.0522738280757615e+000
         alpha: [ 1. ]
         index: [ 1 ]
      -
         sv_count: 1
         rho: 1.7326272483431083e-003
         alpha: [ 1. ]
         index: [ 2 ]
      -
         sv_count: 1
         rho: 1.4433245625270466e+000
         alpha: [ 1. ]
         index: [ 3 ]
      -
         sv_count: 1
         rho: -6.0929616254321167e-002
         alpha: [ 1. ]
         index: [ 4 ]
      -
         sv_count: 1
         rho: 2.2831209550481205e-001
         alpha: [ 1. ]
         index: [ 5 ]
      -
         sv_count: 1
         rho: 3.8951811850592943e-001
         alpha: [ 1. ]
         index: [ 6 ]
      -
         sv_count: 1
         rho: -1.0520943399816620e+000
         alpha: [ 1. ]
         index: [ 7 ]
      -
         sv_count: 1
         rho: 1.3391582921773317e+000
         alpha: [ 1. ]
         index: [ 8 ]
      -
         sv_count: 1
         rho: 1.2651686809685334e+000
         alpha: [ 1. ]
         index: [ 9 ]
      -
         sv_count: 1
         rho: -1.6710314478994143e-001
         alpha: [ 1. ]
         index: [ 10 ]
      -
         sv_count: 1
         rho: -6.1658643782317513e-001
         alpha: [ 1. ]
         index: [ 11 ]
      -
         sv_count: 1
         rho: 6.3227276835781387e-001
         alpha: [ 1. ]
         index: [ 12 ]
      -
         sv_count: 1
         rho: -4.7534482920522186e-001
         alpha: [ 1. ]
         index: [ 13 ]
      -
         sv_count: 1
         rho: -4.9533118188168801e-001
         alpha: [ 1. ]
         index: [ 14 ]
      -
         sv_count: 1
         rho: -5.2089244945818659e-002
         alpha: [ 1. ]
         index: [ 15 ]
      -
         sv_count: 1
         rho: -6.5983517343593312e-001
         alpha: [ 1. ]
         index: [ 16 ]
      -
         sv_count: 1
         rho: 1.0208960021491027e+000
         alpha: [ 1. ]
         index: [ 17 ]
      -
         sv_count: 1
         rho: 1.2239568979307931e+000
         alpha: [ 1. ]
         index: [ 18 ]
      -
         sv_count: 1
         rho: -7.5148282247516651e-001
         alpha: [ 1. ]
         index: [ 19 ]
      -
         sv_count: 1
         rho: 6.5203907520373539e-001
         alpha: [ 1. ]
         index: [ 20 ]
      -
         sv_count: 1
         rho: -9.9672775634292476e-001
         alpha: [ 1. ]
         index: [ 21 ]
      -
         sv_count: 1
         rho: -1.9523177789646873e-001
         alpha: [ 1. ]
         index: [ 22 ]
      -
         sv_count: 1
         rho: -2.0382816401434903e-001
         alpha: [ 1. ]
         index: [ 23 ]
      -
         sv_count: 1
         rho: -1.4154484546693751e+000
         alpha: [ 1. ]
         index: [ 24 ]
      -
         sv_count: 1
         rho: 2.7632534355687035e+000
         alpha: [ 1. ]
         index: [ 25 ]
      -
         sv_count: 1
         rho: 2.0761298611064203e+000
         alpha: [ 1. ]
         index: [ 26 ]
      -
         sv_count: 1
         rho: 1.2127645511526111e+000
         alpha: [ 1. ]
         index: [ 27 ]
      -
         sv_count: 1
         rho: -1.6927862137401742e-001
         alpha: [ 1. ]
         index: [ 28 ]
      -
         sv_count: 1
         rho: 3.0221361874147823e-001
         alpha: [ 1. ]
         index: [ 29 ]
      -
         sv_count: 1
         rho: 7.7679151107692668e-001
         alpha: [ 1. ]
         index: [ 30 ]
      -
         sv_count: 1
         rho: -2.9962645197248988e-001
         alpha: [ 1. ]
         index: [ 31 ]
      -
         sv_count: 1
         rho: 1.4583174840839439e+000
         alpha: [ 1. ]
         index: [ 32 ]
      -
         sv_count: 1
         rho: 1.3591597925273409e+000
         alpha: [ 1. ]
         index: [ 33 ]
      -
         sv_count: 1
         rho: -1.5491576183888121e+000
         alpha: [ 1. ]
         index: [ 34 ]
      -
         sv_count: 1
         rho: -6.1494773176817186e-001
         alpha: [ 1. ]
         index: [ 35 ]
      -
         sv_count: 1
         rho: -6.8627871255066852e-001
         alpha: [ 1. ]
         index: [ 36 ]
      -
         sv_count: 1
         rho: -1.9506746895363776e+000
         alpha: [ 1. ]
         index: [ 37 ]
      -
         sv_count: 1
         rho: 1.2238853891557533e+000
         alpha: [ 1. ]
         index: [ 38 ]
      -
         sv_count: 1
         rho: 1.0952053184180244e+000
         alpha: [ 1. ]
         index: [ 39 ]
      -
         sv_count: 1
         rho: 2.2956257738551825e-001
         alpha: [ 1. ]
         index: [ 40 ]
      -
         sv_count: 1
         rho: 9.3944912837501937e-001
         alpha: [ 1. ]
         index: [ 41 ]
      -
         sv_count: 1
         rho: -6.6922079416589897e-002
         alpha: [ 1. ]
         index: [ 42 ]
      -
         sv_count: 1
         rho: 1.5401535900908778e+000
         alpha: [ 1. ]
         index: [ 43 ]
      -
         sv_count: 1
         rho: 1.4141948785906659e+000
         alpha: [ 1. ]
         index: [ 44 ]
      -
         sv_count: 1
         rho: 2.3725744402767363e-001
         alpha: [ 1. ]
         index: [ 45 ]
      -
         sv_count: 1
         rho: -3.5422189692880229e-001
         alpha: [ 1. ]
         index: [ 46 ]
      -
         sv_count: 1
         rho: 1.0287339031535236e+000
         alpha: [ 1. ]
         index: [ 47 ]
      -
         sv_count: 1
         rho: 1.1274459071987528e+000
         alpha: [ 1. ]
         index: [ 48 ]
      -
         sv_count: 1
         rho: -9.4154434538759135e-001
         alpha: [ 1. ]
         index: [ 49 ]
      -
         sv_count: 1
         rho: 1.4547461852799857e+000
         alpha: [ 1. ]
         index: [ 50 ]
      -
         sv_count: 1
         rho: 1.4817768220588088e+000
         alpha: [ 1. ]
         index: [ 51 ]
      -
         sv_count: 1
         rho: 1.5283307419075760e+000
         alpha: [ 1. ]
         index: [ 52 ]
      -
         sv_count: 1
         rho: 1.4857854020458683e+000
         alpha: [ 1. ]
         index: [ 53 ]
      -
         sv_count: 1
         rho: 8.8965467724033787e-001
         alpha: [ 1. ]
         index: [ 54 ]
