%YAML:1.0
my_svm: !!opencv-ml-svm
   svm_type: C_SVC
   kernel: { type:LINEAR }
   C: 1.
   term_criteria: { epsilon:2.2204460492503131e-16, iterations:100 }
   var_all: 64
   var_count: 64
   class_count: 13
   class_labels: !!opencv-matrix
      rows: 1
      cols: 13
      dt: i
      data: [ 0, 1, 2, 3, 4, 5, 6, 7, 8, 9, 10, 11, 20 ]
   sv_total: 78
   support_vectors:
      - [ 1.45702015e-05, 1.34497177e-05, 9.25923359e-06, 4.44296256e-06,
          -9.95939808e-06, -1.27388630e-05, -6.16432226e-06,
          -4.09600034e-06, 1.71274678e-06, 8.74015313e-06,
          5.77064429e-06, -1.16372382e-06, -2.74492504e-06,
          -3.88310627e-06, 1.94258155e-06, 8.78458377e-06,
          9.44397834e-06, 4.92343679e-06, 3.00733319e-07,
          -2.10797498e-06, -2.19699496e-06, 8.38456117e-07,
          4.12613144e-06, 1.15830892e-06, -1.96510223e-06,
          -7.16789100e-06, -5.03092906e-06, -8.04813862e-06,
          2.37219433e-06, 5.49399738e-06, 1.48595318e-05, 1.16568763e-05,
          -3.76014236e-06, -3.90351579e-06, -7.43058933e-07,
          1.09028781e-06, 6.84009774e-06, 9.66225980e-06, 1.03266038e-05,
          1.22036181e-05, 1.56493770e-05, 2.58952377e-06, 5.44138004e-07,
          2.07771745e-06, 5.44280010e-06, 4.16029889e-06, 2.96981375e-06,
          -3.81656992e-06, -1.69472844e-06, 1.18135440e-05,
          3.83393945e-06, -3.01514501e-06, 2.91869355e-07,
          -1.85030240e-06, 1.71389183e-06, 1.19653068e-05,
          1.57192571e-05, 1.07235510e-05, 4.92931849e-06, 3.78594200e-06,
          -7.75604622e-06, -9.00620216e-06, -5.50746699e-06,
          -6.50054562e-06 ]
      - [ 1.01563955e-05, 8.48132004e-06, -2.85081614e-06,
          -1.68740607e-05, -2.23424340e-05, -8.04366937e-06,
          -7.03382284e-06, 8.62839534e-06, 9.78325806e-06,
          -4.12417921e-06, 2.82289488e-06, -5.50847562e-06,
          -6.30113982e-06, -1.75157470e-06, -2.21498067e-06,
          5.35375784e-06, 2.13120493e-05, 1.26740792e-06,
          -8.16332613e-06, -3.83698580e-06, 7.68760219e-06,
          1.94713230e-05, 1.82308631e-05, 1.74585639e-05, 3.23258905e-06,
          -1.51101040e-05, -1.58671683e-05, -1.69459133e-06,
          9.01254680e-06, 1.44007145e-05, 2.52345199e-05, 2.63803013e-05,
          -3.15707666e-06, 1.17624290e-06, -8.14879058e-07,
          3.56750638e-06, 4.46476315e-06, 4.78022866e-06,
          -3.36242238e-07, 7.98134636e-07, 5.79845164e-06,
          2.76111996e-06, -2.76220771e-06, -6.87802549e-06,
          -5.09823622e-06, -6.54292364e-07, -1.88693127e-06,
          -1.34276536e-06, -9.79371521e-07, -4.41931934e-06,
          -1.72809287e-05, -8.72448527e-06, -8.14338728e-06,
          -2.07799462e-06, 4.11938890e-06, 1.52658795e-05,
          1.30581011e-05, -2.50722633e-06, -5.75606191e-06,
          2.49692448e-06, 3.65105279e-07, -3.31072852e-06,
          -6.37481392e-08, 3.78142408e-06 ]
      - [ 3.41090308e-05, 4.47734601e-05, 2.42378283e-05, 6.51754590e-06,
          -2.09116861e-05, -1.17665941e-05, -1.00874167e-05,
          1.20325330e-05, 1.88038866e-05, 2.01111234e-05, 1.55085545e-05,
          6.46257195e-06, -6.15832687e-06, -6.07542279e-06,
          -3.10170162e-06, 1.55060934e-05, 3.15848160e-06,
          -7.35807362e-06, -3.39011649e-06, -1.56103451e-05,
          -9.48927664e-06, 7.33853221e-06, 3.84479290e-06,
          9.24186315e-06, 1.18092012e-05, 3.03413685e-06,
          -2.19092981e-05, -2.39875899e-05, -2.30679561e-05,
          -1.14365332e-06, 2.95412592e-05, 2.95547197e-05,
          -1.75548303e-05, -1.96903056e-05, -1.06107491e-05,
          -1.19533274e-06, 1.45608192e-05, 1.96059736e-05,
          2.01299481e-05, 1.02098602e-05, -2.69371662e-06,
          -7.92674655e-06, -9.20469029e-06, -4.81996676e-06,
          6.62930461e-06, 8.42289410e-06, -1.13951019e-05,
          -1.68677452e-05, 3.82859116e-06, -1.34436880e-06,
          -6.50629499e-06, -1.78346681e-07, -1.25698525e-05,
          -5.43729993e-06, -2.42571241e-06, 8.65130517e-07,
          -2.79974142e-06, 9.81414451e-06, 8.28812426e-06,
          -5.59122782e-07, -2.71428053e-06, -1.53982837e-05,
          -1.97785666e-05, -5.06603601e-06 ]
      - [ 1.58797957e-05, 1.32250307e-05, 2.85157489e-06, 4.52292352e-06,
          1.16889214e-06, 1.49627084e-07, 4.91794765e-07, 4.41354541e-06,
          6.39351083e-06, -3.16225669e-06, 2.22348854e-06,
          8.04709271e-06, 9.21565334e-06, -7.29317895e-09,
          3.23823906e-06, 1.14540098e-05, 1.39218891e-05,
          -2.95927907e-06, -1.58436637e-06, -5.62964351e-06,
          -1.86977923e-05, 1.10208866e-05, 1.18613143e-05,
          9.78279513e-06, 5.31268051e-06, -1.27044486e-05,
          -1.18950065e-05, -1.03008078e-05, -5.92300603e-06,
          4.90028606e-06, 1.83774337e-05, 8.75870410e-06,
          -1.86689813e-05, -7.47057902e-06, -9.14746408e-07,
          -2.63822557e-07, 5.10251630e-06, 9.21525407e-06,
          1.03459151e-05, 6.69604515e-06, 7.62492164e-06,
          -1.00579236e-05, -7.83793257e-06, -1.76921219e-06,
          9.33609863e-06, 1.17200143e-05, 3.31023739e-06,
          -8.31096258e-06, -5.80989126e-06, 6.24064296e-06,
          -1.27459759e-06, 1.19779031e-07, -2.98760733e-06,
          -3.26737973e-06, -5.71156761e-07, -1.16968397e-06,
          5.73728403e-06, 4.31747958e-06, -4.61684976e-06,
          1.00161181e-07, -2.46613035e-06, -1.22838055e-05,
          -1.59413175e-05, -6.12652286e-07 ]
      - [ 3.97155854e-05, 3.36318881e-05, 7.53062841e-06,
          -5.93920777e-06, -3.07678456e-05, -2.08586225e-05,
          -1.95816756e-05, 1.01514051e-05, 1.38658861e-05,
          3.43632091e-05, 2.47946064e-05, 6.17312844e-06,
          -2.14054453e-05, -2.82536475e-05, -7.73990723e-06,
          3.48328504e-05, 7.19762829e-06, -7.88703073e-06,
          -2.22026592e-05, -2.64579357e-05, -1.17604040e-05,
          6.54581345e-06, -6.69261283e-07, 8.20463811e-07,
          -8.09017092e-06, -3.08953463e-06, -2.16846729e-05,
          -2.60024117e-05, -1.52975390e-05, -7.58966792e-07,
          2.11629049e-05, 2.63784295e-05, 1.85157878e-05,
          -4.12913550e-07, -5.61820707e-06, -8.44386159e-06,
          -7.86939950e-07, 5.91684739e-07, -5.66048539e-06,
          4.57529586e-06, 2.08407801e-05, 8.75942533e-06, 2.42653505e-06,
          -1.40568518e-05, -2.51009669e-06, -6.33520642e-07,
          2.48560173e-06, 3.69435270e-06, -5.82477878e-06,
          1.11154304e-05, -5.52522579e-06, -3.22918595e-06,
          -8.70804615e-06, -8.44462556e-06, 1.94083145e-06,
          1.08207969e-05, 2.03084110e-05, 9.75909643e-06,
          -1.45019374e-06, -7.00330702e-07, -1.98621547e-06,
          -1.01370097e-05, -3.34509195e-06, 5.81918130e-06 ]
      - [ 1.49212165e-05, -1.77130150e-05, -1.23624550e-05,
          -7.73276133e-06, -6.29168881e-06, -1.70669352e-06,
          1.78545979e-05, -8.66502251e-06, -4.29751572e-06,
          -6.75205411e-06, 7.35830690e-06, -2.20716902e-05,
          -2.27046967e-05, -1.80752722e-05, -9.56470444e-07,
          8.27678286e-06, -1.01178357e-05, -3.39385224e-05,
          -5.58418697e-06, 1.47142168e-06, 1.43118001e-07,
          5.86352826e-06, -2.56934218e-05, -1.33134054e-05,
          2.20653374e-06, 1.48029458e-05, 6.74398166e-07, 4.40711801e-06,
          1.55672988e-05, -1.11873317e-06, 2.30772002e-05,
          1.44480582e-05, 3.11465737e-05, -2.62099229e-06,
          -3.09761308e-05, -5.80507876e-05, -4.97957153e-05,
          -2.83782629e-05, 5.79961397e-06, 4.14947899e-05,
          7.30556785e-05, 1.67675244e-05, -5.77274523e-06,
          -5.29257632e-05, -1.27348148e-05, 2.35747535e-07,
          -1.10036772e-05, 1.59674019e-05, 1.75089353e-05,
          8.09567427e-06, 9.44258136e-06, 4.06296022e-06, 1.24569203e-06,
          -5.13992973e-06, -2.04921071e-05, -1.97972022e-05,
          6.82654945e-06, 2.02467509e-05, 2.69989378e-05,
          -3.23868477e-07, -9.30218812e-06, -1.05006839e-05,
          -2.75788443e-05, -1.61248977e-06 ]
      - [ 1.95071898e-05, 1.54297595e-05, 1.21606981e-05,
          -2.45668133e-07, -3.78949017e-06, 8.50594333e-08,
          -4.63489982e-07, 6.28154385e-06, 1.09948712e-06,
          1.91447066e-06, 6.08705159e-06, 2.42729925e-06,
          -7.75662102e-06, 1.40051625e-07, 5.06067136e-06,
          9.95778373e-06, 1.08873901e-05, -2.50927815e-06,
          -9.37540426e-06, -1.11740819e-05, -3.09998836e-06,
          7.93156141e-06, 1.20209788e-05, 6.12614349e-06,
          -7.47171498e-06, -6.50850416e-06, -7.66901564e-07,
          4.33969126e-06, 7.89755359e-06, 1.04625733e-05, 2.13362637e-05,
          1.38536325e-05, -4.03387776e-06, -9.19329159e-06,
          -7.06023593e-06, -2.06648792e-06, -3.71415376e-06,
          6.21116305e-06, 1.41660257e-05, 1.25076140e-05, 1.78815626e-05,
          -5.33689581e-06, -3.75643708e-06, -2.49854475e-06,
          -2.65704739e-06, 1.02142876e-05, 7.30467445e-06,
          -7.21111178e-07, -6.87084957e-06, 1.40467841e-06,
          -3.25914371e-08, -7.06444325e-06, 2.66297025e-06,
          -4.03615059e-06, 3.73923945e-06, 1.40666216e-05,
          1.98460784e-05, 1.08623344e-05, 3.39148096e-06, 4.54392693e-06,
          7.64253309e-06, 3.94502308e-07, 1.03077605e-06, 1.11556528e-06 ]
      - [ 1.75134428e-05, 1.59491065e-05, 9.01275871e-06, 2.31612921e-06,
          -2.90766502e-06, -5.89681849e-06, -1.73122171e-05,
          -3.65608162e-06, 8.98654798e-06, 1.79672293e-06,
          6.29501119e-06, 6.93910579e-07, -8.97024893e-06,
          -8.39585209e-06, -3.32140985e-06, 1.02968725e-05,
          7.98684869e-06, -8.99059614e-06, -1.36131275e-05,
          -9.22095842e-06, -5.22890059e-06, 4.20114111e-06,
          -2.30827777e-06, 1.06692160e-05, 5.82643497e-06,
          -2.26694938e-05, -1.07435017e-05, -3.87093365e-07,
          -8.05784930e-06, 1.10939880e-06, 1.33330359e-05,
          1.66692043e-05, -8.03162857e-06, -1.26440909e-05,
          -1.05390645e-05, 1.51059669e-06, -2.69626435e-06,
          3.45058311e-06, 8.95357607e-06, 6.53634925e-06, 2.03287564e-05,
          -4.54115145e-08, -3.26347708e-06, -9.68866334e-06,
          -8.16790453e-06, -1.95198072e-06, 3.77336096e-06,
          2.06191544e-06, 5.90787931e-06, 8.42361260e-06, 2.17739853e-06,
          -1.77883464e-06, -7.40147698e-06, -1.66479858e-05,
          -7.18049841e-06, 1.55347916e-05, 2.11519546e-05,
          1.36940071e-05, -2.59789704e-06, -1.02401737e-06,
          -7.31743739e-06, -1.44602800e-05, -1.40947323e-05,
          -2.39377755e-06 ]
      - [ -1.09738594e-05, 1.73551744e-05, 9.69864504e-06,
          2.00704494e-06, -5.49175002e-06, -4.95176164e-06,
          -1.88364756e-05, -3.30091621e-06, 6.56427210e-06,
          1.61263924e-05, 3.11482540e-06, 8.57065243e-06, 2.48747870e-06,
          -1.72115858e-06, -8.05148920e-06, -9.86490249e-06,
          4.09023924e-05, 1.64067187e-05, -1.25544166e-05,
          -2.55734849e-05, -2.32141010e-05, -2.07922312e-05,
          -8.51407458e-06, 2.25291169e-05, 2.55353571e-05,
          -1.02331815e-05, -2.88311967e-05, -3.95566167e-05,
          -4.38363459e-05, -1.38600371e-05, 2.49596019e-06,
          2.44750754e-05, 4.22499124e-06, -7.47861066e-07,
          5.77133221e-07, 4.76837113e-06, 1.93721935e-05, 4.92011759e-06,
          -7.85571956e-06, 7.46479964e-06, 1.23263760e-06,
          -3.72253544e-06, 6.38248650e-07, 3.21468769e-06,
          -6.13773352e-07, -7.76493562e-06, -8.72810597e-06,
          8.55452345e-06, -6.41385850e-06, -1.29223736e-05,
          -9.41633789e-06, -1.18812350e-05, -2.16860262e-05,
          -4.23470237e-06, -2.27673127e-06, 2.89764812e-05,
          2.82218334e-05, -7.98252404e-06, -1.96884921e-05,
          -6.71023736e-06, -6.11762334e-06, 3.37473375e-06,
          7.87650060e-06, 5.26497661e-06 ]
      - [ 1.73878780e-05, 1.37295256e-05, 1.08004679e-05, 7.09856158e-06,
          1.94653830e-06, 6.64600236e-07, -1.43881084e-06,
          -1.76469086e-06, -3.30950911e-06, 1.10996370e-06,
          5.67149209e-06, -2.07690209e-06, -8.99119641e-06,
          -3.59163710e-06, 3.13526721e-06, 9.73051283e-06,
          1.15188795e-05, 3.49177594e-06, -6.38343181e-07,
          -6.81488609e-06, -3.20709228e-06, 1.04268202e-06,
          3.71496481e-06, 1.21875109e-06, -4.89023842e-06,
          -1.60682146e-06, 2.80690273e-07, 1.65365373e-06,
          7.94954667e-06, 7.43864166e-06, 1.69377981e-05, 1.40092670e-05,
          -7.15875103e-06, 8.43694181e-07, 1.29441912e-06,
          3.45370768e-06, 7.54832399e-06, 9.19843660e-06, 1.17897616e-05,
          1.19722336e-05, 1.92692751e-05, 2.37888958e-06,
          -9.05855302e-07, -7.38150402e-06, -8.76673221e-06,
          3.61738716e-06, 4.23896154e-06, -2.14221109e-06,
          -3.66095219e-06, 2.48011520e-06, 3.33226865e-07,
          -6.88592536e-06, -2.74894205e-06, -2.21820656e-07,
          3.58350030e-06, 1.25837450e-05, 1.81908708e-05, 1.15738476e-05,
          6.93146330e-06, 9.43884697e-06, 5.81134691e-06, 2.42963836e-07,
          -1.24370945e-06, -5.84750751e-06 ]
      - [ 2.05170818e-06, 7.02709940e-06, 6.45750515e-06,
          -3.77988340e-06, -1.09319299e-05, -1.36232884e-05,
          -9.56409349e-06, -2.60334423e-06, -3.34087417e-07,
          2.60233446e-06, 1.66400275e-06, 6.66780807e-06,
          -1.51133790e-05, -2.10602193e-05, -1.64279281e-05,
          -2.83426903e-06, -3.29410841e-06, -9.62104696e-06,
          -1.65512502e-05, -1.59287247e-05, -3.69987197e-06,
          2.75551102e-08, 3.18589514e-06, 4.33830837e-06,
          -9.17956550e-06, -1.24319140e-05, -1.11069839e-05,
          -5.61054139e-06, -2.19389949e-06, -2.52568657e-06,
          1.37055722e-05, 1.11033032e-05, 9.44080000e-07,
          -5.30278930e-06, -6.51238997e-06, -7.66584890e-06,
          -2.89852807e-07, 2.49937415e-07, 3.92775110e-06,
          7.91942421e-06, 2.82211181e-06, -8.40275425e-06,
          -9.80705136e-06, -1.77059937e-05, -1.01842306e-05,
          -4.75160959e-06, 1.63135371e-06, -4.18279114e-06,
          -8.67070230e-06, 6.70609825e-06, -9.36524600e-07,
          -8.90332376e-06, -1.09296452e-05, -1.36434219e-05,
          -8.39568656e-06, 3.95562802e-06, 5.96471000e-06,
          -7.23019525e-07, -2.95874315e-06, 1.40527789e-06,
          -3.71837132e-06, -1.38454116e-05, -6.78074002e-06,
          -7.80222308e-06 ]
      - [ 1.44918258e-05, -3.03971387e-06, -4.19588241e-06,
          -2.48774859e-06, -3.78020218e-06, -4.60770570e-06,
          -1.30660401e-05, -1.30654062e-05, -1.20349887e-05,
          -7.45094030e-06, 2.23938173e-06, 3.68645851e-06,
          -5.31476326e-06, -2.24605424e-06, 4.22354833e-06,
          9.09893879e-06, 1.19210908e-05, -2.85794101e-07,
          -9.73973056e-06, -7.32762464e-06, 5.60724516e-07,
          8.04574393e-06, 8.01526130e-06, 4.04416824e-06,
          -1.34783950e-05, -2.40112822e-05, -1.40324373e-05,
          -8.38056167e-06, 2.88126262e-06, 5.73493890e-06,
          1.10041992e-05, 1.32878249e-05, -1.35041564e-05,
          -1.99054975e-05, -6.23265350e-06, -6.90306706e-06,
          -7.15513579e-06, 9.59596719e-07, 8.82592030e-06,
          1.06661382e-05, 1.70174808e-05, -2.63048992e-06,
          -1.13920478e-05, -9.10859944e-06, 3.35225366e-07,
          9.14312386e-06, 1.00570278e-05, -4.67577092e-06,
          -1.62991819e-05, -5.04055970e-06, -2.71852764e-06,
          1.03748130e-06, 2.41016846e-06, -4.64340792e-06,
          2.57265742e-06, 1.33470157e-05, 2.13906533e-05,
          -1.42538863e-06, -6.62343382e-06, -5.38571896e-07,
          2.56961630e-06, -5.87021168e-06, -1.31949146e-05,
          -1.20941495e-05 ]
      - [ -2.12138752e-06, -8.83593293e-06, -1.23711861e-05,
          -1.66691352e-05, -4.47107959e-06, 6.66399410e-06,
          1.31600254e-05, 1.38408341e-05, 1.47655719e-05,
          -5.35539857e-06, -5.46850833e-06, -4.59488501e-06,
          3.30409648e-06, -1.58639500e-06, -5.57441854e-06,
          -3.15496891e-06, -1.14157922e-06, -2.09762652e-06,
          -7.31983755e-06, -6.76143964e-06, -5.40869041e-06,
          6.71869930e-06, 1.21721723e-05, 1.17349655e-05, 9.53515701e-06,
          2.28184285e-06, -8.30726458e-06, -9.18629269e-07,
          2.45801425e-06, 9.29358805e-07, -3.53256894e-07,
          -4.45217637e-07, 6.42162968e-06, 3.41986038e-06,
          -1.71608360e-06, -1.01770320e-06, -5.80280857e-06,
          -8.76765080e-06, -1.37659263e-05, -1.25328224e-05,
          -1.65690526e-05, -1.00340658e-05, -6.11186306e-06,
          -1.37864035e-05, -1.79334475e-05, -9.58337387e-06,
          2.72259217e-06, 9.94177208e-06, 7.60735429e-06,
          -1.25757724e-05, -1.92135212e-05, -1.34694956e-05,
          -1.00422017e-06, -9.72774728e-07, -3.45494612e-07,
          -9.25067297e-07, -7.49623314e-06, -1.43260040e-05,
          -9.50754020e-06, -6.04442721e-06, 4.90557159e-06,
          1.49976631e-05, 1.05733943e-05, 8.56840870e-06 ]
      - [ -8.77781258e-06, -1.18118787e-05, -1.20389977e-05,
          -9.06482637e-06, 6.41272891e-07, 1.22319852e-05,
          5.23182098e-06, 1.23629741e-06, -9.44008934e-06,
          -1.40817665e-05, -8.55247617e-06, 4.71550447e-06,
          4.22304174e-06, 2.39509609e-06, -1.30869257e-05,
          -1.18013204e-05, -9.91498746e-06, -8.40125631e-06,
          -3.46435695e-06, -8.22390575e-06, 2.22138351e-06,
          4.12830332e-06, -3.76703565e-06, 9.59993577e-06,
          2.73324476e-05, 5.59732825e-06, 1.68386737e-06, 6.34475782e-07,
          -2.20000838e-05, -1.23776508e-05, -1.74074921e-05,
          -1.04285300e-05, -1.17420832e-05, -1.38041005e-05,
          -2.15523814e-05, -1.13463630e-05, -8.28796237e-06,
          -3.16312003e-06, -8.80293010e-06, -1.30723038e-05,
          -2.79647247e-05, -8.16836473e-06, -5.81564927e-06,
          -4.44056468e-06, -1.04048431e-05, -1.00309044e-05,
          -1.03217371e-06, -3.25259634e-06, 1.00879761e-05,
          -1.98072412e-05, -1.42060035e-05, 1.08176728e-05,
          5.28865075e-06, -1.57797365e-06, -2.18841105e-05,
          -3.52683819e-05, -2.82210985e-05, -2.00477334e-05,
          -1.09471075e-05, -3.11647500e-06, 1.37408124e-05,
          7.26869257e-06, 3.88410854e-06, 3.27879479e-06 ]
      - [ -1.30764136e-06, -6.12957638e-06, -3.81133009e-06,
          -1.41987562e-06, 2.84675334e-05, 1.63115456e-05,
          1.97685094e-05, 9.02101647e-07, 2.04884850e-06,
          -2.56430794e-05, -9.29262660e-06, 1.43791722e-05,
          2.00077648e-05, 2.85446595e-06, -1.25398833e-06,
          -1.75743230e-06, -4.02463502e-06, -4.02265869e-06,
          -9.68690074e-07, -1.43763964e-05, -1.92834323e-05,
          -3.79416679e-06, -3.65991582e-06, -2.32446268e-06,
          9.49014702e-06, -1.11109139e-05, -9.70005385e-06,
          1.10645806e-06, -1.13356009e-05, -5.81090717e-06,
          -5.99739906e-06, -8.08724872e-06, -3.68046021e-05,
          -6.38479150e-06, 3.06551335e-08, -8.10024574e-07,
          -2.16145440e-06, -5.97011820e-07, -3.72216482e-06,
          -2.10286344e-05, -1.87875758e-05, -2.72279958e-05,
          -1.66107766e-05, -5.27540180e-07, 1.05756244e-05,
          8.60167620e-06, 5.33591674e-06, -2.32240236e-05,
          -6.05478863e-06, -4.94222604e-06, -1.58617640e-05,
          -1.40264513e-06, -4.77117601e-06, -4.70295072e-06,
          -5.52025267e-06, -1.85230419e-05, -1.96197307e-05,
          -1.63530276e-05, -7.86516921e-06, -2.03442187e-06,
          1.22634328e-05, 1.96366705e-06, -7.40802443e-06,
          -1.55515354e-05 ]
      - [ -1.12690423e-05, -1.13728920e-05, -1.51728445e-05,
          -7.97413031e-06, 4.20472497e-06, 7.00314013e-06,
          9.03565888e-06, 1.03502871e-05, 3.38243967e-06,
          -3.05457274e-06, 1.04230458e-05, 4.43986210e-06,
          8.88470709e-07, -2.25452095e-06, -4.39374253e-06,
          -2.24106702e-06, -1.16252404e-05, -7.79350285e-06,
          -5.09223764e-06, -6.21664958e-06, 4.16755620e-06,
          4.44633997e-06, 2.14289730e-06, 9.38128153e-07, 1.16500923e-05,
          1.41626006e-05, -2.05583933e-06, -6.18886816e-06,
          -4.58602744e-06, -7.51718790e-06, -1.58731982e-05,
          -1.18982307e-05, 1.31904717e-05, 1.84642175e-07,
          -8.50407469e-06, -1.55960079e-05, -2.16447061e-05,
          -1.39737576e-05, -1.43372499e-05, -1.25930028e-05,
          -6.98501526e-06, -1.26254108e-05, -9.29888120e-06,
          -1.64188332e-05, -1.85688550e-05, -3.52838333e-06,
          -2.22641142e-06, 1.18055968e-05, 7.83648375e-06,
          -1.54899390e-05, -9.22567415e-06, -1.48744209e-06,
          4.19566550e-06, -9.61383193e-06, -1.03505363e-05,
          -1.23468571e-05, -1.48958961e-05, -1.21437515e-05,
          -1.48936579e-05, -1.36330145e-05, 1.11720356e-05,
          1.84174605e-05, 8.23894061e-06, 1.22909614e-05 ]
      - [ -6.97168616e-06, -1.44983205e-05, -8.02857539e-06,
          -1.44033936e-06, 6.75774845e-06, 1.06695543e-05,
          7.44109411e-06, 4.33879177e-06, -1.50330288e-06,
          -1.16137080e-05, -5.25924543e-06, 2.51611618e-06,
          2.17437474e-07, 5.51831249e-07, -2.11724955e-06,
          -3.43762918e-06, -1.04920628e-05, -5.54605003e-06,
          -7.69664553e-07, 1.67532562e-06, 3.63088884e-06,
          3.69896014e-07, -9.20258753e-06, -2.72739641e-07,
          3.99463397e-06, 8.05508898e-06, 4.12846839e-06, 7.27772385e-06,
          3.84221863e-07, -4.99263706e-06, -7.02875514e-06,
          -1.02233871e-05, 8.12654162e-06, 1.03894490e-06,
          -3.83889937e-06, -8.07576362e-06, -1.23824857e-05,
          -1.15629091e-05, -8.68461484e-06, -3.75044101e-06,
          -3.61783964e-06, -7.42192015e-07, -2.02141132e-06,
          -5.63311005e-06, -1.17056770e-05, -6.68426992e-06,
          -5.29111821e-06, 9.49622699e-06, 2.40691361e-06,
          -6.43041540e-06, -2.31246827e-06, 1.59345859e-06,
          4.40114718e-06, 8.43092437e-07, -5.02239163e-06,
          -1.13502920e-05, -1.24269573e-05, -7.47896593e-06,
          -2.97032557e-06, -3.85386829e-06, 4.86358294e-06,
          7.78224512e-06, 3.73103376e-06, 5.56474288e-06 ]
      - [ -5.34028004e-07, -7.00234295e-06, -9.17350553e-06,
          -9.70214751e-06, 1.15808016e-05, 1.55500693e-05,
          1.82214317e-05, 1.31715033e-05, -7.80065511e-06,
          -1.56830883e-05, 5.19525599e-07, 8.65719994e-06,
          -4.05028504e-06, 4.01256830e-06, 8.25407540e-07, 0.,
          3.03302450e-08, -8.36343679e-06, -1.16438741e-05,
          -1.48669315e-05, -2.99512226e-06, 5.10140217e-06,
          2.39857400e-06, -3.94153722e-06, 7.46367959e-07,
          2.14312877e-06, 6.37156018e-06, 1.89008588e-05, 1.98049675e-05,
          1.18015998e-06, 3.21598236e-07, -1.46568240e-07,
          2.02613546e-06, -1.23267018e-05, -1.34369793e-05,
          -8.58047224e-06, -1.31071001e-05, -4.06943309e-06,
          -1.24186602e-06, -1.14228851e-06, -1.22965712e-05,
          -2.03623276e-05, -8.95301309e-06, -9.01124258e-06,
          -1.95082685e-05, 1.57804223e-07, 8.47147840e-06,
          8.82806398e-06, -1.09178345e-05, -1.86564484e-05,
          -1.65263082e-05, -3.44357795e-06, 5.44725208e-06,
          -2.86423574e-06, -1.80183622e-06, -2.46385866e-06,
          1.41879627e-06, -2.35027505e-06, -6.46475792e-06,
          -3.69556096e-06, 3.25731671e-05, 2.64634800e-05,
          9.52084974e-06, 2.36104711e-06 ]
      - [ -5.46383717e-06, -7.64054494e-06, -1.24561557e-05,
          -6.43775684e-06, 8.07471497e-06, 1.29719047e-05,
          -6.94265125e-08, 5.89991168e-06, 6.56451266e-06,
          -1.50553997e-05, -1.00296002e-05, 3.45206263e-06,
          -4.59553860e-07, -1.04478631e-05, -8.16040574e-06,
          -2.24874361e-06, -6.23483538e-06, -2.13685380e-05,
          -1.04212604e-05, -3.89089564e-06, -6.19468938e-06,
          -9.46064418e-08, -3.45793796e-06, 7.34974265e-06,
          9.04497574e-06, -7.10703807e-06, -1.92232233e-06,
          9.64917217e-06, -9.96232848e-06, -9.00707528e-06,
          -1.62586584e-05, -1.03329603e-05, 6.97866108e-06,
          -8.10113215e-06, -1.40119919e-05, -3.95623238e-06,
          -2.01048297e-05, -1.08912045e-05, -1.71967986e-05,
          -1.14605746e-05, -1.25845700e-05, -7.76435718e-06,
          -8.09511221e-06, -1.98310336e-05, -1.99952519e-05,
          -9.37803725e-06, 2.32129537e-06, 4.16548710e-06,
          1.18194675e-05, -4.84620978e-06, -1.02700706e-05,
          5.60735884e-07, -6.22733569e-06, -2.19992835e-05,
          -1.89078019e-05, -5.18767592e-06, -2.47227968e-06,
          -8.85325335e-06, -1.67029721e-05, -1.58646544e-05,
          2.68603890e-06, 6.04618208e-06, -1.41033894e-07,
          1.19808219e-05 ]
      - [ -1.47853862e-05, -1.10329383e-05, -4.88632850e-06,
          -1.27689782e-06, 2.31719764e-06, 1.22435304e-05,
          3.49061270e-06, 5.95296933e-06, 2.64508230e-06,
          -9.40662994e-06, -7.10305630e-06, 3.11846998e-06,
          6.80047742e-06, 3.41473333e-06, -8.04767205e-06,
          -9.54767529e-06, 1.21628545e-07, -8.53684199e-08,
          -1.37851521e-06, -5.80829192e-06, -4.18681157e-06,
          -9.19072136e-06, -6.49287813e-06, 5.42898852e-06,
          9.76567117e-06, 4.95664790e-06, -1.37107611e-06,
          -1.63137372e-06, -1.15369021e-05, -1.08218910e-05,
          -1.14713594e-05, -5.03946467e-06, 5.14624480e-06,
          4.87885336e-06, 2.08457800e-06, -3.07563738e-07,
          -6.26351402e-06, -4.16115790e-06, -1.15387502e-05,
          -1.50275209e-05, -1.60564887e-05, -3.90326431e-06,
          -6.61475724e-07, -1.90195124e-06, -4.75964134e-06,
          -7.91373077e-06, -3.94112021e-06, 2.90203297e-06,
          -4.26789967e-07, -1.25776924e-05, -9.33956289e-06,
          -3.64676021e-06, -1.77046149e-06, 1.55802852e-07,
          -2.71666204e-06, -3.25062410e-06, -6.42737723e-06,
          -1.58313524e-05, -1.17930713e-05, -6.93437050e-06,
          8.53371785e-06, 1.14744607e-05, 8.97317477e-06, 5.71044347e-06 ]
      - [ 2.73525575e-06, 1.07775222e-07, 9.88782858e-07, 4.40839767e-06,
          1.85303361e-05, 2.23689440e-05, 1.58612638e-05, 4.94295000e-06,
          -1.20613122e-05, -1.66003083e-05, -7.66414905e-06,
          -3.24176631e-06, -5.32747117e-06, -3.91907520e-07,
          -1.99408191e-07, 0., 1.38001974e-06, -1.05167651e-07,
          -1.04072654e-07, -6.24945278e-06, -5.71697274e-06,
          -5.70286920e-06, -1.22333686e-05, 5.78250479e-07,
          -2.86912564e-06, 1.36238523e-05, 1.31778825e-05,
          1.98877515e-05, 1.95502271e-05, 8.16100396e-07, 3.64807846e-07,
          0., -2.56139606e-06, 5.78756953e-06, 8.31774571e-07,
          -1.36653671e-06, -1.60501713e-06, -3.80555605e-07,
          1.71140300e-07, 0., 3.25617805e-07, -7.21320760e-07,
          -4.00037834e-06, -1.98416674e-05, -3.60398117e-05,
          -2.96845269e-06, -7.03688784e-07, 2.85074248e-06,
          -1.44170099e-05, -1.09111525e-05, -8.03508010e-06,
          -6.78436527e-06, -7.83275664e-06, -4.72241112e-07,
          9.38859479e-09, -7.17594446e-08, 2.75290881e-06,
          1.20290196e-07, 0., 2.67048949e-06, 3.22451378e-05,
          2.52162190e-05, 1.43513907e-05, -2.15028581e-06 ]
      - [ -1.01736305e-05, -7.18660613e-06, -3.61668867e-06,
          -5.34916535e-06, 1.50285950e-06, 2.23892744e-06,
          3.02710828e-06, 8.33934791e-07, -3.28957128e-07,
          -7.76165689e-06, -6.52998187e-06, 3.26333497e-06,
          -7.50576055e-06, -1.02861877e-05, -1.18980752e-05,
          -7.99533154e-06, -1.12482394e-05, -8.88680370e-06,
          -1.16036772e-05, -9.89737237e-06, 6.80147139e-07,
          -5.64525180e-06, -4.26196675e-06, 2.60794923e-06,
          2.29248602e-08, -1.74302002e-07, -1.51692871e-06,
          2.86724844e-06, -1.48936169e-06, -6.94640084e-06,
          -3.30389366e-06, -5.62723062e-06, 4.52952327e-06,
          4.26920423e-07, -4.44886791e-06, -7.22346294e-06,
          -9.31216437e-06, -6.72445503e-06, -4.58115528e-06,
          -4.27451960e-06, -1.37113148e-05, -7.88641319e-06,
          -8.76020022e-06, -1.32914702e-05, -1.30896515e-05,
          -1.19064880e-05, 3.93440814e-07, 1.62350193e-06,
          -5.53509699e-06, -6.72525721e-06, -6.18613831e-06,
          -2.22603921e-06, -5.31972955e-06, -9.45557349e-06,
          -8.63303012e-06, -6.08396340e-06, -1.15547200e-05,
          -9.32356306e-06, -8.31510988e-06, -6.37884932e-06,
          5.89494584e-06, 6.94067467e-07, 2.31770014e-06,
          -1.54118368e-07 ]
      - [ -5.75115018e-06, -1.61603784e-05, -1.23461377e-05,
          -2.92875802e-06, 1.67709823e-05, 9.76307274e-06,
          2.57101783e-06, -6.85043187e-06, -1.63637142e-05,
          -1.72406071e-05, -9.55193741e-07, 5.97429334e-06,
          6.27363306e-06, 2.28565625e-07, -8.18046203e-07,
          -6.96390316e-07, -1.57132240e-06, -1.55376674e-05,
          -1.48351328e-05, -6.13920110e-06, 4.67656082e-06,
          -5.85626879e-07, 3.48163638e-07, 5.62193645e-06,
          4.28062549e-06, -8.97690461e-06, -4.67525979e-06,
          -5.71492826e-08, -1.44372805e-07, -4.56473981e-06,
          -5.80971573e-06, -6.84674978e-06, -9.82375877e-06,
          -5.61853449e-06, -1.14780541e-05, -8.50246124e-06,
          -1.99072729e-05, -5.07931190e-06, -1.07874293e-05,
          -3.42716498e-06, -3.27208568e-06, -9.19943977e-06,
          -1.81403666e-05, -9.10159997e-06, -9.11407460e-06,
          -2.20497373e-06, -2.19203685e-06, 1.01722371e-05,
          -5.84349527e-06, -1.74210618e-05, -1.18518647e-05,
          5.28524606e-06, 8.43166254e-06, 4.55461617e-07,
          -9.34023501e-06, -9.49065270e-06, -6.30614977e-06,
          -1.56952738e-05, -1.33734329e-05, -7.00029887e-06,
          1.61918379e-05, 1.32328387e-05, -1.88712261e-06,
          -5.68627001e-06 ]
      - [ 4.14612168e-06, 6.77548087e-06, 1.12988955e-05, 1.36289418e-05,
          5.84227200e-06, -6.58029830e-06, -3.15504985e-06,
          -3.33345065e-06, 8.02848547e-07, 5.81562790e-06,
          6.96762925e-07, -2.02883348e-06, 8.12349185e-07,
          7.51261723e-06, -5.44478189e-06, 3.10104042e-06,
          -1.77232287e-05, -1.03301036e-05, 8.46378134e-06,
          5.00349097e-06, -3.86286911e-06, -1.99296828e-05,
          -2.75639704e-05, -1.13415881e-05, 5.55469751e-06,
          2.67647083e-05, 2.27761666e-05, -4.27214945e-06,
          -2.80440145e-05, -2.54157676e-05, -2.16315602e-05,
          -1.52179646e-05, 8.73911233e-07, -1.47506098e-05,
          -1.00686830e-05, -9.74984050e-06, -7.75782974e-06,
          4.61060290e-06, 6.01401371e-06, -8.92689627e-07,
          -2.21209621e-06, -8.40022312e-06, 8.80720836e-06,
          1.51709319e-05, 7.49717947e-06, 5.85945645e-06, 2.48084319e-07,
          -6.48881178e-06, 8.24399285e-06, 1.71403190e-05,
          2.32245147e-05, 1.95312678e-05, 2.26547090e-05,
          -8.86960333e-06, -2.31269114e-05, -2.21121845e-05,
          -2.38299162e-05, 6.92703725e-06, 9.98169617e-06,
          3.47340665e-06, -6.52829294e-06, -1.38209416e-05,
          -2.30413407e-05, -9.31393558e-08 ]
      - [ 1.05014205e-05, 5.04392688e-07, 7.58564238e-06, 1.80954794e-05,
          2.80832373e-05, 9.96195558e-06, 3.59442151e-06, 1.64375581e-06,
          6.71739315e-07, -1.36002318e-05, -9.40599307e-07,
          1.17497248e-05, 1.83626435e-05, 4.07856260e-06, 6.56175007e-06,
          5.15643796e-06, -8.14658904e-07, -9.73095666e-06,
          1.84711257e-06, -5.73881516e-06, -1.07785409e-05,
          -6.70151030e-06, -9.53830977e-07, 5.75152910e-07,
          -1.87888350e-06, 6.80919311e-06, 9.72126963e-06,
          -2.18613945e-06, -1.57169397e-05, -2.34845311e-06,
          -2.31461286e-06, -1.07273252e-06, -2.03710370e-05,
          1.15254034e-06, 7.68803943e-07, -3.36194512e-06,
          9.64170340e-06, 1.05433164e-05, 9.31165596e-06, 6.95493964e-06,
          1.98359271e-06, -6.84592578e-06, -4.06467780e-06,
          6.86135263e-06, 2.27402725e-05, 1.47308210e-05, 6.97726318e-06,
          -9.75132843e-06, -7.73891043e-06, 1.75195491e-05,
          1.66178943e-05, 1.37262796e-05, 1.03987222e-05,
          -1.81149846e-06, -5.72682575e-06, -5.20846561e-06,
          -1.29942036e-05, 3.82000144e-06, 1.25501192e-05,
          3.06365428e-06, 4.04835248e-07, -1.17153459e-05,
          -7.19948730e-06, -3.77856304e-06 ]
      - [ -2.26660973e-07, 6.10499592e-06, 2.09916630e-06,
          1.03212305e-05, 4.79783648e-06, -1.12785419e-05,
          -1.23299405e-05, -1.41985829e-05, -9.41292456e-06,
          1.65986075e-05, 1.48164045e-05, 1.13941405e-05, 1.08797451e-06,
          1.77457559e-06, 2.33563196e-06, 2.15274167e-06,
          -1.44123869e-05, -5.42910038e-06, 6.68173743e-06,
          -3.09563552e-06, 5.41633699e-06, -2.76128740e-05,
          -2.51513775e-05, -1.20749082e-05, -2.69508200e-06,
          2.61523764e-05, 2.96627168e-05, -3.05472277e-05,
          -3.51934941e-05, -3.05273206e-05, -2.10883227e-05,
          -9.81113772e-06, 3.51493941e-06, 8.39906761e-07,
          -5.13828036e-06, -1.59740066e-05, -1.22525016e-05,
          1.44159605e-06, -5.17315016e-07, 8.54368864e-06,
          1.00485931e-05, -5.33157936e-06, 1.77160985e-06,
          2.69548354e-06, 9.88226202e-06, 3.41474515e-06,
          -2.47663975e-05, -9.10722611e-06, -2.51709207e-06,
          1.22577103e-06, 2.86135291e-05, 2.23623247e-05, 1.95330085e-05,
          -1.46263246e-05, -2.40948611e-05, -2.13995972e-05,
          -1.60499039e-05, 1.90864394e-05, 1.16828533e-05,
          -3.62147603e-06, 2.66109691e-06, 3.66718751e-07,
          -7.37283926e-06, -5.35642494e-06 ]
      - [ 2.53203218e-08, -5.73230773e-06, -4.50271546e-06,
          1.34433258e-05, 1.34561069e-05, 4.99595762e-06, 2.59928424e-06,
          -2.06515392e-06, -6.63067885e-06, -7.01414228e-06,
          -9.05281831e-06, 2.25773988e-06, -5.83579663e-07,
          -1.26964051e-06, 1.13565477e-06, -3.25071437e-06,
          -1.66884729e-05, -8.29696364e-06, 4.80446624e-06,
          5.14256226e-06, -1.16081833e-06, -1.72135697e-05,
          -2.20340735e-05, -1.42821418e-05, -3.90509967e-06,
          1.03252232e-05, 1.24705257e-05, 3.14037675e-06,
          -9.10510062e-06, -8.60864748e-06, -1.24299577e-05,
          -1.71521024e-05, 2.57339889e-06, -3.63468689e-06,
          -9.00680152e-06, -1.32263340e-05, -1.98304351e-05,
          -6.41737552e-06, -2.86411318e-06, 5.44782188e-06,
          1.15643097e-05, 2.94248275e-06, -5.10446512e-07,
          -1.58797704e-07, -4.01642637e-06, -6.70772624e-06,
          -9.01711530e-07, 2.44427974e-06, -1.44466753e-06,
          5.06680271e-06, 1.05237059e-05, 8.51735240e-06, 9.09114351e-06,
          -2.81506544e-07, -7.08001926e-06, -1.13387596e-05,
          -1.20779032e-05, 3.66460972e-06, 4.95583799e-06,
          -2.55785221e-06, -5.66723338e-06, -1.04726644e-06,
          -7.13058898e-06, -4.94205278e-06 ]
      - [ 1.22566562e-05, 2.26090542e-05, 2.84267553e-05, 3.39197941e-05,
          3.20701147e-05, 2.46845175e-05, 1.56505291e-06,
          -7.67504298e-06, -1.51449476e-05, -6.18054037e-06,
          1.52162011e-05, 1.29545100e-07, -1.82469503e-05,
          -1.83774364e-06, 1.02838667e-05, 6.98509939e-06,
          7.74444652e-06, -2.05468932e-05, -1.72850596e-05,
          -2.26658485e-05, 4.33934838e-06, 1.90869177e-05,
          -3.52847769e-06, -1.85865756e-05, -2.27371493e-05,
          -1.76781089e-06, 3.22476226e-05, 4.53257926e-05,
          1.82277709e-05, 6.97147087e-08, 0., 2.60922817e-09,
          5.20494814e-06, -2.29532016e-05, -2.41447906e-05,
          -2.23232473e-05, -2.69811426e-05, 1.29012660e-05,
          2.61929381e-05, 2.10990347e-05, 3.07097434e-05, 4.33801779e-06,
          9.24656524e-06, 1.79154304e-05, -2.57685929e-06,
          3.80644246e-06, 1.63901295e-05, 2.80893310e-05,
          -9.15670262e-06, 9.70140900e-06, 2.16751050e-06,
          2.39233232e-05, 2.49221812e-05, 6.99425027e-06,
          -6.94222717e-06, -1.11549371e-05, 9.56092208e-06,
          1.59560204e-05, -6.63831088e-06, -1.88007289e-05,
          6.56694601e-06, 4.90212778e-06, 4.61808168e-06,
          -1.02090735e-05 ]
      - [ 5.07025379e-06, 3.99137843e-06, 6.32569663e-06, 2.07315115e-05,
          1.95781868e-05, -1.24383450e-05, -2.48473407e-05,
          -1.53537840e-05, -6.60787055e-06, -7.32611215e-06,
          1.64246092e-06, 5.90984655e-06, -6.54863106e-06,
          -1.76206668e-05, -4.70827717e-06, 2.75599928e-06,
          -5.78793924e-06, -1.33024969e-05, -1.00999550e-05,
          -4.04260618e-06, -4.40909886e-08, -2.15124564e-05,
          -2.05133474e-05, -1.16997680e-05, -1.81408427e-06,
          -4.55975623e-06, 8.80163134e-06, 1.29157543e-05,
          -2.14187512e-05, -1.72677519e-05, -2.12327886e-05,
          -1.79292056e-05, -7.69397502e-06, -1.45694357e-05,
          -1.60783111e-05, -6.34779963e-06, -1.31450388e-05,
          -6.45777573e-06, 1.42194335e-06, 5.08626999e-06,
          1.14182858e-05, 1.04060719e-05, 3.42398721e-06, 2.56240838e-07,
          3.04378227e-06, -7.69386224e-06, -7.42745397e-06,
          -3.03409024e-06, -8.12863789e-07, 1.77874608e-05,
          1.77845486e-05, 2.20485035e-05, 5.73807392e-06,
          -2.39677283e-05, -2.10787530e-05, -7.07780691e-06,
          -2.22628569e-06, 2.39343080e-06, 4.96776511e-06,
          -4.28913972e-06, -4.03438435e-06, -1.77015481e-05,
          -2.03667623e-05, 3.49219385e-06 ]
      - [ -2.25844760e-05, 3.56660826e-06, 1.13020305e-05,
          9.16447243e-06, 2.17211928e-05, 7.87735280e-06,
          -1.71983611e-05, -9.89710952e-06, -9.35095795e-06,
          2.56014289e-07, 2.82185010e-06, 3.98181641e-07, 8.92154185e-06,
          3.67708799e-06, -9.43577288e-06, -1.69302930e-05,
          2.66669576e-06, 1.53934337e-07, 5.72436102e-06,
          -6.29311489e-06, -1.44985124e-05, -2.52741938e-05,
          -3.15420984e-05, -8.79042364e-06, 2.24508472e-06,
          1.83546326e-05, 1.62463257e-05, -1.14578670e-05,
          -2.80551612e-05, -2.16224689e-05, -2.47493172e-05,
          -1.00207508e-05, -5.61478419e-06, 6.48301102e-06,
          6.64324853e-06, 2.03898207e-06, -4.88281239e-06,
          -1.25613644e-06, -1.74903073e-06, -5.97462440e-06,
          -6.50617903e-06, 7.83974770e-07, 5.10619020e-06,
          8.48327909e-06, 1.25067918e-05, -7.01077261e-06,
          -4.31878561e-06, -3.81220411e-06, -1.51749566e-06,
          -9.47214539e-06, 7.86809596e-06, 3.08577751e-06,
          6.95324661e-06, -6.72290298e-07, -5.12195129e-06,
          -7.53279073e-06, -3.85836938e-06, -3.23865993e-06,
          4.92146057e-07, -1.13897045e-06, 5.87676914e-06,
          1.05505287e-05, 5.93449749e-06, 4.08235877e-07 ]
      - [ 9.89705677e-06, 1.08730492e-05, 1.71962474e-05, 2.18503701e-05,
          1.71851825e-05, 5.99832629e-06, -2.29170018e-06,
          -1.01410506e-05, -2.06102268e-05, -5.21117863e-06,
          2.37242853e-06, 2.50243079e-06, 1.19629758e-05,
          -1.69697284e-06, 4.31612943e-06, 3.22643814e-06,
          2.88562592e-06, 1.38267285e-06, 6.16941543e-06,
          -3.49071616e-09, -1.00475472e-06, -9.93405774e-06,
          -1.45719678e-05, -1.60472882e-05, -1.66438604e-05,
          5.03664887e-06, 1.35152259e-05, 8.62161778e-06, 1.79294398e-06,
          0., -5.61660158e-08, 0., -1.27234525e-05, -7.19115974e-07,
          2.12655564e-07, 1.26001601e-06, 6.51395681e-07, 6.84282440e-06,
          1.01711612e-05, 1.20880850e-05, 1.78923001e-05, 4.75122988e-06,
          1.02183549e-05, 8.09697030e-06, 3.66277595e-06, 1.78513721e-06,
          -1.79179835e-06, -8.17851378e-06, -1.68239185e-05,
          3.55701877e-06, 7.50172057e-06, 6.15764338e-06, 7.83833548e-06,
          2.44490570e-06, 5.61336662e-07, 8.51977575e-07, 1.24261942e-05,
          1.26083123e-05, 7.96410313e-06, 2.85732722e-06, 1.89225000e-06,
          1.18304604e-06, -8.71140685e-07, -1.06481639e-05 ]
      - [ -9.37531877e-06, -6.40955705e-07, 7.59458362e-06,
          9.79647484e-06, 9.95332175e-06, -5.28047894e-06,
          -7.46883234e-06, -8.54752761e-06, -1.17735426e-05,
          -2.78034736e-06, -1.31819763e-06, 6.16202624e-06,
          -1.06551161e-05, -1.71206339e-05, -1.06169491e-05,
          -6.41259203e-06, -1.69874966e-05, -8.38090727e-06,
          -6.39678956e-06, -1.66339105e-05, 7.07316713e-06,
          -2.02011379e-05, -1.33650947e-05, -1.02282620e-05,
          -8.49851313e-06, 1.52413065e-06, 1.14211525e-05,
          2.11608130e-06, -5.80368305e-06, -1.04791498e-05,
          -6.11511405e-06, -8.48350464e-06, 3.51251913e-07,
          -4.37394010e-06, -6.91905916e-06, -1.23205427e-05,
          -7.12349492e-06, -3.61202365e-06, 3.28588749e-06,
          3.31584488e-06, -1.94505060e-06, -3.28941610e-06,
          -1.22842166e-05, -6.13799830e-06, 6.40801136e-06,
          -1.28314377e-05, -4.17742001e-07, -2.96206099e-06,
          -1.33922458e-05, 4.89658441e-06, 8.04561660e-06,
          1.14722543e-05, 1.05479660e-06, -1.51968725e-05,
          -1.14770519e-05, -8.62511661e-06, -1.35116989e-05,
          -1.19553908e-06, -7.22666073e-06, -1.36444760e-06,
          -1.11141685e-06, -1.06631769e-05, -8.24932704e-06,
          -8.97309201e-06 ]
      - [ 1.77843776e-06, -8.85657391e-06, 9.22905087e-07,
          1.09461471e-05, 1.97445152e-05, 4.87405259e-06,
          -6.07466018e-06, -2.44494131e-05, -2.35052830e-05,
          -1.25016577e-05, 1.49554171e-06, 4.85390046e-06,
          5.12347469e-06, -3.04426351e-07, 8.64291724e-06,
          7.52233564e-06, -1.94003110e-06, -3.41110740e-06,
          -4.67274958e-06, 1.13474823e-06, -1.49268044e-06,
          -1.24106309e-05, -1.14291470e-05, -8.74772650e-06,
          -1.61802363e-05, -1.40814946e-05, 9.08098355e-06,
          1.76649337e-07, -8.75698879e-06, -5.81433233e-06,
          -1.09516523e-05, -8.28859720e-06, -1.60465843e-05,
          -1.26667892e-05, -8.74484522e-06, -8.40735356e-06,
          -1.26698633e-05, 7.87460635e-07, 5.21985930e-06,
          8.03135299e-06, 1.64601788e-05, -9.74840304e-07,
          -8.27237909e-06, -6.13793236e-06, 2.63930815e-06,
          7.36480024e-06, 9.03262207e-06, -2.34935487e-06,
          -1.82240474e-05, 2.77166987e-06, 6.65250263e-06,
          1.34098891e-05, 8.38131655e-06, -4.63958077e-06,
          -4.81943971e-06, 9.55001951e-07, 3.10265500e-06,
          2.62376693e-06, 1.49720324e-06, 2.33719788e-06, 3.33885509e-06,
          -1.42098258e-06, -8.61086846e-06, -1.48589115e-05 ]
      - [ 1.75586192e-05, 3.29794307e-06, -6.01872625e-06,
          9.86691612e-06, 2.56909279e-05, 1.94839013e-05, 2.52391656e-05,
          1.18291800e-05, 1.18427151e-05, -7.96416589e-06,
          1.55742418e-05, 2.29701891e-05, 2.11551578e-05, 5.68248925e-06,
          1.50286114e-05, 1.64547309e-05, 1.10762385e-05,
          -8.15303429e-06, -9.18096958e-08, -3.30502030e-06,
          -3.02151457e-05, 1.84996970e-05, 1.75583882e-05,
          1.18354865e-05, -9.59448425e-06, -2.35326897e-05,
          -1.17141299e-05, -3.46938759e-06, 7.64304332e-06,
          7.49690435e-06, 1.03829798e-05, 3.52333427e-06,
          -1.02664608e-05, 2.59019398e-05, 1.78222763e-05,
          5.87956811e-06, 2.79454321e-06, 3.55288012e-06, 2.16176045e-06,
          6.87651300e-06, 1.80574698e-05, -2.38745306e-05,
          -1.33175017e-05, 7.25553173e-06, 2.70006331e-05,
          2.40888130e-05, 6.26420751e-06, -5.72703129e-07,
          -2.01005168e-05, 1.44988408e-05, 7.56536110e-06,
          1.04899264e-05, -7.18555975e-06, -3.17809736e-06,
          1.59637239e-05, 3.82374810e-06, 2.06534096e-05, 2.08470988e-06,
          -1.28419624e-05, -1.83637474e-06, -7.26992721e-06,
          -1.01244023e-05, -2.15550835e-06, -5.29589715e-06 ]
      - [ -3.98268967e-05, -2.49066597e-05, -4.18422787e-05,
          -1.00657408e-05, 2.23438292e-06, -1.28855354e-05,
          -1.64459725e-05, -2.38647899e-05, -2.86055401e-05,
          -1.31054071e-06, 3.78114055e-05, 4.42860164e-06,
          -1.78236860e-05, -2.88395931e-05, 1.88685408e-05,
          -1.50993276e-06, -2.44444595e-06, 8.62848901e-06,
          -1.96148030e-05, -1.21172943e-05, 6.89498847e-06,
          1.95168668e-05, 6.08434493e-06, -5.43606461e-07,
          -4.06412182e-05, -1.74149682e-05, 1.28059116e-06,
          -5.81152517e-06, 1.56492661e-05, -1.30881708e-05,
          -5.17782064e-06, -4.97241490e-06, 6.34027674e-05,
          4.72322790e-05, 4.45825281e-05, -1.19496553e-05,
          -1.26992772e-05, -2.62233516e-05, -3.64135085e-05,
          2.86601098e-05, 5.31141050e-05, 1.54047229e-05,
          -6.49750405e-07, -2.66666448e-05, -3.07553382e-05,
          -9.01471503e-06, -3.03727811e-05, 5.61033494e-06,
          -1.57764407e-05, -2.39777692e-05, -9.72077760e-06,
          -7.16510522e-06, 3.67016692e-05, -3.46778033e-05,
          1.50496480e-05, -7.23263781e-07, 3.66191271e-05,
          4.66915117e-06, -1.46861767e-05, -1.21005796e-05,
          2.75513430e-05, 6.72700116e-05, 4.17115589e-05, 1.25774459e-05 ]
      - [ -1.20717796e-05, -2.06764635e-05, -1.61018161e-05,
          5.44630166e-06, 1.44333117e-05, 1.28949141e-05, 9.82387519e-06,
          -1.42208137e-06, -9.40883001e-06, -2.36206106e-05,
          -1.48192075e-05, 4.81989773e-08, -8.36288837e-06,
          -6.67884569e-06, 2.67839800e-06, -7.39072993e-06,
          -1.33551612e-05, -7.30018837e-06, 1.93550500e-06,
          4.01046600e-06, 8.06514163e-06, -5.22458322e-06,
          -1.28121319e-05, -1.71236898e-05, -6.97622863e-06,
          2.21549635e-06, 1.55290636e-05, 2.13669045e-05, 1.61262196e-05,
          1.39864298e-07, -4.39435917e-06, -1.85608878e-05,
          1.54917252e-05, 6.58043518e-06, 3.43054421e-06,
          -1.67044418e-05, -1.99585429e-05, -1.63895929e-05,
          -1.04237206e-05, 4.98257305e-06, 1.66074660e-05,
          8.45358227e-06, 2.71171871e-06, -7.66438461e-06,
          -1.70037365e-05, -1.46643170e-05, -1.06877842e-05,
          1.18780899e-05, -2.45625779e-06, -7.75880471e-06,
          3.68823248e-06, -2.54843854e-07, 1.18405287e-05,
          2.09337531e-06, -3.59499586e-06, -7.76231900e-06,
          3.30726721e-06, -1.89804041e-06, 3.78541404e-06,
          -3.56465443e-06, 6.20505489e-06, 9.37090499e-06,
          8.87505485e-06, -1.27017756e-06 ]
      - [ 5.74487785e-06, 2.73048977e-06, -1.01341038e-06,
          -2.79574192e-06, 7.65432105e-06, 8.48231775e-06,
          1.17929412e-05, 6.95271547e-06, -6.59007310e-06,
          -5.04723948e-06, 1.56991177e-06, 1.17289630e-07,
          -1.03108932e-05, 1.25661438e-06, 1.05833724e-05,
          8.11590598e-06, 8.59514148e-06, -6.18676950e-06,
          -1.01251417e-05, -1.12309235e-05, 5.05013588e-07,
          6.39263908e-06, 9.16694353e-06, 4.45621890e-06,
          -1.73523622e-05, -8.71706379e-06, 7.19373429e-06,
          1.95683933e-05, 2.70813598e-05, 1.88109843e-05, 1.01491569e-05,
          4.94463166e-06, 6.29794431e-06, -4.12666441e-06,
          -1.39669362e-06, -1.20782022e-06, -1.05864729e-05,
          -9.38852054e-07, 7.91609273e-06, 1.58493458e-05,
          1.34133106e-05, -8.14484883e-06, -9.13082749e-06,
          -5.47555237e-06, -5.94323501e-06, 9.66860716e-06,
          7.53501990e-06, 1.69544182e-05, -1.64427438e-05,
          2.09518089e-06, -7.55133306e-06, -1.12226680e-05,
          1.64342305e-06, -2.11133261e-06, 1.33243002e-05,
          1.71164156e-05, 2.96766339e-05, 1.44485393e-05, 8.85084319e-07,
          4.97275005e-06, 1.68696679e-05, 1.50930509e-05, 1.70474086e-05,
          3.89918256e-07 ]
      - [ 1.28262218e-05, 1.17453274e-05, 2.39136784e-06, 1.02100921e-05,
          4.02589103e-05, 1.23087966e-05, -2.03334184e-05,
          -2.02748415e-05, -2.75848515e-06, -9.03848741e-06,
          1.89943341e-06, 1.65365364e-05, -1.24920389e-05,
          -3.54622462e-05, -8.49128537e-06, -8.60613113e-07,
          -2.99648241e-06, -2.10487051e-05, -4.56723246e-05,
          -9.59244062e-06, -2.54597762e-06, 5.31522664e-06,
          -1.15959701e-05, 1.44327748e-06, -2.40804711e-05,
          -3.89189845e-05, -2.42727547e-05, 1.58570929e-05,
          1.75097175e-05, 7.52722235e-06, -1.14615941e-05,
          -1.61063349e-06, 3.27548378e-06, 7.51469406e-06,
          5.18469096e-06, 8.23337177e-06, -1.28435959e-05,
          -2.18743571e-05, -6.82484870e-06, 2.86682462e-06,
          2.85656461e-05, 1.27630419e-05, 2.15775503e-06,
          -9.71945519e-06, -1.82701715e-05, -1.25924207e-05,
          -1.38496753e-05, 7.30807824e-06, -2.80721724e-06,
          -1.57924092e-06, 1.07704745e-05, -6.92798039e-06,
          -2.54289516e-05, -3.77847864e-05, 2.81533244e-06,
          2.86041432e-05, 3.64952139e-05, 1.60776690e-05,
          -1.55292510e-05, -1.26385503e-05, -4.85210285e-06,
          -7.20233675e-06, 1.63198001e-06, 1.35127211e-05 ]
      - [ -3.39464277e-05, -2.06087952e-05, -3.97504573e-06,
          4.53361145e-06, 1.61649605e-05, 7.97683788e-06,
          -1.67544913e-05, -1.12112239e-05, -1.93366523e-05,
          -1.48516983e-05, -2.25867370e-06, 6.10246479e-06,
          3.52986990e-06, 9.78425533e-07, -1.88464219e-05,
          -2.22090002e-05, 2.39858909e-05, 1.61323969e-05,
          -7.62023956e-06, -1.41404516e-05, -1.98278394e-05,
          -1.79153503e-05, -1.98805010e-05, 6.73734712e-06,
          -4.94533242e-06, -6.09484277e-06, -7.33991374e-06,
          -9.19041941e-06, -1.77502152e-05, -1.53653218e-05,
          -1.28891133e-05, 4.26881252e-06, 1.30824321e-06,
          2.23548614e-05, 1.74927427e-05, 6.01333068e-06,
          -1.00017878e-05, -1.42860981e-05, -1.53405126e-05,
          2.25604867e-06, -6.94994242e-06, 6.40769804e-06,
          2.74044851e-06, 2.30143451e-06, 4.93599555e-06,
          -1.13761507e-05, -1.74535489e-05, -2.81549205e-06,
          -1.56552960e-05, -1.89761613e-05, -1.69559753e-05,
          -1.84843102e-05, -7.56790587e-06, 5.95199572e-06,
          1.08668592e-05, 1.51916447e-05, 1.57724917e-05,
          -1.85687968e-05, -1.43206307e-05, -1.46018319e-05,
          4.67246264e-06, 2.37953864e-05, 1.83978409e-05, 4.73592672e-06 ]
      - [ 7.13430472e-06, 3.54582562e-06, 5.85681937e-06, 6.51793380e-06,
          1.48655217e-05, 3.89664910e-06, 7.50888330e-06,
          -1.31867225e-07, -4.23979372e-06, -2.75677121e-06,
          -5.56349141e-06, -6.25475559e-06, -6.29693386e-06,
          -4.71053499e-06, 5.69345275e-06, 6.61978174e-06,
          1.11262871e-05, 5.59547379e-06, -6.49813359e-08,
          -1.54683619e-06, -4.93341668e-06, -3.77930019e-06,
          -2.40010945e-06, -6.11257656e-06, -1.09669163e-05,
          2.49614050e-06, 5.42620364e-06, 9.34444688e-06, 2.48389515e-05,
          9.49102923e-06, 8.25171719e-06, 4.87745092e-06, 5.03497586e-06,
          1.27220719e-05, 6.33166792e-06, 3.83412680e-06, 4.79158507e-06,
          4.65025522e-07, 4.80126528e-06, 1.42679064e-05, 1.72609707e-05,
          6.59437956e-06, 6.97740575e-07, -1.09018465e-05,
          -1.91120580e-05, 5.98242195e-07, 3.70715838e-06,
          9.48041873e-07, -8.63134483e-06, 6.41206225e-06,
          -1.87245769e-06, -1.60693380e-05, -3.44987029e-06,
          1.24762994e-06, 1.03253005e-05, 1.52921966e-05, 2.75104594e-05,
          1.19859769e-05, 8.14182840e-06, 6.00007888e-06, 9.28103691e-06,
          8.04809588e-06, 8.56059069e-06, -3.97651229e-06 ]
      - [ -1.71263218e-05, -2.47906996e-06, 2.12740315e-06,
          -7.00534457e-08, 8.66485971e-06, -1.33471747e-06,
          -3.95313322e-07, -6.75014917e-06, -8.51188997e-06,
          -6.56288466e-06, -5.96436985e-06, 7.56001282e-06,
          -1.90805276e-05, -2.35411790e-05, -1.27531293e-05,
          -9.25460063e-06, -1.17685540e-05, -1.13436454e-05,
          -2.04102234e-05, -1.63830555e-05, 1.58949513e-06,
          -1.35651935e-05, -2.67486735e-06, -4.31000763e-06,
          -1.68057304e-05, -1.31740771e-05, -6.23414451e-07,
          5.96769814e-06, 1.12976677e-05, 8.09380992e-07, 3.62353148e-06,
          -3.83584802e-06, 6.39130121e-06, 7.45550960e-06,
          6.79578761e-06, -7.15246597e-06, -5.83235942e-06,
          -6.00782732e-06, -4.26816996e-07, 2.79026108e-06,
          -2.41207067e-06, -3.97268559e-06, -1.00226162e-05,
          -1.90423689e-05, -1.60929885e-05, -1.37844618e-05,
          -1.84433668e-06, -1.09549944e-06, -2.22962517e-05,
          -5.99795976e-06, -1.83745169e-06, -1.13126816e-05,
          -1.17622330e-05, -1.36123590e-05, -2.02075603e-06,
          1.73352180e-06, 3.88257422e-06, -4.02281557e-06,
          -7.52113510e-06, -6.07026504e-06, 3.38996711e-06,
          -1.31267689e-06, 6.87187321e-06, -7.65850291e-06 ]
      - [ -2.40463169e-06, -2.02727606e-05, -7.58664191e-06,
          -8.38671667e-07, 2.71603167e-05, 1.21305966e-05,
          1.22444726e-06, -7.57129646e-06, -1.35032878e-05,
          -1.40915317e-05, -1.46503487e-06, 6.86039220e-06,
          7.98338624e-06, -2.45620890e-06, 9.78233857e-06,
          1.56807218e-05, 4.89481681e-06, -1.76539143e-05,
          -2.10326562e-05, -5.88777266e-06, 1.03560378e-05,
          -3.99280589e-06, 1.50912156e-05, 7.46543947e-06,
          -2.57896481e-05, -3.20431391e-05, -1.07376172e-05,
          6.35126162e-06, 1.44195174e-05, 9.56186523e-06, 6.92643880e-07,
          -1.96634346e-06, 1.46820939e-05, -6.33052821e-07,
          -3.05739241e-06, -4.05745641e-06, -1.05786439e-05,
          -2.21003415e-06, -3.41912414e-06, -4.73925240e-07,
          1.65108631e-05, -3.89642082e-06, -1.94235454e-05,
          -4.77277126e-06, -2.61702917e-06, 7.36831089e-06,
          2.43120849e-06, 2.36613832e-05, -2.28101890e-05,
          -1.06705183e-05, -1.18525777e-05, -2.93144626e-06,
          9.81496214e-06, -3.28114493e-06, 1.00605976e-05,
          1.98532980e-05, 3.25561450e-05, -1.82288915e-07,
          -1.47917744e-05, -4.45131218e-06, 8.09575886e-06,
          5.75756530e-06, 4.39010682e-06, -1.11753016e-05 ]
      - [ -7.88149191e-06, -6.77551384e-08, -5.78132494e-06,
          -3.57733506e-06, -1.90760948e-05, -1.70525091e-05,
          -9.80956520e-06, -2.63431207e-06, -5.78537220e-06,
          1.45997028e-05, 1.73108162e-06, -9.67475535e-06,
          -1.42729059e-05, -9.10303788e-06, -5.48930029e-06,
          -2.52276209e-06, -6.38356823e-06, 1.71195586e-06,
          -1.80210748e-06, 4.21690038e-06, 1.73898061e-05,
          -3.44490309e-06, -8.94764344e-06, -9.50372487e-06,
          -6.70176678e-06, 1.36835924e-05, 6.80014409e-06,
          -6.27135341e-06, 4.57539227e-06, -2.34389518e-06,
          -5.22383971e-06, -1.76472702e-06, 2.66109819e-05,
          2.71524732e-06, -3.27963767e-06, -7.00444616e-06,
          -1.01191963e-05, -6.85428085e-06, -9.66329753e-06,
          -2.75703019e-06, 6.27828285e-06, 6.12270696e-06,
          6.60420119e-06, -4.62962089e-06, -2.51609908e-05,
          -1.39177537e-05, -1.23664777e-05, 4.18217996e-06,
          5.21645461e-06, -1.11147519e-05, -6.00776184e-06,
          -8.20499554e-06, 1.49220023e-06, -7.77852529e-06,
          -3.81170094e-06, 4.56028965e-06, 7.01283807e-06,
          4.59931971e-06, -1.09958160e-06, -4.31769331e-06,
          3.76946878e-06, 1.25162160e-05, 1.82326003e-05, 5.64946185e-06 ]
      - [ -7.98877863e-06, -9.93949016e-06, -3.13167419e-07,
          -3.21143204e-07, -2.12140867e-06, 7.73045912e-08,
          9.03664727e-07, -3.84867917e-06, -4.21526920e-06,
          -6.24135964e-07, -7.74693763e-06, -4.63389551e-06,
          -7.95410142e-06, -2.79259507e-06, -2.11941369e-06,
          -3.14940326e-06, -9.82944402e-06, -1.05850427e-06,
          1.72314367e-06, 3.98349130e-06, 1.28883185e-05,
          -5.82432585e-06, -1.47778974e-05, -8.35173068e-06,
          -3.09842562e-06, 9.15241981e-06, 9.10948620e-06,
          5.53158816e-06, 5.89095589e-06, -2.50265589e-06,
          -7.33594288e-06, -8.07641391e-06, 1.59340416e-05,
          2.09258292e-06, -2.30499427e-06, -9.62876311e-06,
          -1.26332843e-05, -1.09106077e-05, -4.33012974e-06,
          1.32626235e-06, 5.95788288e-06, 6.74859530e-06, 4.63276319e-06,
          -5.97078588e-06, -1.46810771e-05, -1.49915650e-05,
          -4.84622342e-06, 8.49139542e-06, 2.59598869e-06,
          -1.43823263e-06, -1.38246639e-06, -1.58302248e-06,
          6.96882626e-06, 1.64021151e-06, -3.98455268e-06,
          -3.76229013e-06, -6.99234306e-07, -2.89102786e-06,
          4.90763750e-06, -1.49799178e-08, 3.21208927e-06,
          6.82876089e-06, 6.80456651e-06, 2.75709385e-06 ]
      - [ 4.04841649e-06, 1.26469213e-05, 7.29608837e-06,
          -4.32999377e-06, 2.16492549e-06, -9.30872091e-07,
          7.77625610e-06, 1.00848165e-05, -6.23922006e-06,
          1.03554894e-05, 8.26855455e-07, -7.39285224e-06,
          -1.44895102e-05, 4.50608468e-07, 2.80721792e-06,
          4.23625352e-06, -1.65516940e-06, -3.86457623e-06,
          -4.76622517e-06, 3.18219622e-06, 1.00955613e-05,
          2.90275057e-06, -4.01239367e-06, -1.59373158e-05,
          -4.57180295e-06, 2.29066336e-05, 2.24003034e-05,
          1.61070420e-05, 1.76710346e-05, 5.25739961e-06, 1.81681332e-06,
          2.45826595e-06, 2.40509053e-05, -1.07180886e-05,
          -5.13822579e-06, -4.83497206e-06, -1.35301862e-05,
          -1.22411268e-06, 3.59279352e-06, 3.45842977e-06,
          9.91247248e-07, -2.95457085e-06, 5.42112548e-06,
          -2.85436954e-06, -2.32180137e-05, -5.02808507e-06,
          7.13499844e-07, 3.26011723e-05, -1.49841462e-05,
          -1.26251234e-05, -8.09989706e-06, 5.09213305e-06,
          1.66353148e-05, 7.74563944e-07, 2.79019196e-06, 6.13515613e-06,
          1.48509471e-05, 9.78293701e-06, 3.77487481e-06, 2.60044840e-06,
          1.78211249e-05, 1.84341825e-05, 3.08148628e-05,
          -8.65739457e-06 ]
      - [ -5.31932483e-06, 5.03966339e-06, -1.79862695e-06,
          -5.97735107e-06, -8.18265653e-06, -1.21076882e-05,
          -2.52693462e-05, -5.67186635e-06, -5.16260070e-06,
          1.17645095e-05, -6.79220733e-08, -1.13518672e-05,
          -2.05722772e-05, -1.84882392e-05, -7.54832263e-06,
          -1.50662515e-06, -3.89302977e-06, -6.09132167e-06,
          -3.26075474e-06, 1.64910068e-06, 8.19095658e-06,
          -5.05851267e-06, -1.58800631e-05, -7.88623311e-06,
          -1.06902405e-06, 4.04550320e-07, 2.09361701e-06,
          8.38293181e-06, 2.84749399e-06, -3.03932825e-06,
          -1.47649962e-05, -1.97543750e-06, 2.00762825e-05,
          -8.09009634e-06, -9.74280465e-06, -2.77440927e-06,
          -1.49561729e-05, -7.75098579e-06, -2.28091426e-06,
          -4.20805372e-06, 1.01298629e-05, 9.26581470e-06,
          7.11197299e-06, -9.04374883e-06, -2.56788262e-05,
          -2.24084124e-05, -5.88790590e-06, 1.29262035e-05,
          3.80903975e-06, -6.96536927e-06, -1.34485924e-06,
          -6.20748733e-06, -4.21836148e-06, -1.41396595e-05,
          -5.69701933e-06, 8.19400339e-06, 7.24961956e-06,
          4.05671426e-06, 6.63991173e-08, -2.64100049e-06,
          -5.62487628e-07, 3.04827131e-06, 1.42135502e-06,
          9.61219939e-06 ]
      - [ -1.92407406e-05, -7.39271445e-06, 3.78952882e-06,
          -4.49187291e-06, -5.24678035e-06, -3.44403202e-06,
          -1.02445601e-05, -6.93668244e-06, -4.78112815e-06,
          5.65094570e-06, -6.08219989e-06, -6.57289229e-06,
          -7.28353416e-06, -4.91019136e-07, -1.05611216e-05,
          -1.59085394e-05, 8.69939299e-07, 6.52949984e-06,
          3.33001117e-06, 2.86948011e-06, 7.45782756e-07,
          -1.28918273e-05, -1.72314649e-05, -5.89554702e-06,
          -6.24139204e-07, 1.56804417e-05, 7.86640794e-06,
          -2.35384641e-06, -3.26175132e-06, -1.16160072e-05,
          -1.42955787e-05, -2.86143472e-06, 1.34777538e-05,
          7.20530079e-06, 4.29057110e-07, 6.78757829e-07,
          -3.58339958e-06, -6.89808621e-06, -1.32437672e-05,
          -8.93525339e-06, -6.06866615e-06, 8.16993270e-06,
          1.08284348e-05, 1.82576196e-06, -1.23203372e-05,
          -1.88221347e-05, -9.79846482e-06, 6.51507798e-06,
          -4.11020119e-06, -1.38333307e-05, -9.86625491e-06,
          -7.41191707e-06, -3.80846905e-06, 8.93606000e-07,
          1.04867536e-06, 2.83592567e-06, 5.38908171e-06,
          -1.03860766e-05, -8.76378544e-06, -3.47409514e-06,
          1.15280427e-05, 1.42945837e-05, 1.22824158e-05, 4.44144371e-06 ]
      - [ 9.62700369e-07, 6.05579862e-06, 5.69961230e-06, 1.99244732e-06,
          1.12640112e-06, 6.03822230e-07, -8.51666414e-07,
          4.01049965e-06, 4.82606133e-08, 1.25892066e-05,
          -5.54432609e-06, -1.37232364e-05, -1.94080494e-05,
          -4.47668708e-06, -5.43329691e-07, 1.64807744e-07,
          2.26918337e-06, 4.13143380e-06, -6.15952558e-07,
          2.20569632e-06, 3.30604564e-07, -4.74237004e-06,
          -3.14463659e-06, -6.38987012e-06, -1.54563941e-06,
          1.52064085e-05, 1.70086805e-05, 8.49014759e-06, 1.09744960e-05,
          2.63905690e-06, 1.90610285e-06, 1.33902461e-06, 1.65942238e-05,
          4.95239328e-06, -4.50693420e-07, 8.33378408e-07,
          8.47136789e-07, 1.13348881e-06, 2.79726009e-06, 2.81702683e-06,
          8.23671235e-06, 6.60785236e-06, 6.29880788e-06,
          -7.36640823e-06, -2.94673391e-05, -8.33840841e-06,
          3.23388804e-07, 1.11112950e-05, -5.89621959e-06,
          -2.29222815e-06, -3.71008491e-06, -7.42197699e-06,
          -6.13713837e-07, 1.29693160e-06, 1.13410829e-06,
          3.97118356e-06, 8.46284001e-06, 5.87441900e-06, 4.68464214e-06,
          3.55883844e-06, 1.44467267e-05, 1.54820154e-05, 1.43066027e-05,
          5.66650851e-06 ]
      - [ -1.04717765e-05, -2.39503834e-06, 2.40067516e-06,
          -4.96770735e-06, -7.92399624e-06, -8.18743774e-06,
          -5.76352068e-06, -5.82522989e-06, -4.47129150e-06,
          4.25681083e-06, -2.99186127e-06, -2.68282838e-06,
          -1.53302608e-05, -1.36468507e-05, -1.21270432e-05,
          -7.85633529e-06, -9.42593215e-06, -4.75835941e-06,
          -6.66246387e-06, -5.37171729e-07, 7.11656912e-06,
          -8.47681349e-06, -8.51178993e-06, -5.12439919e-06,
          -4.65328776e-06, 1.49257846e-06, 3.31932983e-06,
          6.23926326e-07, 3.56378996e-06, -3.89695333e-06,
          -1.80491656e-06, -3.83594761e-06, 1.58866296e-05,
          -1.59460640e-07, -3.30532180e-06, -4.24836708e-06,
          -7.34113200e-06, -5.27896691e-06, -2.14299371e-06,
          -1.75276580e-06, -3.20103686e-06, 2.53749226e-06,
          6.81788720e-07, -9.75477815e-06, -1.83768843e-05,
          -1.61624030e-05, -1.98040493e-06, 4.47089633e-06,
          -4.86404997e-06, -2.07588596e-06, -4.98855616e-06,
          -5.93093091e-06, -3.42949397e-06, -6.53113420e-06,
          -5.46364527e-06, -1.56660292e-06, -2.08342067e-06,
          -2.93414496e-06, -3.15404714e-06, -9.38405549e-07,
          2.13875339e-07, -3.33237182e-07, 3.20048343e-06,
          -1.50281619e-06 ]
      - [ -9.63006278e-06, -1.92839179e-05, -5.48402613e-06,
          -6.18111744e-06, -1.78112805e-06, -6.13777320e-06,
          -1.45790200e-05, -2.85348524e-05, -1.66442805e-05,
          -2.11550105e-06, 8.87593046e-07, -7.16599925e-06,
          -1.14345548e-05, -8.42292866e-06, -2.13874340e-08,
          5.86283761e-07, 1.12145210e-06, -8.77506409e-06,
          -1.58592393e-05, -6.45455032e-07, 1.97596346e-05,
          -3.63894196e-06, -7.22087066e-07, -4.41338386e-07,
          -1.65376207e-06, -6.18567083e-06, 2.06358877e-07,
          4.34115736e-06, 2.56038470e-06, -5.53218797e-07,
          -1.16145984e-05, -4.18670788e-06, 3.00628381e-05,
          -1.59576794e-05, -1.59569954e-05, -1.09338989e-05,
          -2.46908730e-05, -4.07096059e-06, -8.34685852e-06,
          -1.30195826e-06, 2.03938416e-05, 1.28167367e-05,
          -6.86319754e-06, -7.66366611e-06, -2.42171391e-05,
          -1.54017343e-05, -4.38358802e-06, 3.01310502e-05,
          -2.64195955e-06, -1.19116294e-05, -1.20269224e-05,
          -1.92160519e-06, 1.05536956e-05, 8.33850379e-07,
          -6.05689229e-06, 2.28100816e-06, 6.82289874e-06,
          -1.08857730e-05, -4.95162567e-06, -5.47822538e-06,
          1.13987762e-05, 1.27399517e-05, 6.74575131e-06,
          -7.98648762e-06 ]
      - [ -9.01792919e-06, -2.54262704e-05, -1.78943974e-05,
          1.84393102e-05, 2.96152721e-05, 1.68169281e-05, 2.37914301e-05,
          1.08165814e-05, -3.24573807e-06, -4.64751502e-05,
          -2.99517233e-05, -2.31261424e-06, 4.03371769e-06,
          1.04676119e-05, -5.29705721e-06, -6.49787535e-06,
          -1.56155038e-05, -6.32049068e-06, 9.15381770e-06,
          2.32543716e-05, 6.14616874e-06, -1.09833236e-05,
          -2.19606900e-05, -1.22889815e-05, 1.00314692e-05,
          1.39325030e-05, 2.18008299e-05, 3.21594525e-05, 1.46430084e-05,
          8.65335642e-06, 5.93126788e-06, -2.35032530e-05,
          -5.43636224e-06, 3.88492026e-06, -3.00278521e-06,
          -1.31487195e-05, -1.76012636e-05, -2.11580737e-05,
          -6.34178150e-06, 6.62436605e-06, -3.30419448e-06,
          -2.04183061e-06, -3.58644616e-06, -4.78330730e-06,
          -9.40633163e-06, -1.34921493e-05, -1.62158794e-05,
          -4.15584100e-06, -2.85802997e-07, -1.24367580e-05,
          -6.71237694e-06, 1.61140383e-06, 1.43298121e-05,
          7.55316887e-06, -5.67248571e-06, -1.71385818e-05,
          -1.40240254e-05, -1.08517206e-05, 1.82133572e-05,
          7.05510820e-06, 2.07542939e-06, 1.30222652e-05,
          -2.59768535e-06, -7.81049130e-06 ]
      - [ 1.66667724e-05, 5.54036342e-06, 9.31885097e-06,
          -6.31823332e-06, 4.19056505e-06, 1.30744993e-05,
          1.33359908e-05, 7.53528366e-06, 1.00614734e-05, 2.13558201e-06,
          -9.28971167e-06, -1.06762554e-05, -7.41060558e-06,
          7.42492239e-06, 7.26282269e-06, 3.82670441e-06, 9.28529334e-06,
          -2.81069833e-06, -1.08733711e-05, -1.35153614e-05,
          -4.91385663e-06, 8.68431744e-06, 4.47870843e-06,
          9.86415580e-06, -4.80344033e-06, -1.20716268e-05,
          8.81704091e-06, 3.39892067e-05, 3.53772230e-05, 1.61223488e-05,
          2.09447662e-05, 1.40417669e-05, -9.64489027e-06,
          -1.17809432e-05, -2.63231709e-06, 7.17413650e-06,
          -4.83908207e-06, 7.23699122e-06, 1.03671282e-05,
          7.25212249e-06, -3.75693844e-06, -8.06593562e-06,
          -1.52600091e-06, 6.44325382e-06, -1.09177688e-06,
          1.09839348e-05, 2.08300808e-05, 4.94172355e-06,
          -1.78849350e-05, -2.99575163e-06, -6.35929882e-06,
          -4.67180280e-06, -4.13969389e-07, 1.19868919e-05,
          1.53651636e-05, 1.72897744e-05, 2.13281546e-05, 5.70065504e-06,
          -5.40845747e-07, 1.48039062e-05, 2.75481652e-05,
          1.28726051e-05, 1.49704183e-05, 1.19548849e-06 ]
      - [ 2.54466868e-05, 1.29220625e-05, -2.20271602e-07,
          1.40613029e-05, 3.11501863e-05, -4.63744482e-06,
          -2.07084213e-05, -1.17507370e-05, 1.81991472e-05,
          -2.97236215e-06, -2.48928118e-05, 1.97318968e-06,
          1.03867092e-06, -1.91208255e-05, -9.28799273e-06,
          8.71334396e-06, 2.52161990e-05, -2.10587332e-05,
          -2.40274803e-05, 1.18420098e-06, -1.73203007e-05,
          -2.27973014e-05, -4.25233293e-06, 1.88984377e-05,
          5.92345259e-06, -3.02233566e-05, -2.86243903e-05,
          2.46941854e-05, 6.56655448e-06, 1.08052163e-05,
          -5.31512387e-06, 8.82743734e-06, -2.38006378e-05,
          -1.04020128e-05, -7.40258338e-06, 2.74173490e-05,
          3.48793810e-06, -2.78852212e-06, -2.65636299e-06,
          -1.42476802e-05, -9.95861410e-06, -2.98062014e-06,
          1.16292631e-06, 2.07839818e-07, -8.61635453e-06,
          -1.30611425e-05, -6.13683142e-07, -2.20174952e-05,
          -7.77134028e-06, 1.52740686e-05, -1.02739805e-05,
          -7.89990168e-07, -5.28497621e-05, -3.27314665e-05,
          -1.97858753e-05, 2.54165352e-05, 4.24594436e-05,
          5.06228116e-06, 6.04874913e-06, -1.65513975e-05,
          -1.19280239e-05, -2.80602490e-05, -3.48729154e-05,
          7.55781730e-06 ]
      - [ -2.74618815e-05, -2.00515497e-05, 3.08339600e-06,
          1.41215933e-05, 2.84292892e-05, 1.85822191e-05,
          -1.29002301e-05, -5.32067861e-06, 1.64765186e-06,
          -3.87062100e-05, -2.71003519e-05, -7.97057601e-06,
          1.07477417e-05, 2.34092822e-05, -1.63167351e-05,
          -3.51600102e-05, 1.56431433e-05, 1.67446979e-05,
          1.72347718e-05, -1.09939556e-05, -1.89493549e-05,
          -3.07753398e-05, -2.03461896e-05, 1.11581176e-05,
          8.41530073e-06, -6.68517077e-06, -9.39353049e-06,
          -1.07384458e-05, -1.66180089e-05, -5.17035005e-06,
          -1.15216844e-05, 2.28630324e-06, -1.81034466e-05,
          9.86638315e-06, 7.93528307e-06, 8.98507278e-06, 5.71337807e-07,
          4.93293157e-07, 1.93473861e-05, -2.54683732e-06,
          -2.12964787e-05, -7.84517124e-06, 1.69072837e-06,
          1.50657943e-05, 1.73194603e-05, 1.06911455e-06,
          -6.42317218e-06, 4.46087006e-06, -3.45882859e-06,
          -1.72567397e-05, -9.69162738e-06, -1.14649674e-05,
          -1.15071152e-05, 3.78634195e-06, -3.07952092e-07,
          1.80669958e-05, 2.02161737e-05, -1.39857602e-05,
          -2.55525738e-05, -9.54129428e-06, -3.89254319e-06,
          3.10147971e-06, 8.49627395e-06, -1.87657974e-07 ]
      - [ 8.45602062e-06, 7.87833505e-06, 1.05568897e-05, 5.96915925e-06,
          6.63579931e-06, 6.39186328e-06, 6.79199502e-06,
          -2.47923754e-06, -6.43004114e-06, -1.04050305e-05,
          -6.87895044e-06, -1.18801427e-05, -7.76818706e-06,
          3.14414763e-07, 2.56256340e-06, 1.64771257e-06, 1.28430111e-05,
          6.62173761e-06, 5.51611583e-06, 3.48688900e-07,
          -6.98602571e-06, -9.45179238e-07, -3.63327808e-06,
          -5.84368581e-06, -4.14229953e-06, 3.26395684e-06,
          1.36935414e-05, 1.62381784e-05, 2.10155795e-05, 6.21250047e-06,
          1.25478791e-05, 8.69890573e-06, -1.78742339e-05,
          3.76022990e-06, 1.15111679e-05, 1.64462544e-05, 1.62292727e-05,
          8.17882847e-06, 1.27783787e-05, 9.42951374e-06, 7.60140938e-06,
          3.96235737e-06, 3.15073930e-06, 5.44368902e-07,
          -3.11832810e-06, 4.87643911e-06, 7.06931041e-06,
          -8.85233112e-06, -1.31449406e-05, 1.35364246e-06,
          2.55733198e-06, -7.02096395e-06, -3.53818996e-06,
          5.50880623e-06, 5.68837504e-06, 1.10273413e-05, 1.82114763e-05,
          1.16129058e-05, 7.64259585e-06, 7.40025644e-06, 1.51014856e-05,
          4.23389201e-06, 5.01503382e-06, -3.85741168e-06 ]
      - [ -1.41134651e-05, -3.79867538e-06, 1.05561739e-05,
          7.31192313e-06, 2.47463504e-06, -5.00995702e-06,
          -1.72492332e-06, -3.35934487e-06, 2.22265544e-06,
          -5.64001220e-06, -1.65912097e-05, 1.65524420e-06,
          -1.02967415e-05, -1.97263453e-05, -1.96924248e-05,
          -9.17167836e-06, -8.85821828e-06, -8.02795239e-06,
          -1.78556584e-05, -1.55856178e-05, -1.25958252e-07,
          -2.21560858e-05, 1.25300028e-06, 3.57520230e-06,
          -7.19317723e-06, -1.26845889e-05, -7.60325247e-06,
          5.99941768e-06, 1.70148214e-05, 5.65149639e-06, 7.96065615e-06,
          1.21727487e-06, -1.55554735e-05, 3.00571878e-06,
          7.40655787e-06, 6.24069617e-06, 2.70543933e-06,
          -3.98468228e-06, 1.01744718e-05, -1.29265902e-06,
          -1.91356721e-05, -1.13661672e-05, -1.30026492e-05,
          -1.46894190e-05, -1.18480762e-06, -1.68896149e-05,
          4.43780692e-07, -8.59020474e-06, -2.92831137e-05,
          -3.17397485e-06, -6.88087948e-06, -1.03474131e-05,
          -2.47653734e-05, -1.42193630e-05, -8.63541482e-06,
          2.12022701e-06, -4.75447268e-06, -5.21776201e-06,
          -6.85128907e-06, 3.95785128e-06, -4.80442623e-06,
          -1.06086000e-05, -4.18242007e-06, -1.29932387e-05 ]
      - [ 5.81689210e-06, -1.48800227e-05, -1.75768018e-05,
          -1.14892907e-06, 1.33257427e-05, 5.66719882e-06,
          -1.43145917e-06, -2.84190228e-05, -1.90072860e-05,
          -2.36580963e-05, -1.18217058e-05, 7.20882838e-08,
          1.24598591e-05, 5.52622396e-07, 2.86668660e-06, 5.31262822e-06,
          1.79852632e-05, -6.16552188e-06, -1.47714345e-05,
          -3.32995796e-06, 9.89513046e-06, -3.96458427e-06,
          1.27696139e-05, 8.79279105e-06, -4.63992092e-06,
          -2.13938602e-05, -2.54651741e-06, 6.06505228e-06,
          9.58533110e-06, 7.63390381e-06, 4.19301250e-06, 6.24575659e-06,
          -3.34892211e-05, -1.87356818e-05, 2.56285057e-06,
          2.21965656e-05, 4.42132387e-06, 2.27924488e-06, 2.82406131e-06,
          7.83814266e-06, 6.81998972e-06, -2.75117077e-06,
          -1.79336494e-05, 5.72065801e-06, 1.78471037e-05,
          1.76074755e-05, 1.17079890e-05, -5.13364739e-06,
          -2.30470669e-05, -1.34795137e-05, -1.88216086e-06,
          2.40260238e-06, 6.01424381e-06, 1.26539853e-05, 1.80684731e-06,
          6.60351418e-07, 1.41091841e-05, -2.85613282e-06,
          -1.24852695e-05, 6.94749997e-06, 6.54832183e-06,
          6.41257770e-07, -4.63249035e-06, -1.95948578e-05 ]
      - [ 6.56210204e-06, 1.99325732e-05, 1.30427079e-05,
          -2.95811833e-06, -4.59604007e-06, -1.96846258e-06,
          -1.22707172e-06, -2.04318781e-07, 4.73188493e-06,
          1.50082915e-05, 1.14591066e-05, -2.77510708e-07,
          -6.35659762e-06, 1.53550172e-06, 3.45678700e-06,
          3.65741721e-06, 1.51479535e-05, 8.95984431e-06,
          -5.83621068e-06, -1.84393703e-05, -5.35235040e-06,
          7.48662796e-06, 1.10026731e-05, 9.25279255e-06,
          -2.06355776e-06, -6.43181920e-06, -1.88419665e-06,
          1.08934432e-06, 1.03761686e-05, 1.12154166e-05, 1.09758839e-05,
          1.73358621e-05, -2.59979561e-06, -9.04521130e-06,
          2.97905643e-07, 3.17371109e-06, 7.31784985e-06, 1.28324709e-05,
          1.49135685e-05, 2.77711501e-06, 1.62362949e-06,
          -8.33801823e-06, 1.48743186e-06, 3.61308503e-06,
          8.13504994e-06, 1.66660357e-05, 1.06487878e-05,
          -2.04775773e-07, -4.05670471e-06, -5.72358067e-06,
          -3.47328250e-06, -2.31438435e-06, 3.38731479e-06,
          2.14345960e-06, 6.63794663e-06, 1.54437312e-05, 1.78738192e-05,
          1.06721873e-05, -6.32509227e-07, 1.41899761e-06,
          1.35922501e-05, 2.69418183e-06, 4.35307857e-06, 2.98046416e-06 ]
      - [ 8.47710180e-06, 2.09148675e-05, 5.50185632e-06, 1.93332721e-06,
          -1.28012027e-06, -1.15002686e-05, -1.87677033e-05,
          -9.77571017e-06, 1.03591210e-05, 1.40105949e-05,
          8.50540528e-06, 3.47989135e-06, 2.56837236e-08,
          -6.90305797e-06, -3.45032208e-06, -8.78685967e-07,
          1.41798746e-05, -2.44554349e-06, -1.04050650e-05,
          -9.27251858e-06, -1.19266515e-05, 4.26888755e-06,
          1.08830091e-05, 1.18447906e-05, -1.15499688e-06,
          -2.05578108e-05, -1.67722555e-05, -3.72117574e-06,
          -9.01048043e-06, -6.33167519e-06, 5.19240166e-06,
          1.46819248e-05, -9.03677119e-06, -9.73572332e-06,
          -2.11501469e-06, 1.88561644e-05, 2.07692610e-05,
          7.11428720e-06, 1.00541101e-05, 7.38698816e-07,
          -1.77304321e-06, -5.33512002e-06, -2.97247925e-06,
          -3.05807680e-06, 5.66415247e-06, 6.46549961e-06,
          6.82946256e-06, -4.58911882e-06, 5.70682687e-06,
          2.60333945e-06, -2.93604558e-07, -2.60101797e-06,
          -1.63378900e-05, -1.93918841e-05, 6.14466387e-07,
          1.32656569e-05, 2.17356373e-05, 8.44786427e-06,
          -5.28568899e-06, -3.29125578e-06, -2.99251542e-06,
          -1.60673353e-05, -5.58369402e-06, 4.12339546e-07 ]
      - [ -1.44752057e-05, 1.10953015e-05, 6.40204689e-06,
          4.55823601e-06, -6.64749052e-07, -3.06475386e-07,
          -1.09873754e-05, -3.42392582e-06, 2.28686940e-06,
          1.03978100e-05, 4.00509680e-06, 4.26722136e-06, 1.07785536e-05,
          4.68059170e-06, -1.09304301e-06, -6.22019388e-06,
          2.09344344e-05, 1.33123231e-05, -5.01447448e-06,
          -1.14102832e-05, -1.48107674e-05, -1.18944317e-05,
          2.14065176e-06, 1.02967688e-05, 1.07294427e-05,
          -8.34323237e-06, -1.08805807e-05, -1.45425984e-05,
          -2.00247905e-05, -8.50169818e-06, -7.36931952e-06,
          7.38291737e-06, -5.97340522e-06, 2.19014532e-06,
          7.95206961e-06, 1.64669455e-05, 2.44554412e-05, 8.49732351e-06,
          -2.10949429e-06, -8.71696193e-06, -1.41836563e-05,
          -4.39866881e-06, 3.21470725e-06, 1.40062284e-05,
          8.90579213e-06, 1.82849874e-06, -4.64442428e-06,
          -3.30914258e-06, -6.22866810e-06, -4.37107656e-06,
          -6.07304446e-06, -5.59198861e-06, -1.28089923e-05,
          -2.88277101e-06, 3.73926810e-06, 1.41499968e-05,
          1.30419548e-05, -8.69005817e-06, -1.41558385e-05,
          -4.22535231e-06, 1.28246666e-06, 1.53512678e-06,
          9.01016119e-06, -3.23211367e-07 ]
      - [ 5.82580287e-06, 1.76732283e-05, 1.13368487e-05, 3.54728490e-06,
          2.34144068e-06, 7.97720475e-07, -3.62891842e-06,
          -4.30853015e-06, -4.90248794e-06, 9.67770939e-06,
          6.66423966e-06, -3.13376177e-06, -5.45274725e-06,
          -4.19757413e-07, 1.49120058e-06, 3.08409835e-06,
          1.50444157e-05, 6.62628690e-06, -1.15647993e-06,
          -5.28598730e-06, -6.46764465e-06, -3.43862467e-07,
          4.60244291e-06, -2.52728228e-06, -3.37202550e-06,
          -1.20635991e-06, -4.53944125e-07, -2.99442064e-07,
          7.21543256e-06, 7.93764048e-06, 7.53784980e-06, 1.15521516e-05,
          -1.17973996e-05, 2.65076233e-06, 9.99426811e-06,
          8.38694450e-06, 1.67298149e-05, 1.33899648e-05, 1.15905395e-05,
          3.96599307e-06, 3.21414382e-06, 5.68804410e-07, 1.40266866e-06,
          -1.37543498e-06, 1.71183683e-06, 7.54014673e-06,
          4.75776733e-06, -7.06405217e-06, -6.50687707e-06,
          -6.79652771e-07, -1.54101406e-06, -6.09995459e-06,
          -4.99874841e-06, -2.65912576e-07, 6.34795651e-06,
          1.09794946e-05, 1.70643416e-05, 9.19404920e-06, 4.42462260e-06,
          5.17080025e-06, 8.42174904e-06, 2.05595074e-06, 7.41274391e-07,
          -5.90720674e-06 ]
      - [ -4.12334020e-06, 9.57721113e-06, 8.03766579e-06,
          -2.24584232e-06, -9.25541281e-06, -1.21883331e-05,
          -1.06304560e-05, -8.15942713e-06, 3.52004690e-07,
          9.38655285e-06, 2.20269044e-06, 3.96660971e-06,
          -4.52819449e-06, -1.77273287e-05, -1.51105351e-05,
          -8.60853015e-06, -4.83604197e-07, -1.31676848e-06,
          -1.61812459e-05, -1.59050778e-05, -6.33907757e-06,
          -2.76016863e-06, 4.63386959e-06, 5.66932840e-06,
          -7.27654651e-06, -1.48723529e-05, -1.19084652e-05,
          -7.68828249e-06, 1.11899590e-06, -1.24248584e-06,
          4.39303903e-06, 8.68239295e-06, -7.31276805e-06,
          -3.96877022e-06, 1.27823080e-06, 3.78086861e-06,
          1.60888885e-05, 6.34978369e-06, 6.76045875e-06,
          -9.39299298e-07, -1.50202422e-05, -9.73789065e-06,
          -6.93135144e-06, -8.08794539e-06, 1.20757420e-06,
          -1.02844376e-06, 6.88759383e-06, -1.12545094e-05,
          -1.33892436e-05, 1.57921841e-06, -2.68224449e-06,
          -7.01757244e-06, -1.68762745e-05, -1.37295456e-05,
          -4.91109358e-06, 7.10203767e-06, 4.21712230e-06,
          -1.62827416e-06, -5.84520785e-06, -9.00881048e-07,
          -3.56704527e-06, -1.06900961e-05, -1.85281795e-06,
          -5.95250231e-06 ]
      - [ 7.78833328e-06, 5.27333043e-07, -2.14250872e-06,
          -1.93483334e-06, -1.49153959e-06, -2.76543210e-06,
          -1.21203439e-05, -1.60112268e-05, -1.24379812e-05,
          -4.94864116e-06, 8.39140830e-06, 4.96033454e-06,
          4.45323531e-06, 7.01027645e-08, 2.73003070e-06, 3.72790237e-06,
          1.88121030e-05, 5.06530887e-06, -1.08415106e-05,
          -5.89154251e-06, -2.94620736e-06, 6.86344129e-06,
          1.02004005e-05, 4.77958747e-06, -8.74820671e-06,
          -2.55318646e-05, -1.45665199e-05, -6.53287634e-06,
          1.71078602e-06, 2.52788982e-06, 3.19908895e-06, 9.96192830e-06,
          -2.10348608e-05, -1.54145364e-05, 1.96502060e-06,
          6.26238852e-06, 1.44243513e-05, 1.16133633e-05, 4.88521346e-06,
          4.23228266e-06, 2.26787961e-06, -3.20513618e-06,
          -7.08662628e-06, -4.81606378e-07, 1.28522115e-05,
          9.04342596e-06, 1.32126925e-05, -7.18597494e-06,
          -1.26125815e-05, -1.00942734e-05, -4.28682597e-06,
          1.81143150e-06, -1.03881416e-06, -1.87868761e-06,
          8.14763916e-06, 1.59550600e-05, 1.48802255e-05,
          -2.94996130e-06, -7.17356352e-06, 5.04398940e-07,
          3.20721074e-06, -5.05146363e-06, -5.64215634e-06,
          -9.11363986e-06 ]
      - [ -7.65103039e-07, -6.12900112e-06, -9.28384088e-06,
          7.13493591e-06, 3.96051337e-06, -6.54657151e-06,
          -1.99819569e-05, -1.01580572e-05, 4.12790371e-07,
          -8.60332057e-06, -7.31943555e-06, 4.94244023e-06,
          9.52335449e-06, -1.65095771e-05, -8.41026940e-06,
          -4.46636250e-06, -1.86645184e-06, -7.12737801e-06,
          5.97291000e-06, 9.28181998e-06, 3.72145610e-06,
          -1.55064135e-05, -1.69058694e-05, 7.47791944e-07,
          7.76295747e-06, -7.48419097e-06, -1.12684911e-05,
          -7.54002986e-06, -2.91238084e-05, -1.66517402e-05,
          -1.93617907e-05, -7.51497510e-06, -3.29521322e-06,
          2.83804297e-06, 7.80336080e-08, 3.96750920e-06,
          -4.44325133e-06, -8.64370759e-06, -1.15134790e-05,
          -1.20295326e-05, -6.90668230e-06, 7.84613803e-06,
          6.76116406e-06, -4.06522895e-06, 1.63061173e-07,
          -1.77577749e-05, -1.66702848e-05, -1.05567251e-05,
          1.36225181e-05, 8.63479363e-06, 7.63176922e-06, 9.92144851e-06,
          -6.35938795e-06, -2.12218511e-05, -1.75623063e-05,
          -6.57214741e-06, -4.02860405e-06, -4.61009222e-06,
          -5.08456424e-06, -1.35079536e-05, -2.35460320e-05,
          -1.83557731e-05, -1.99348287e-05, -5.55689667e-06 ]
      - [ -1.58960447e-05, -1.12703392e-05, -5.70480006e-06,
          -5.96264613e-07, -2.92101163e-06, 1.70749761e-08,
          -7.99192094e-06, -4.86747967e-06, 1.25532051e-06,
          -1.16589842e-06, -1.44970613e-06, -2.62348703e-06,
          1.25447132e-05, -5.70221289e-07, -8.70549502e-06,
          -1.45209342e-05, 3.90642356e-07, 8.18181616e-06,
          7.62556192e-06, 3.10952032e-06, -1.34321954e-06,
          -1.02391505e-05, -1.53647215e-05, -3.33315893e-06,
          8.43771795e-06, 2.80336258e-06, -9.15325109e-06,
          -1.41666815e-05, -2.29826328e-05, -1.54018380e-05,
          -1.58854837e-05, -3.79713697e-06, 3.02052490e-06,
          5.95290203e-06, 5.87092200e-06, 5.51261155e-06, 1.00575130e-06,
          -4.47413913e-06, -1.26660980e-05, -1.46500688e-05,
          -1.45957429e-05, 1.09101654e-06, 3.47909605e-07,
          3.15153466e-06, 4.14493888e-06, -7.57407815e-06,
          -1.24248490e-05, -1.56714077e-06, 4.12471400e-06,
          -6.19137336e-06, -2.51931669e-06, 2.19492404e-06,
          -1.06241180e-06, 2.54952602e-06, -1.00966429e-06,
          -1.83299039e-06, -6.87508918e-06, -1.18281105e-05,
          -9.65037634e-06, -7.96311178e-06, -6.95380140e-06,
          -7.77587843e-07, -2.76621179e-08, 3.19199707e-08 ]
      - [ 7.22919913e-06, 1.89248783e-06, 3.94769086e-06, 7.06440596e-06,
          -2.14150944e-07, -4.53873236e-06, -9.84921462e-06,
          -7.68860355e-06, -5.36243488e-06, 3.26194095e-05,
          -2.03926606e-06, -7.72739986e-06, 5.06325023e-06,
          -8.17810997e-06, -2.89914595e-07, 0., 2.22987528e-05,
          4.01936413e-05, 5.20720714e-05, 5.81229797e-05, 7.76164507e-06,
          -7.02295301e-06, -3.66284912e-05, -1.27045223e-05,
          -2.30677178e-05, 3.69248883e-05, 9.70931796e-06,
          -5.74712487e-07, 1.63210843e-05, 0., -4.04632402e-07, 0.,
          1.69991399e-05, 6.12899967e-05, 1.82823042e-05, 1.01040614e-05,
          1.12510752e-05, 1.50169274e-06, 9.37400728e-07, 1.07877122e-06,
          5.19169698e-05, 8.18410190e-05, 1.26546402e-05, 6.15666659e-06,
          -8.33270860e-06, 2.04072262e-06, -2.14304528e-05,
          -1.47986384e-05, 1.93125688e-05, 2.81850753e-05,
          3.33903299e-05, -8.51775440e-07, -8.68832740e-06,
          2.02758256e-05, 1.12592597e-05, 7.94026801e-06, 2.39127494e-05,
          2.47721182e-05, 3.89423694e-05, 2.38298890e-05, 0., 0.,
          -1.13078829e-06, 1.81498945e-05 ]
      - [ -1.29418977e-05, -3.28596707e-06, -2.89785334e-07,
          -9.53741960e-07, -4.73787441e-06, -9.07121012e-06,
          -9.70746260e-06, -3.64461357e-06, -7.80311609e-07,
          -4.78756601e-06, -8.58144085e-06, -7.10854579e-07,
          2.12762143e-06, -1.59854153e-05, -1.22872298e-05,
          -5.55884435e-06, -1.77728325e-05, -3.96508858e-06,
          -5.62607511e-06, -4.18830859e-06, 3.38314476e-06,
          -2.60365832e-05, -8.86233374e-06, -6.80054370e-07,
          -1.45492925e-06, 2.11309180e-06, -4.36361734e-06,
          -9.39856727e-06, -1.15872263e-05, -9.83203154e-06,
          -5.99995974e-06, -7.64983542e-06, -1.25756367e-06,
          2.40777263e-06, -3.85123485e-06, -6.73254499e-06,
          2.78713924e-06, -4.65758194e-06, -4.84132579e-06,
          -2.43432874e-06, -8.97257542e-06, -2.84114913e-06,
          -1.44919250e-05, -5.47190484e-06, 6.50335369e-06,
          -1.63075692e-05, -5.63514686e-06, -3.83627821e-06,
          -2.94156712e-06, -1.23358984e-06, -1.77258073e-07,
          5.81087761e-06, -9.74656996e-06, -1.62107171e-05,
          -8.10000438e-06, -8.89643161e-06, -1.72959226e-05,
          -7.79893708e-06, -8.07721608e-06, -8.87920760e-06,
          -1.39786425e-05, -1.15961775e-05, -1.16667934e-05,
          -7.41897111e-06 ]
      - [ -1.35827413e-05, -2.94558722e-05, -1.63747554e-05,
          4.23179108e-06, 1.32838913e-05, -8.00751150e-06,
          -2.20256352e-05, -2.30564528e-05, -1.37198776e-05,
          -1.57465638e-05, -1.11088684e-05, 7.51818061e-06,
          8.89270723e-06, -6.84432234e-06, -3.76239001e-07,
          -1.17603570e-07, -1.02198703e-06, -1.10651308e-05,
          -1.36455856e-05, 4.46038484e-06, -8.65574989e-08,
          -1.48584977e-05, -6.10493487e-07, 1.40434277e-05,
          -3.62244418e-06, -1.33622070e-05, -3.07565715e-05,
          -2.27186920e-05, -2.38985504e-05, -1.47280925e-05,
          -2.38183602e-05, -1.17431682e-05, -3.47531818e-06,
          -3.31745218e-06, -9.46941896e-07, 6.18927515e-06,
          -3.94610970e-06, -7.79168568e-06, -1.45807035e-05,
          -8.68614097e-06, 5.32058903e-06, 1.52821649e-05,
          -1.30824128e-05, -8.73071622e-06, 4.78699076e-06,
          -8.99033694e-06, -8.78922128e-06, 4.32174420e-06,
          1.92837774e-06, 2.59692729e-06, -1.51329086e-05,
          1.00324251e-05, -5.02753210e-07, -5.98808583e-06,
          -1.76841786e-05, -1.55116559e-05, -1.94441236e-05,
          -3.18781276e-05, -2.72363668e-05, -1.30540247e-05,
          -1.36896515e-05, -1.46882458e-05, -2.81847497e-05,
          -1.18841099e-05 ]
      - [ -2.44410639e-05, -9.22715935e-06, -3.81663313e-06,
          -6.41149541e-07, -1.32698460e-06, 1.08347031e-05,
          2.68407393e-06, 8.84948258e-06, 1.38599160e-06, 7.19052125e-08,
          -2.28962836e-06, -1.92725770e-06, 7.12154269e-06,
          1.33587300e-05, -3.91086724e-06, -1.45042468e-05,
          7.04883905e-06, 1.71705306e-05, 1.03632101e-05,
          -3.48997310e-06, -8.63782134e-06, -1.08827408e-05,
          -1.53526471e-05, 2.58893749e-07, 6.07290985e-06,
          1.97823756e-05, 1.28183524e-06, -1.31944462e-05,
          -1.20671375e-05, -1.35906221e-05, -6.60003161e-06,
          1.45940498e-06, 4.88615115e-06, 2.00011491e-05, 1.48275058e-05,
          4.43591216e-06, 9.01790281e-06, -1.37714562e-06,
          -1.14367085e-05, -1.49424541e-05, -1.77886577e-05,
          -2.25996757e-07, 4.47917137e-06, 1.02952226e-05,
          1.28678821e-05, 1.24544192e-06, -9.13274107e-06,
          -5.52071128e-07, -8.45174509e-06, -1.59094543e-05,
          -1.13499027e-05, -6.39038899e-06, 4.03998183e-06,
          1.33453032e-05, 1.19900587e-05, -1.28757006e-06,
          -1.01918149e-05, -1.56412971e-05, -1.29626342e-05,
          -4.31106855e-06, 8.03453440e-06, 2.03831260e-05,
          2.20272450e-05, 5.61806317e-08 ]
      - [ 3.02269041e-06, 7.79564471e-06, 1.35484524e-05, 4.99508360e-06,
          5.25069117e-06, 3.67217012e-06, 1.15382136e-05, 2.49701657e-06,
          -9.43312443e-06, -1.21369681e-06, 5.39882706e-07,
          -4.56922771e-06, 1.97787290e-06, 1.10747544e-06,
          3.85750081e-06, 4.18137370e-06, 6.62447337e-06, 1.25643501e-05,
          6.71020280e-06, 2.08508868e-06, -2.71692738e-06,
          -1.77372021e-06, 1.59165108e-06, -8.68675033e-06,
          -7.97058692e-06, 1.91727322e-05, 6.63753644e-06,
          1.61065395e-06, 1.92604930e-05, 1.24189455e-05, 1.28896172e-05,
          7.37436130e-06, -7.37511482e-06, 1.33078156e-05,
          7.30613283e-06, 1.74856677e-06, 1.76493995e-05, 8.27215626e-06,
          6.45762157e-06, 1.13378883e-05, 8.98794315e-06, 3.36596736e-06,
          2.39932842e-06, -2.87474086e-06, -3.66875042e-06,
          1.31230527e-05, 2.10629173e-06, -5.74836486e-06,
          -1.84769488e-05, -1.78660207e-06, -3.02358353e-06,
          -6.53178176e-06, 3.22203709e-06, 1.93030137e-05,
          1.25028555e-05, 7.46096657e-06, 1.93708502e-06, 5.28781766e-06,
          9.79263314e-06, 1.67233102e-05, 1.51882959e-05, 9.61782644e-06,
          1.14828545e-05, -3.32490958e-06 ]
      - [ -3.22354754e-05, -5.48887874e-06, 1.26822761e-05,
          3.16641172e-06, -4.71844078e-06, 4.99044326e-08,
          1.58963485e-05, -4.93258585e-06, -1.35517103e-05,
          -5.60466606e-06, -9.39893744e-06, -6.20112360e-06,
          -1.55946218e-05, -1.08127642e-05, -1.90232968e-05,
          -1.56949445e-05, -2.53782000e-05, 4.68575166e-07,
          -6.99235397e-06, -1.57716549e-05, 2.39744168e-06,
          -2.31144095e-05, -5.28060218e-06, -1.07108335e-05,
          -1.89209095e-05, 1.04436049e-05, 1.48016807e-05,
          2.10780649e-06, 1.29294722e-05, 6.66932738e-06, 1.07106162e-05,
          2.55719351e-06, 4.05462697e-06, 1.63250916e-05, 5.60099943e-06,
          -8.69918404e-06, 4.03737737e-08, 6.63561877e-06,
          5.97665621e-06, 2.34200866e-06, -2.22166273e-05,
          -9.80070581e-06, -1.48090076e-05, -1.92648185e-05,
          -1.39731878e-06, -1.29452392e-05, -2.59463832e-06,
          -6.87232978e-06, -3.59550177e-05, -1.31746838e-05,
          -1.08096829e-05, -1.32793311e-05, 6.15493946e-07,
          -2.16845888e-06, 2.33779883e-06, -1.09857820e-05,
          -2.05433516e-05, -1.24004509e-05, -4.19864500e-06,
          3.20483946e-06, 6.77515982e-06, 6.63009678e-06, 5.25633823e-06,
          -1.73088483e-05 ]
      - [ -4.98946065e-06, -1.80184088e-05, -6.74391686e-06,
          -3.72501768e-06, 6.77451408e-06, 2.49601840e-06,
          6.12425038e-06, -2.13771891e-05, -3.08199269e-05,
          -1.64716876e-05, 8.97038990e-06, 6.74904049e-06,
          1.27641142e-05, 1.29137443e-05, 9.53443578e-06, 4.11495512e-06,
          9.04113222e-07, 3.97450594e-06, -2.23692064e-06,
          3.51320227e-06, 1.10657375e-05, 1.06476600e-05, 7.07106801e-06,
          5.61254694e-07, -1.94399800e-05, -1.04980991e-05,
          -7.00669943e-06, -2.52149721e-06, 1.08529221e-05,
          6.06989170e-06, 6.34654862e-06, 6.30423847e-06,
          -1.54024765e-05, -6.26958808e-06, 5.83323754e-07,
          -1.28655238e-05, 9.58141754e-07, 3.56604187e-06,
          4.58104250e-06, 2.99608473e-06, 8.05143918e-06,
          -2.04049434e-06, -1.65496131e-05, -2.83999293e-06,
          1.72630243e-05, 1.85518820e-05, 7.52187452e-06,
          -2.67942414e-06, -2.69551547e-05, -1.83812481e-05,
          -1.09955990e-05, 5.91531443e-06, 1.93269825e-05,
          1.98834368e-05, 1.20012000e-05, -7.38260269e-07,
          -3.78639652e-06, -1.82892054e-05, -2.71072759e-06,
          9.66655080e-06, 1.41301143e-05, 1.30741264e-05, 2.90363778e-06,
          -1.90128540e-05 ]
      - [ 1.39150698e-05, 1.02981548e-05, 7.64156630e-06, 4.66108349e-06,
          4.67409109e-06, 1.83215889e-06, 2.85608940e-06,
          -2.86059708e-06, -7.22879167e-06, 8.82571271e-07,
          3.03288880e-06, -6.24292443e-06, -5.52697065e-06,
          -3.52352413e-06, 8.05857417e-06, 8.98263443e-06,
          1.84799376e-06, -4.14376871e-08, 2.44196121e-06,
          4.61754780e-06, 3.17374952e-06, 4.92119170e-06, 7.33697152e-06,
          -5.44608019e-06, -9.48152137e-06, -6.30213151e-07,
          6.63073661e-06, 1.08428567e-05, 1.97583449e-05, 1.08289796e-05,
          1.40618231e-05, 4.46108106e-06, -9.72039561e-06,
          -1.74152362e-07, 1.08362377e-08, 0., 6.47046136e-06,
          5.08712492e-06, 1.08480144e-05, 1.44069991e-05, 1.27686881e-05,
          3.35454661e-06, -1.58092575e-07, -6.73075192e-06,
          -9.66642801e-06, 1.98831935e-06, 1.04750770e-05,
          -1.14198133e-06, -4.71630801e-06, 7.08822063e-06,
          1.70243550e-06, -3.12306952e-07, 1.71029171e-07,
          1.03091531e-06, 2.46916420e-06, 3.09266011e-06, 8.45048271e-06,
          1.45313788e-05, 1.43994930e-05, 7.21202832e-06, 4.05468427e-06,
          4.98137240e-07, -1.39524025e-06, -5.92628248e-06 ]
      - [ 5.46960064e-06, 9.65033223e-07, 2.05288347e-06,
          -1.36701476e-06, -8.46470539e-06, -9.89321325e-06,
          2.94059248e-07, -3.42460658e-06, -6.29458964e-06,
          1.55193743e-06, -6.56273960e-06, 2.78274160e-06,
          -1.41447472e-05, -1.93069463e-05, -6.68148868e-06,
          -5.72717909e-07, -1.61858334e-05, -1.19997412e-05,
          -1.29787240e-05, -8.26103860e-06, 9.15034707e-06,
          5.35021309e-06, 6.87363354e-06, -6.50481206e-06,
          -1.53508299e-05, -1.07242686e-05, 1.20706900e-07,
          9.57999055e-06, 1.29473947e-05, 5.83841393e-06, 1.08499762e-05,
          -3.44561363e-06, -2.07089306e-06, -5.99206169e-06,
          -7.56492409e-06, -9.06425157e-06, -6.04502247e-06,
          -1.16302431e-06, 9.39514302e-06, 7.55663086e-06,
          1.65023800e-06, -3.94678864e-06, -1.05650570e-05,
          -1.63000732e-05, -1.42687331e-05, -7.31136970e-06,
          6.75020146e-06, -7.36354650e-07, -1.17590316e-05,
          9.08567199e-06, 3.65388428e-06, 2.25102622e-06,
          -7.99814416e-07, -1.42478466e-05, -8.60549517e-06,
          -4.28003113e-06, -7.44975659e-06, 7.15617352e-06,
          2.95525933e-06, 2.42317105e-06, -3.71389774e-06,
          -1.31394781e-05, -8.30161935e-06, -9.24266442e-06 ]
      - [ 1.16991678e-05, -6.07410311e-06, -8.08661662e-06,
          -2.67507244e-06, -5.54514997e-07, -5.24474387e-07,
          -4.88718888e-06, -1.24702619e-05, -1.75978530e-05,
          -1.16973843e-05, -2.29140437e-06, 3.18160824e-06,
          -2.50453149e-06, -2.31504919e-06, 9.88125612e-06,
          1.05331483e-05, -1.39437020e-06, -5.26566328e-06,
          -7.80019400e-06, 5.11813687e-06, 1.13147698e-05,
          8.90938099e-06, 1.21086759e-05, -1.42418901e-06,
          -1.80925508e-05, -2.15157052e-05, -4.55331292e-06,
          7.79758284e-06, 1.77937072e-05, 9.68330278e-06, 1.26568157e-05,
          1.43220780e-06, -1.19391752e-05, -1.84035980e-05,
          -6.65745256e-06, -9.27667406e-06, -1.00268635e-05,
          1.80758127e-06, 1.00937432e-05, 1.23361333e-05, 1.06492826e-05,
          -3.21031507e-07, -8.70079111e-06, -7.67225720e-06,
          -3.02121475e-06, 8.78271931e-06, 1.19386295e-05,
          2.01340777e-06, -1.34616967e-05, -1.19020581e-06,
          -1.48177162e-06, 8.34245930e-06, 6.92445383e-06,
          -2.45375986e-06, 1.93491337e-06, 3.53208338e-06,
          4.34062395e-06, 5.73484976e-06, 1.19055653e-06, 1.69551595e-06,
          6.71333282e-07, -7.01422005e-06, -1.02841877e-05,
          -7.63607204e-06 ]
      - [ -1.11367963e-05, -6.27849340e-06, -4.17885440e-06,
          -6.58700446e-06, -1.01383512e-05, -7.56964255e-06,
          -3.13297642e-06, 8.60074636e-07, 4.99286034e-06,
          -1.75287414e-06, -3.63593131e-06, 5.40368501e-06,
          -7.82559346e-06, -9.91690013e-06, -1.02748390e-05,
          -6.66830829e-06, -1.19974757e-05, -7.87923727e-06,
          -1.13985425e-05, -7.24869324e-06, 2.10305143e-06,
          -5.85191492e-06, 4.22117154e-07, 2.32361140e-06,
          2.76738228e-06, -6.46777380e-06, -6.07013180e-06,
          -5.30087345e-06, -8.02597788e-06, -6.98083932e-06,
          -3.44389559e-06, -5.17297394e-06, 5.40509700e-06,
          -2.99481121e-06, -5.29238696e-06, -7.50265735e-06,
          -8.71628345e-06, -5.99936084e-06, -4.28891508e-06,
          -3.56505734e-06, -1.29631317e-05, -6.97525093e-06,
          -8.50893593e-06, -5.05465550e-06, 2.88465321e-06,
          -9.64973879e-06, -1.05069387e-06, 3.42740395e-06,
          2.20850279e-06, -1.28236150e-06, -2.33906735e-06,
          5.91900893e-08, -3.85629119e-06, -1.05418958e-05,
          -7.97025405e-06, -5.78334084e-06, -1.28941392e-05,
          -8.56262068e-06, -8.15539261e-06, -6.63247511e-06,
          -9.01962721e-06, -8.52818448e-06, -4.86577346e-06,
          -6.89218851e-08 ]
      - [ -7.56007466e-06, -1.93971846e-05, -1.42555109e-05,
          -9.75196144e-06, -3.67703478e-06, -4.13540192e-06,
          -4.76439027e-06, -1.19059450e-05, -6.92896356e-06,
          -1.07804390e-05, 7.17498267e-07, 1.05497902e-05,
          1.05850613e-05, 1.44174260e-06, -1.46831474e-06,
          -7.09561164e-07, -4.29006968e-06, -8.32018031e-06,
          -1.21000867e-05, -1.76842400e-06, 1.22301726e-05,
          5.87793511e-06, 3.75866875e-06, 6.44983947e-06,
          -3.17584204e-06, -1.82253425e-05, -1.33649637e-05,
          -9.55610449e-06, -1.28794372e-05, -4.67727932e-06,
          -9.58778128e-06, -6.37574385e-06, -2.24251767e-06,
          -1.68182305e-05, -9.88690772e-06, -7.00788905e-06,
          -1.40250540e-05, -6.22236576e-06, -1.08426984e-05,
          -4.28000203e-06, -1.54013344e-06, -4.83835765e-06,
          -1.09898128e-05, 3.48754384e-06, 5.76128423e-06,
          4.14248143e-06, 1.44977332e-06, 4.49442359e-06,
          -2.04301841e-06, -8.91388117e-06, -3.96117866e-06,
          7.14782254e-06, 1.30927638e-05, -1.82651399e-06,
          -4.41357406e-06, -4.30206455e-06, -1.01571304e-05,
          -1.42587396e-05, -1.44799715e-05, -7.18444608e-06,
          -6.62543243e-06, -5.52495976e-06, -9.83817063e-06,
          -5.15073998e-06 ]
      - [ 1.33746425e-05, -9.33113370e-06, -8.24444578e-06,
          7.98161182e-07, 1.29097434e-05, 6.09230165e-06, 1.41483937e-07,
          -6.32545061e-06, -1.26457071e-05, -1.11677555e-05,
          3.78930031e-06, -2.27598684e-06, 1.67390699e-05,
          1.92817297e-05, 2.14898646e-05, 1.35696573e-05, 1.34511647e-05,
          6.13046222e-06, 6.35627430e-06, 9.90189073e-06, 2.37972608e-06,
          1.09362718e-05, 4.21962432e-06, 5.76228376e-06,
          -2.63971037e-06, -1.02682243e-05, -1.06289087e-06,
          1.23224845e-06, 1.15331102e-06, 5.74961587e-06,
          -1.93266078e-06, 3.56432770e-06, -1.34021730e-05,
          -8.11650443e-06, -1.28028796e-06, 1.33595768e-06,
          -3.68132919e-06, 4.12036979e-06, 3.36841964e-07,
          1.91250206e-06, 1.60042546e-05, 8.04031424e-06,
          -1.17784111e-06, 1.15640805e-05, 1.08312888e-05,
          1.67982398e-05, 4.69787210e-06, 2.31368199e-06,
          -4.27862824e-06, -1.26802679e-05, -1.49738344e-06,
          8.42024929e-06, 1.61032185e-05, 1.05922782e-05, 9.22843537e-06,
          7.55663768e-06, 1.38197856e-05, -2.10983467e-06,
          -3.77351671e-06, 7.39732513e-07, 6.84336192e-06,
          8.54274822e-06, 9.37748780e-07, 4.37227868e-07 ]
   decision_functions:
      -
         sv_count: 1
         rho: 5.7927850298217820e-01
         alpha: [ 1. ]
         index: [ 0 ]
      -
         sv_count: 1
         rho: 2.2809854975792726e-01
         alpha: [ 1. ]
         index: [ 1 ]
      -
         sv_count: 1
         rho: 7.9388428411419187e-01
         alpha: [ 1. ]
         index: [ 2 ]
      -
         sv_count: 1
         rho: 7.7535708102544523e-02
         alpha: [ 1. ]
         index: [ 3 ]
      -
         sv_count: 1
         rho: 1.1018995719656293e+00
         alpha: [ 1. ]
         index: [ 4 ]
      -
         sv_count: 1
         rho: -7.4576939763731032e-01
         alpha: [ 1. ]
         index: [ 5 ]
      -
         sv_count: 1
         rho: 8.3820518949962153e-01
         alpha: [ 1. ]
         index: [ 6 ]
      -
